{"learner":{"attributes":{},"feature_names":[],"feature_types":[],"gradient_booster":{"model":{"cats":{"enc":[],"feature_segments":[],"sorted_idx":[]},"gbtree_model_param":{"num_parallel_tree":"1","num_trees":"3000"},"iteration_indptr":[0,6,12,18,24,30,36,42,48,54,60,66,72,78,84,90,96,102,108,114,120,126,132,138,144,150,156,162,168,174,180,186,192,198,204,210,216,222,228,234,240,246,252,258,264,270,276,282,288,294,300,306,312,318,324,330,336,342,348,354,360,366,372,378,384,390,396,402,408,414,420,426,432,438,444,450,456,462,468,474,480,486,492,498,504,510,516,522,528,534,540,546,552,558,564,570,576,582,588,594,600,606,612,618,624,630,636,642,648,654,660,666,672,678,684,690,696,702,708,714,720,726,732,738,744,750,756,762,768,774,780,786,792,798,804,810,816,822,828,834,840,846,852,858,864,870,876,882,888,894,900,906,912,918,924,930,936,942,948,954,960,966,972,978,984,990,996,1002,1008,1014,1020,1026,1032,1038,1044,1050,1056,1062,1068,1074,1080,1086,1092,1098,1104,1110,1116,1122,1128,1134,1140,1146,1152,1158,1164,1170,1176,1182,1188,1194,1200,1206,1212,1218,1224,1230,1236,1242,1248,1254,1260,1266,1272,1278,1284,1290,1296,1302,1308,1314,1320,1326,1332,1338,1344,1350,1356,1362,1368,1374,1380,1386,1392,1398,1404,1410,1416,1422,1428,1434,1440,1446,1452,1458,1464,1470,1476,1482,1488,1494,1500,1506,1512,1518,1524,1530,1536,1542,1548,1554,1560,1566,1572,1578,1584,1590,1596,1602,1608,1614,1620,1626,1632,1638,1644,1650,1656,1662,1668,1674,1680,1686,1692,1698,1704,1710,1716,1722,1728,1734,1740,1746,1752,1758,1764,1770,1776,1782,1788,1794,1800,1806,1812,1818,1824,1830,1836,1842,1848,1854,1860,1866,1872,1878,1884,1890,1896,1902,1908,1914,1920,1926,1932,1938,1944,1950,1956,1962,1968,1974,1980,1986,1992,1998,2004,2010,2016,2022,2028,2034,2040,2046,2052,2058,2064,2070,2076,2082,2088,2094,2100,2106,2112,2118,2124,2130,2136,2142,2148,2154,2160,2166,2172,2178,2184,2190,2196,2202,2208,2214,2220,2226,2232,2238,2244,2250,2256,2262,2268,2274,2280,2286,2292,2298,2304,2310,2316,2322,2328,2334,2340,2346,2352,2358,2364,2370,2376,2382,2388,2394,2400,2406,2412,2418,2424,2430,2436,2442,2448,2454,2460,2466,2472,2478,2484,2490,2496,2502,2508,2514,2520,2526,2532,2538,2544,2550,2556,2562,2568,2574,2580,2586,2592,2598,2604,2610,2616,2622,2628,2634,2640,2646,2652,2658,2664,2670,2676,2682,2688,2694,2700,2706,2712,2718,2724,2730,2736,2742,2748,2754,2760,2766,2772,2778,2784,2790,2796,2802,2808,2814,2820,2826,2832,2838,2844,2850,2856,2862,2868,2874,2880,2886,2892,2898,2904,2910,2916,2922,2928,2934,2940,2946,2952,2958,2964,2970,2976,2982,2988,2994,3000],"tree_info":[0,1,2,3,4,5,0,1,2,3,4,5,0,1,2,3,4,5,0,1,2,3,4,5,0,1,2,3,4,5,0,1,2,3,4,5,0,1,2,3,4,5,0,1,2,3,4,5,0,1,2,3,4,5,0,1,2,3,4,5,0,1,2,3,4,5,0,1,2,3,4,5,0,1,2,3,4,5,0,1,2,3,4,5,0,1,2,3,4,5,0,1,2,3,4,5,0,1,2,3,4,5,0,1,2,3,4,5,0,1,2,3,4,5,0,1,2,3,4,5,0,1,2,3,4,5,0,1,2,3,4,5,0,1,2,3,4,5,0,1,2,3,4,5,0,1,2,3,4,5,0,1,2,3,4,5,0,1,2,3,4,5,0,1,2,3,4,5,0,1,2,3,4,5,0,1,2,3,4,5,0,1,2,3,4,5,0,1,2,3,4,5,0,1,2,3,4,5,0,1,2,3,4,5,0,1,2,3,4,5,0,1,2,3,4,5,0,1,2,3,4,5,0,1,2,3,4,5,0,1,2,3,4,5,0,1,2,3,4,5,0,1,2,3,4,5,0,1,2,3,4,5,0,1,2,3,4,5,0,1,2,3,4,5,0,1,2,3,4,5,0,1,2,3,4,5,0,1,2,3,4,5,0,1,2,3,4,5,0,1,2,3,4,5,0,1,2,3,4,5,0,1,2,3,4,5,0,1,2,3,4,5,0,1,2,3,4,5,0,1,2,3,4,5,0,1,2,3,4,5,0,1,2,3,4,5,0,1,2,3,4,5,0,1,2,3,4,5,0,1,2,3,4,5,0,1,2,3,4,5,0,1,2,3,4,5,0,1,2,3,4,5,0,1,2,3,4,5,0,1,2,3,4,5,0,1,2,3,4,5,0,1,2,3,4,5,0,1,2,3,4,5,0,1,2,3,4,5,0,1,2,3,4,5,0,1,2,3,4,5,0,1,2,3,4,5,0,1,2,3,4,5,0,1,2,3,4,5,0,1,2,3,4,5,0,1,2,3,4,5,0,1,2,3,4,5,0,1,2,3,4,5,0,1,2,3,4,5,0,1,2,3,4,5,0,1,2,3,4,5,0,1,2,3,4,5,0,1,2,3,4,5,0,1,2,3,4,5,0,1,2,3,4,5,0,1,2,3,4,5,0,1,2,3,4,5,0,1,2,3,4,5,0,1,2,3,4,5,0,1,2,3,4,5,0,1,2,3,4,5,0,1,2,3,4,5,0,1,2,3,4,5,0,1,2,3,4,5,0,1,2,3,4,5,0,1,2,3,4,5,0,1,2,3,4,5,0,1,2,3,4,5,0,1,2,3,4,5,0,1,2,3,4,5,0,1,2,3,4,5,0,1,2,3,4,5,0,1,2,3,4,5,0,1,2,3,4,5,0,1,2,3,4,5,0,1,2,3,4,5,0,1,2,3,4,5,0,1,2,3,4,5,0,1,2,3,4,5,0,1,2,3,4,5,0,1,2,3,4,5,0,1,2,3,4,5,0,1,2,3,4,5,0,1,2,3,4,5,0,1,2,3,4,5,0,1,2,3,4,5,0,1,2,3,4,5,0,1,2,3,4,5,0,1,2,3,4,5,0,1,2,3,4,5,0,1,2,3,4,5,0,1,2,3,4,5,0,1,2,3,4,5,0,1,2,3,4,5,0,1,2,3,4,5,0,1,2,3,4,5,0,1,2,3,4,5,0,1,2,3,4,5,0,1,2,3,4,5,0,1,2,3,4,5,0,1,2,3,4,5,0,1,2,3,4,5,0,1,2,3,4,5,0,1,2,3,4,5,0,1,2,3,4,5,0,1,2,3,4,5,0,1,2,3,4,5,0,1,2,3,4,5,0,1,2,3,4,5,0,1,2,3,4,5,0,1,2,3,4,5,0,1,2,3,4,5,0,1,2,3,4,5,0,1,2,3,4,5,0,1,2,3,4,5,0,1,2,3,4,5,0,1,2,3,4,5,0,1,2,3,4,5,0,1,2,3,4,5,0,1,2,3,4,5,0,1,2,3,4,5,0,1,2,3,4,5,0,1,2,3,4,5,0,1,2,3,4,5,0,1,2,3,4,5,0,1,2,3,4,5,0,1,2,3,4,5,0,1,2,3,4,5,0,1,2,3,4,5,0,1,2,3,4,5,0,1,2,3,4,5,0,1,2,3,4,5,0,1,2,3,4,5,0,1,2,3,4,5,0,1,2,3,4,5,0,1,2,3,4,5,0,1,2,3,4,5,0,1,2,3,4,5,0,1,2,3,4,5,0,1,2,3,4,5,0,1,2,3,4,5,0,1,2,3,4,5,0,1,2,3,4,5,0,1,2,3,4,5,0,1,2,3,4,5,0,1,2,3,4,5,0,1,2,3,4,5,0,1,2,3,4,5,0,1,2,3,4,5,0,1,2,3,4,5,0,1,2,3,4,5,0,1,2,3,4,5,0,1,2,3,4,5,0,1,2,3,4,5,0,1,2,3,4,5,0,1,2,3,4,5,0,1,2,3,4,5,0,1,2,3,4,5,0,1,2,3,4,5,0,1,2,3,4,5,0,1,2,3,4,5,0,1,2,3,4,5,0,1,2,3,4,5,0,1,2,3,4,5,0,1,2,3,4,5,0,1,2,3,4,5,0,1,2,3,4,5,0,1,2,3,4,5,0,1,2,3,4,5,0,1,2,3,4,5,0,1,2,3,4,5,0,1,2,3,4,5,0,1,2,3,4,5,0,1,2,3,4,5,0,1,2,3,4,5,0,1,2,3,4,5,0,1,2,3,4,5,0,1,2,3,4,5,0,1,2,3,4,5,0,1,2,3,4,5,0,1,2,3,4,5,0,1,2,3,4,5,0,1,2,3,4,5,0,1,2,3,4,5,0,1,2,3,4,5,0,1,2,3,4,5,0,1,2,3,4,5,0,1,2,3,4,5,0,1,2,3,4,5,0,1,2,3,4,5,0,1,2,3,4,5,0,1,2,3,4,5,0,1,2,3,4,5,0,1,2,3,4,5,0,1,2,3,4,5,0,1,2,3,4,5,0,1,2,3,4,5,0,1,2,3,4,5,0,1,2,3,4,5,0,1,2,3,4,5,0,1,2,3,4,5,0,1,2,3,4,5,0,1,2,3,4,5,0,1,2,3,4,5,0,1,2,3,4,5,0,1,2,3,4,5,0,1,2,3,4,5,0,1,2,3,4,5,0,1,2,3,4,5,0,1,2,3,4,5,0,1,2,3,4,5,0,1,2,3,4,5,0,1,2,3,4,5,0,1,2,3,4,5,0,1,2,3,4,5,0,1,2,3,4,5,0,1,2,3,4,5,0,1,2,3,4,5,0,1,2,3,4,5,0,1,2,3,4,5,0,1,2,3,4,5,0,1,2,3,4,5,0,1,2,3,4,5,0,1,2,3,4,5,0,1,2,3,4,5,0,1,2,3,4,5,0,1,2,3,4,5,0,1,2,3,4,5,0,1,2,3,4,5,0,1,2,3,4,5,0,1,2,3,4,5,0,1,2,3,4,5,0,1,2,3,4,5,0,1,2,3,4,5,0,1,2,3,4,5,0,1,2,3,4,5,0,1,2,3,4,5,0,1,2,3,4,5,0,1,2,3,4,5,0,1,2,3,4,5,0,1,2,3,4,5,0,1,2,3,4,5,0,1,2,3,4,5,0,1,2,3,4,5,0,1,2,3,4,5,0,1,2,3,4,5,0,1,2,3,4,5,0,1,2,3,4,5,0,1,2,3,4,5,0,1,2,3,4,5,0,1,2,3,4,5,0,1,2,3,4,5,0,1,2,3,4,5,0,1,2,3,4,5,0,1,2,3,4,5,0,1,2,3,4,5,0,1,2,3,4,5,0,1,2,3,4,5,0,1,2,3,4,5,0,1,2,3,4,5,0,1,2,3,4,5,0,1,2,3,4,5,0,1,2,3,4,5,0,1,2,3,4,5,0,1,2,3,4,5,0,1,2,3,4,5,0,1,2,3,4,5,0,1,2,3,4,5,0,1,2,3,4,5,0,1,2,3,4,5,0,1,2,3,4,5,0,1,2,3,4,5,0,1,2,3,4,5,0,1,2,3,4,5,0,1,2,3,4,5,0,1,2,3,4,5,0,1,2,3,4,5,0,1,2,3,4,5,0,1,2,3,4,5,0,1,2,3,4,5,0,1,2,3,4,5,0,1,2,3,4,5,0,1,2,3,4,5,0,1,2,3,4,5,0,1,2,3,4,5,0,1,2,3,4,5,0,1,2,3,4,5,0,1,2,3,4,5,0,1,2,3,4,5,0,1,2,3,4,5,0,1,2,3,4,5,0,1,2,3,4,5,0,1,2,3,4,5,0,1,2,3,4,5,0,1,2,3,4,5,0,1,2,3,4,5,0,1,2,3,4,5,0,1,2,3,4,5,0,1,2,3,4,5,0,1,2,3,4,5,0,1,2,3,4,5,0,1,2,3,4,5,0,1,2,3,4,5,0,1,2,3,4,5,0,1,2,3,4,5,0,1,2,3,4,5,0,1,2,3,4,5,0,1,2,3,4,5,0,1,2,3,4,5,0,1,2,3,4,5,0,1,2,3,4,5,0,1,2,3,4,5,0,1,2,3,4,5,0,1,2,3,4,5,0,1,2,3,4,5,0,1,2,3,4,5,0,1,2,3,4,5,0,1,2,3,4,5,0,1,2,3,4,5,0,1,2,3,4,5,0,1,2,3,4,5,0,1,2,3,4,5,0,1,2,3,4,5,0,1,2,3,4,5,0,1,2,3,4,5,0,1,2,3,4,5,0,1,2,3,4,5,0,1,2,3,4,5,0,1,2,3,4,5,0,1,2,3,4,5,0,1,2,3,4,5,0,1,2,3,4,5,0,1,2,3,4,5,0,1,2,3,4,5,0,1,2,3,4,5,0,1,2,3,4,5,0,1,2,3,4,5,0,1,2,3,4,5,0,1,2,3,4,5,0,1,2,3,4,5,0,1,2,3,4,5,0,1,2,3,4,5,0,1,2,3,4,5,0,1,2,3,4,5,0,1,2,3,4,5,0,1,2,3,4,5,0,1,2,3,4,5,0,1,2,3,4,5,0,1,2,3,4,5,0,1,2,3,4,5,0,1,2,3,4,5,0,1,2,3,4,5,0,1,2,3,4,5,0,1,2,3,4,5,0,1,2,3,4,5,0,1,2,3,4,5,0,1,2,3,4,5,0,1,2,3,4,5,0,1,2,3,4,5,0,1,2,3,4,5,0,1,2,3,4,5,0,1,2,3,4,5,0,1,2,3,4,5,0,1,2,3,4,5,0,1,2,3,4,5,0,1,2,3,4,5,0,1,2,3,4,5,0,1,2,3,4,5,0,1,2,3,4,5,0,1,2,3,4,5,0,1,2,3,4,5,0,1,2,3,4,5,0,1,2,3,4,5,0,1,2,3,4,5,0,1,2,3,4,5,0,1,2,3,4,5,0,1,2,3,4,5,0,1,2,3,4,5,0,1,2,3,4,5,0,1,2,3,4,5,0,1,2,3,4,5,0,1,2,3,4,5,0,1,2,3,4,5,0,1,2,3,4,5,0,1,2,3,4,5,0,1,2,3,4,5,0,1,2,3,4,5,0,1,2,3,4,5,0,1,2,3,4,5,0,1,2,3,4,5,0,1,2,3,4,5,0,1,2,3,4,5,0,1,2,3,4,5,0,1,2,3,4,5,0,1,2,3,4,5,0,1,2,3,4,5,0,1,2,3,4,5,0,1,2,3,4,5,0,1,2,3,4,5,0,1,2,3,4,5,0,1,2,3,4,5,0,1,2,3,4,5,0,1,2,3,4,5,0,1,2,3,4,5,0,1,2,3,4,5,0,1,2,3,4,5,0,1,2,3,4,5,0,1,2,3,4,5,0,1,2,3,4,5,0,1,2,3,4,5,0,1,2,3,4,5,0,1,2,3,4,5,0,1,2,3,4,5,0,1,2,3,4,5,0,1,2,3,4,5,0,1,2,3,4,5,0,1,2,3,4,5,0,1,2,3,4,5,0,1,2,3,4,5,0,1,2,3,4,5,0,1,2,3,4,5,0,1,2,3,4,5,0,1,2,3,4,5,0,1,2,3,4,5,0,1,2,3,4,5,0,1,2,3,4,5,0,1,2,3,4,5,0,1,2,3,4,5,0,1,2,3,4,5,0,1,2,3,4,5,0,1,2,3,4,5,0,1,2,3,4,5,0,1,2,3,4,5,0,1,2,3,4,5,0,1,2,3,4,5,0,1,2,3,4,5,0,1,2,3,4,5,0,1,2,3,4,5,0,1,2,3,4,5,0,1,2,3,4,5,0,1,2,3,4,5,0,1,2,3,4,5,0,1,2,3,4,5,0,1,2,3,4,5,0,1,2,3,4,5,0,1,2,3,4,5,0,1,2,3,4,5,0,1,2,3,4,5,0,1,2,3,4,5,0,1,2,3,4,5,0,1,2,3,4,5,0,1,2,3,4,5,0,1,2,3,4,5,0,1,2,3,4,5,0,1,2,3,4,5,0,1,2,3,4,5,0,1,2,3,4,5,0,1,2,3,4,5,0,1,2,3,4,5,0,1,2,3,4,5,0,1,2,3,4,5,0,1,2,3,4,5,0,1,2,3,4,5,0,1,2,3,4,5,0,1,2,3,4,5,0,1,2,3,4,5,0,1,2,3,4,5,0,1,2,3,4,5,0,1,2,3,4,5,0,1,2,3,4,5,0,1,2,3,4,5],"trees":[{"base_weights":[-3.8143683E-3,-4.7067612E-1,1.8740019E0,9.3156993E-1,-5.199632E-1,-3.2774472E-1,2.6765952E0,-1.8066566E-1,2.848907E-1,-5.350048E-1,7.8065556E-1,-5.220261E-1,1.5464301E0,-2.670464E-1,2.8685777E0,-3.6810037E-1,1.7968885E0,-2.5218424E-1,-5.760438E-1,-5.579933E-2,2.2877734E0,9.561366E-1,-5.8026737E-1,2.4310467E0,-4.8518065E-2,1.7343137E-1,-5.7443853E-2,2.9362433E0,-1.128171E-1,9.8719215E-1,-5.3718334E-1,2.079074E-1,5.7955146E-2,-4.283301E-1,1.5168056E0,-5.792346E-1,1.0856923E0,2.6981235E-1,-3.6134038E-2,-4.2093426E-2,2.079074E-1,6.866316E-2,-5.9546567E-2,2.6629838E-1,5.1921677E-2,2.954372E0,-3.9557204E-2,1.5907504E-1,-5.2894246E-2,-4.1137125E-2,2.0305105E-1,-5.8531243E-2,6.866316E-2,1.0250344E-1,-4.8092287E-2,-5.191621E-2,2.239263E-1,-5.834494E-2,1.755335E-2,1.8860796E-1,-3.3669826E-2,2.881E-2,2.967547E-1],"categories":[],"categories_nodes":[],"categories_segments":[],"categories_sizes":[],"default_left":[0,0,0,0,0,0,0,0,0,0,0,0,0,0,0,0,0,0,0,0,0,0,0,0,0,0,0,0,0,0,0,0,0,0,0,0,0,0,0,0,0,0,0,0,0,0,0,0,0,0,0,0,0,0,0,0,0,0,0,0,0,0,0],"id":0,"left_children":[1,3,5,7,9,11,13,15,-1,17,19,21,23,25,27,29,31,33,35,-1,37,39,41,43,-1,-1,-1,45,47,49,51,-1,-1,53,55,57,59,-1,-1,-1,-1,-1,-1,-1,-1,61,-1,-1,-1,-1,-1,-1,-1,-1,-1,-1,-1,-1,-1,-1,-1,-1,-1],"loss_changes":[2.4816038E3,1.5716562E2,9.9687756E2,1.6543631E2,4.327527E1,5.5957382E1,2.3426001E2,1.9151684E1,0E0,2.4997742E1,5.2626774E1,1.24338455E1,2.7200405E1,1.7121775E1,7.8596924E1,1.1162167E1,3.3703136E-1,8.673961E1,1.0655334E1,0E0,1.4203281E1,9.54763E0,2.9769707E0,3.1637611E0,0E0,0E0,0E0,2.4083984E1,7.627463E0,8.858513E0,2.8696737E0,0E0,0E0,1.975827E1,3.828747E1,6.1085205E0,5.1569443E0,0E0,0E0,0E0,0E0,0E0,0E0,0E0,0E0,1.2404053E1,0E0,0E0,0E0,0E0,0E0,0E0,0E0,0E0,0E0,0E0,0E0,0E0,0E0,0E0,0E0,0E0,0E0],"parents":[2147483647,0,0,1,1,2,2,3,3,4,4,5,5,6,6,7,7,9,9,10,10,11,11,12,12,13,13,14,14,15,15,16,16,17,17,18,18,20,20,21,21,22,22,23,23,27,27,28,28,29,29,30,30,33,33,34,34,35,35,36,36,45,45],"right_children":[2,4,6,8,10,12,14,16,-1,18,20,22,24,26,28,30,32,34,36,-1,38,40,42,44,-1,-1,-1,46,48,50,52,-1,-1,54,56,58,60,-1,-1,-1,-1,-1,-1,-1,-1,62,-1,-1,-1,-1,-1,-1,-1,-1,-1,-1,-1,-1,-1,-1,-1,-1,-1],"split_conditions":[1.9951109E1,4.8344755E0,1.9190868E0,1.5912205E1,2.1189829E1,2.4326773E0,1.3957829E1,1.8369524E1,2.848907E-1,-1.4727138E0,2.1048343E0,5.873691E0,-1.677007E0,7.884246E0,1.6417233E1,4.325205E0,2.283E0,4.4323816E0,1.9913486E1,-5.579933E-2,1.014873E1,2.4946692E0,3.0383406E0,1.329114E1,-4.8518065E-2,1.7343137E-1,-5.7443853E-2,1.5674963E1,3.1782837E0,8.369804E0,4.9245257E0,2.079074E-1,5.7955146E-2,4.497198E0,6.91E-1,6.4854064E0,4.553E0,2.6981235E-1,-3.6134038E-2,-4.2093426E-2,2.079074E-1,6.866316E-2,-5.9546567E-2,2.6629838E-1,5.1921677E-2,1.0035423E1,-3.9557204E-2,1.5907504E-1,-5.2894246E-2,-4.1137125E-2,2.0305105E-1,-5.8531243E-2,6.866316E-2,1.0250344E-1,-4.8092287E-2,-5.191621E-2,2.239263E-1,-5.834494E-2,1.755335E-2,1.8860796E-1,-3.3669826E-2,2.881E-2,2.967547E-1],"split_indices":[556,553,1627,370,131,2214,1230,131,0,2672,1533,640,1711,426,306,1351,48,1627,556,0,1176,2243,400,765,0,0,0,1097,630,228,1481,0,0,317,3611,2040,13,0,0,0,0,0,0,0,0,853,0,0,0,0,0,0,0,0,0,0,0,0,0,0,0,0,0],"split_type":[0,0,0,0,0,0,0,0,0,0,0,0,0,0,0,0,0,0,0,0,0,0,0,0,0,0,0,0,0,0,0,0,0,0,0,0,0,0,0,0,0,0,0,0,0,0,0,0,0,0,0,0,0,0,0,0,0,0,0,0,0,0,0],"sum_hessian":[2.8286758E3,2.2660427E3,5.626331E2,7.63361E1,2.1897068E3,1.5046246E2,4.1217062E2,4.8884354E1,2.7451742E1,2.1652544E3,2.4452375E1,1.3698386E2,1.3478607E1,2.5211731E1,3.869589E2,4.5395573E1,3.4887805E0,2.752832E2,1.8899711E3,1.3283498E1,1.1168877E1,4.6083026E0,1.3237556E2,9.252998E0,4.225609E0,2.7386942E0,2.2473036E1,3.7838623E2,8.572676E0,4.4985685E0,4.0897003E1,2.2575753E0,1.2312051E0,2.510436E2,2.423961E1,1.8869991E3,2.9719372E0,9.654835E0,1.5140423E0,2.3507273E0,2.2575753E0,1.0455127E0,1.3133005E2,7.9015136E0,1.3514849E0,3.764512E2,1.9350213E0,1.1287876E0,7.443888E0,2.1808536E0,2.3177152E0,3.985149E1,1.0455127E0,8.121498E0,2.429221E2,6.422281E0,1.7817331E1,1.876746E3,1.0253268E1,1.6931815E0,1.2787557E0,1.9634292E0,3.7448776E2],"tree_param":{"num_deleted":"0","num_feature":"4192","num_nodes":"63","size_leaf_vector":"1"}},{"base_weights":[1.1363031E-2,2.6011167E0,-3.270194E-1,2.823553E0,7.1136796E-1,2.4375286E0,-4.1959298E-1,2.9462373E0,2.1582801E0,2.712663E-1,-1.1399628E-1,2.757753E0,3.040643E-1,1.7274237E0,-4.7850558E-1,2.9626915E0,4.6851855E-2,8.6511856E-1,2.6829548E0,2.1491252E-1,-4.4650316E-1,2.8848038E0,3.273994E-1,-3.5176283E-1,2.0868246E-1,2.7402806E0,3.6388803E-1,-5.0535744E-1,2.2197528E0,2.9709926E0,5.4006327E-2,-2.1068325E-2,1.8621286E0,2.7896829E0,2.6792686E-3,8.553343E-2,-5.6340195E-2,4.9206916E-2,2.9335845E0,-4.3302227E-2,1.516586E-1,5.4006327E-2,-5.281347E-2,7.8727585E-1,2.9106638E-1,1.9714769E0,-3.235017E-1,-5.223698E-1,2.607179E0,2.8409088E-1,-3.3160508E-1,2.9818353E-1,9.976705E-2,1.1921499E-1,-3.8635444E-2,2.4837255E-1,-2.8043741E-2,2.8646734E-1,3.8249474E-2,8.7043166E-2,2.953104E-1,1.7411824E-1,-2.4993157E-2,1.9541757E-2,2.5407535E-1,-4.919224E-2,1.1921499E-1,1.5667652E-1,-5.4132123E-2,5.4006327E-2,2.744972E-1,7.5246147E-3,-4.6017535E-2],"categories":[],"categories_nodes":[],"categories_segments":[],"categories_sizes":[],"default_left":[0,0,0,0,0,0,0,0,0,0,0,0,0,0,0,0,0,0,0,0,0,0,0,0,0,0,0,0,0,0,0,0,0,0,0,0,0,0,0,0,0,0,0,0,0,0,0,0,0,0,0,0,0,0,0,0,0,0,0,0,0,0,0,0,0,0,0,0,0,0,0,0,0],"id":1,"left_children":[1,3,5,7,9,11,13,15,17,-1,19,21,23,25,27,29,-1,31,33,-1,35,37,39,41,-1,43,45,47,49,51,-1,53,55,57,-1,-1,-1,-1,59,-1,-1,-1,-1,61,-1,63,65,67,69,-1,71,-1,-1,-1,-1,-1,-1,-1,-1,-1,-1,-1,-1,-1,-1,-1,-1,-1,-1,-1,-1,-1,-1],"loss_changes":[2.468879E3,1.348457E2,6.387235E2,1.7388184E1,5.9151722E1,5.441922E1,3.05896E2,8.515137E0,3.0951859E1,0E0,2.0661055E1,2.0732544E1,1.4389718E1,8.8260666E1,1.7125995E2,3.2443848E0,0E0,1.384896E1,9.679947E0,0E0,4.08184E0,6.32843E0,4.8305783E0,1.7628858E0,0E0,9.997406E0,3.2351685E1,1.2452295E2,3.790558E1,2.1621094E0,0E0,4.566019E0,1.0507072E1,4.874115E0,0E0,0E0,0E0,0E0,4.9438477E-2,0E0,0E0,0E0,0E0,4.7233295E0,0E0,8.337151E0,5.937448E0,9.2468445E1,2.1664581E0,0E0,3.2034487E-1,0E0,0E0,0E0,0E0,0E0,0E0,0E0,0E0,0E0,0E0,0E0,0E0,0E0,0E0,0E0,0E0,0E0,0E0,0E0,0E0,0E0,0E0],"parents":[2147483647,0,0,1,1,2,2,3,3,4,4,5,5,6,6,7,7,8,8,10,10,11,11,12,12,13,13,14,14,15,15,17,17,18,18,20,20,21,21,22,22,23,23,25,25,26,26,27,27,28,28,29,29,31,31,32,32,33,33,38,38,43,43,45,45,46,46,47,47,48,48,50,50],"right_children":[2,4,6,8,10,12,14,16,18,-1,20,22,24,26,28,30,-1,32,34,-1,36,38,40,42,-1,44,46,48,50,52,-1,54,56,58,-1,-1,-1,-1,60,-1,-1,-1,-1,62,-1,64,66,68,70,-1,72,-1,-1,-1,-1,-1,-1,-1,-1,-1,-1,-1,-1,-1,-1,-1,-1,-1,-1,-1,-1,-1,-1],"split_conditions":[1.0741304E1,1.7828781E1,8.623839E0,3.3333E1,-3.529957E-1,3.795589E0,-1.1205266E0,1.49E0,-3E-3,2.712663E-1,-8.9206356E-1,2.1119453E1,-5.666797E-1,3E1,2.6364808E0,2.274627E1,4.6851855E-2,-2.354095E0,7.612175E0,2.1491252E-1,1.343893E0,1.5404341E0,1.0284545E1,8.655968E0,2.0868246E-1,-3.9045959E0,2.1429E1,4.1582355E0,3.3926764E0,3.16E-1,5.4006327E-2,5.65962E5,4.6930385E0,2.1151197E1,2.6792686E-3,8.553343E-2,-5.6340195E-2,4.9206916E-2,-4.8620486E-1,-4.3302227E-2,1.516586E-1,5.4006327E-2,-5.281347E-2,1.0085272E0,2.9106638E-1,-2.847788E0,1.2897782E0,-3.3334851E0,1.175E0,2.8409088E-1,4.566E0,2.9818353E-1,9.976705E-2,1.1921499E-1,-3.8635444E-2,2.4837255E-1,-2.8043741E-2,2.8646734E-1,3.8249474E-2,8.7043166E-2,2.953104E-1,1.7411824E-1,-2.4993157E-2,1.9541757E-2,2.5407535E-1,-4.919224E-2,1.1921499E-1,1.5667652E-1,-5.4132123E-2,5.4006327E-2,2.744972E-1,7.5246147E-3,-4.6017535E-2],"split_indices":[679,1230,369,3899,2579,1980,1587,3768,3373,0,2187,1149,1589,4021,2194,314,0,2220,2043,0,1849,448,230,430,0,2138,3958,2554,1601,3236,0,4093,2337,1169,0,0,0,0,1058,0,0,0,0,1672,0,1871,1869,2413,23,0,28,0,0,0,0,0,0,0,0,0,0,0,0,0,0,0,0,0,0,0,0,0,0],"split_type":[0,0,0,0,0,0,0,0,0,0,0,0,0,0,0,0,0,0,0,0,0,0,0,0,0,0,0,0,0,0,0,0,0,0,0,0,0,0,0,0,0,0,0,0,0,0,0,0,0,0,0,0,0,0,0,0,0,0,0,0,0,0,0,0,0,0,0,0,0,0,0,0,0],"sum_hessian":[2.8153315E3,3.245737E2,2.4907578E3,2.899504E2,3.4623306E1,7.988228E1,2.4108755E3,2.4191068E2,4.803973E1,9.442078E0,2.5181229E1,6.920262E1,1.0679655E1,6.3629642E1,2.3472458E3,2.4012033E2,1.7903488E0,1.4630047E1,3.3409683E1,2.5259063E0,2.2655323E1,6.558696E1,3.6156592E0,8.394312E0,2.2853436E0,3.5930317E1,2.7699326E1,2.324922E3,2.2323896E1,2.390748E2,1.045526E0,8.263738E0,6.366309E0,3.207077E1,1.3389125E0,1.3462291E0,2.1309093E1,1.5319239E0,6.405504E1,2.5932684E0,1.0223906E0,1.045526E0,7.3487854E0,3.3340988E0,3.259622E1,7.736954E0,1.9962372E1,2.3131113E3,1.1810698E1,1.7861765E1,4.4621305E0,2.3726004E2,1.8147645E0,1.3885072E0,6.8752303E0,4.8112497E0,1.5550592E0,3.0917555E1,1.1532177E0,1.0276635E0,6.3027374E1,1.3832344E0,1.9508644E0,2.2040164E0,5.5329375E0,1.8573864E1,1.3885072E0,2.006032E1,2.293051E3,1.045526E0,1.0765172E1,1.1710801E0,3.2910504E0],"tree_param":{"num_deleted":"0","num_feature":"4192","num_nodes":"73","size_leaf_vector":"1"}},{"base_weights":[-1.6958933E-2,-5.9974737E-2,2.8601365E0,2.990746E-1,-5.6760162E-2],"categories":[],"categories_nodes":[],"categories_segments":[],"categories_sizes":[],"default_left":[0,0,0,0,0],"id":2,"left_children":[1,-1,3,-1,-1],"loss_changes":[4.794583E3,0E0,2.1733154E2,0E0,0E0],"parents":[2147483647,0,0,2,2],"right_children":[2,-1,4,-1,-1],"split_conditions":[2.217639E1,-5.9974737E-2,-4.332994E0,2.990746E-1,-5.6760162E-2],"split_indices":[1334,0,2546,0,0],"split_type":[0,0,0,0,0],"sum_hessian":[2.857448E3,2.376793E3,4.806549E2,4.6313525E2,1.7519642E1],"tree_param":{"num_deleted":"0","num_feature":"4192","num_nodes":"5","size_leaf_vector":"1"}},{"base_weights":[1.1897966E-2,2.3362978E0,-3.267168E-1,4.41799E-3,2.7823865E0,-4.1475955E-1,1.4322864E0,-4.7308233E-1,1.7825023E0,-1.4369455E-1,2.9049795E0,7.9634404E-1,-5.10998E-1,-4.2499217E-1,2.4220068E0,1.1252723E-1,-5.570209E-1,2.5037584E-1,-4.4562746E-2,1.6201587E-1,-5.465416E-2,-1.7314841E-1,2.943868E0,-4.417635E-1,1.4928936E0,-5.31776E-1,1.2217537E0,-5.5015147E-1,1.0279055E0,-5.1470328E-2,2.6839547E0,-5.8623787E-2,3.4592576E-2,-4.2687606E-2,3.4592576E-2,8.269401E-3,2.962118E0,-5.4559904E-1,1.3903877E0,2.1662834E0,-7.508154E-2,-5.490437E-1,5.243178E-1,-4.189579E-1,2.2281964E0,-5.8397796E-2,3.4592576E-2,-3.199735E-2,1.782694E-1,-4.2381886E-2,2.8014941E0,6.0098697E-2,2.9743716E-1,6.284047E-2,-5.8962803E-2,2.9295588E-2,1.782694E-1,-5.9883143E-3,2.406855E-1,-3.6091972E-2,1.7656823E-1,1.337224E-1,-5.5586644E-2,2.0440972E-1,-5.10144E-2,-5.372816E-2,3.4592576E-2,2.6185918E-1,-3.9644487E-2,-3.4426823E-2,2.8710184E-1],"categories":[],"categories_nodes":[],"categories_segments":[],"categories_sizes":[],"default_left":[0,0,0,0,0,0,0,0,0,0,0,0,0,0,0,0,0,0,0,0,0,0,0,0,0,0,0,0,0,0,0,0,0,0,0,0,0,0,0,0,0,0,0,0,0,0,0,0,0,0,0,0,0,0,0,0,0,0,0,0,0,0,0,0,0,0,0,0,0,0,0],"id":3,"left_children":[1,3,5,7,9,11,13,15,17,19,21,23,25,27,29,-1,31,-1,-1,-1,-1,33,35,37,39,41,43,45,47,-1,49,-1,-1,-1,-1,-1,51,53,55,57,59,61,63,65,67,-1,-1,-1,-1,-1,69,-1,-1,-1,-1,-1,-1,-1,-1,-1,-1,-1,-1,-1,-1,-1,-1,-1,-1,-1,-1],"loss_changes":[2.185125E3,3.6720105E2,3.758802E2,4.9823147E1,1.0671411E2,2.6947812E2,2.1377028E2,6.8340874E0,2.1079018E1,1.0029458E1,3.4560303E1,1.4755374E2,7.766766E1,8.036394E0,5.9576416E1,0E0,1.3801126E0,0E0,0E0,0E0,0E0,7.3946124E-1,1.4425781E1,1.2572144E1,1.15498215E2,3.884973E1,4.329092E1,1.3682928E0,4.2401495E0,0E0,2.6616943E1,0E0,0E0,0E0,0E0,0E0,6.2890625E0,3.4453125E0,1.0329838E0,4.1086792E1,1.8413317E1,2.7524963E1,5.532852E1,1.1446819E0,1.7490837E1,0E0,0E0,0E0,0E0,0E0,1.5687683E1,0E0,0E0,0E0,0E0,0E0,0E0,0E0,0E0,0E0,0E0,0E0,0E0,0E0,0E0,0E0,0E0,0E0,0E0,0E0,0E0],"parents":[2147483647,0,0,1,1,2,2,3,3,4,4,5,5,6,6,7,7,8,8,9,9,10,10,11,11,12,12,13,13,14,14,16,16,21,21,22,22,23,23,24,24,25,25,26,26,27,27,28,28,30,30,36,36,37,37,38,38,39,39,40,40,41,41,42,42,43,43,44,44,50,50],"right_children":[2,4,6,8,10,12,14,16,18,20,22,24,26,28,30,-1,32,-1,-1,-1,-1,34,36,38,40,42,44,46,48,-1,50,-1,-1,-1,-1,-1,52,54,56,58,60,62,64,66,68,-1,-1,-1,-1,-1,70,-1,-1,-1,-1,-1,-1,-1,-1,-1,-1,-1,-1,-1,-1,-1,-1,-1,-1,-1,-1],"split_conditions":[-1.7345333E0,1.1289113E-1,3.8836033E0,1.9077423E1,1.2322094E1,4.4636483E0,1.5553203E1,-1.0789158E1,1.2379247E1,4.7996464E0,1.0574544E1,1.3909313E1,2.0177729E1,1.608E0,-2.1708934E0,1.1252723E-1,2.3934334E1,2.5037584E-1,-4.4562746E-2,1.6201587E-1,-5.465416E-2,3.215E0,-1.4687312E-1,1.8695805E1,-8.5662615E-1,1.9901201E1,1.407027E1,1.7558384E1,2.1582539E1,-5.1470328E-2,1.251371E1,-5.8623787E-2,3.4592576E-2,-4.2687606E-2,3.4592576E-2,8.269401E-3,-4.1925626E0,-2.69E-1,1.9412605E1,8.875345E0,3.2786741E0,3.1858702E0,-7.339205E-2,2.222E0,1.9388E1,-5.8397796E-2,3.4592576E-2,-3.199735E-2,1.782694E-1,-4.2381886E-2,-1.4304405E0,6.0098697E-2,2.9743716E-1,6.284047E-2,-5.8962803E-2,2.9295588E-2,1.782694E-1,-5.9883143E-3,2.406855E-1,-3.6091972E-2,1.7656823E-1,1.337224E-1,-5.5586644E-2,2.0440972E-1,-5.10144E-2,-5.372816E-2,3.4592576E-2,2.6185918E-1,-3.9644487E-2,-3.4426823E-2,2.8710184E-1],"split_indices":[1803,2488,2488,1146,1018,1395,173,1819,971,468,679,173,592,3594,2579,0,239,0,0,0,0,15,1431,739,1856,303,303,129,1117,0,495,0,0,0,0,0,2309,3139,141,1253,1949,445,2599,37,4178,0,0,0,0,0,2168,0,0,0,0,0,0,0,0,0,0,0,0,0,0,0,0,0,0,0,0],"split_type":[0,0,0,0,0,0,0,0,0,0,0,0,0,0,0,0,0,0,0,0,0,0,0,0,0,0,0,0,0,0,0,0,0,0,0,0,0,0,0,0,0,0,0,0,0,0,0,0,0,0,0,0,0,0,0,0,0,0,0,0,0,0,0,0,0,0,0,0,0,0,0],"sum_hessian":[2.7742864E3,3.5201337E2,2.422273E3,5.6688824E1,2.9532455E2,2.3075388E3,1.1473418E2,4.526654E1,1.1422285E1,1.1868631E1,2.834559E2,1.6933125E2,2.1382075E3,4.008413E1,7.465005E1,1.6395931E0,4.3626945E1,8.535574E0,2.8867102E0,1.644866E0,1.0223765E1,3.493381E0,2.7996252E2,6.1097336E1,1.0823392E2,2.1135564E3,2.4651215E1,3.7477028E1,2.6071026E0,6.034301E0,6.8615746E1,4.2599297E1,1.0276494E0,2.4657316E0,1.0276494E0,1.8094668E0,2.7815308E2,5.848496E1,2.6123755E0,7.544946E1,3.2784454E1,2.0800269E3,3.3529533E1,9.594274E0,1.5056942E1,3.644938E1,1.0276494E0,1.1426562E0,1.4644465E0,2.405592E0,6.621015E1,1.69446E0,2.7645862E2,1.6343203E0,5.685064E1,1.147929E0,1.4644465E0,7.4315443E0,6.801792E1,2.9073744E1,3.7107105E0,6.7936587E0,2.0732332E3,1.3184106E1,2.0345427E1,8.566624E0,1.0276494E0,1.3109333E1,1.9476086E0,1.3462106E0,6.4863945E1],"tree_param":{"num_deleted":"0","num_feature":"4192","num_nodes":"71","size_leaf_vector":"1"}},{"base_weights":[-2.2777554E-2,-4.7483623E-1,2.6896825E0,1.3495812E0,-5.212607E-1,-5.823632E-2,2.980935E0,-5.768888E-2,2.7103007E0,2.1161323E-2,-5.72593E-1,2.99194E-1,-3.1997364E-2,2.9110384E-1,-4.0293958E-2,-5.375242E-1,2.3103902E0,-5.770859E-1,2.1949856E-1,2.1075957E-1,-5.963383E-2,-5.191129E-2,2.85557E-1,-5.815871E-1,1.9482453E-1,-5.997144E-2,3.352722E-3],"categories":[],"categories_nodes":[],"categories_segments":[],"categories_sizes":[],"default_left":[0,0,0,0,0,0,0,0,0,0,0,0,0,0,0,0,0,0,0,0,0,0,0,0,0,0,0],"id":4,"left_children":[1,3,5,7,9,-1,11,-1,13,15,17,-1,-1,-1,-1,19,21,23,-1,-1,-1,-1,-1,25,-1,-1,-1],"loss_changes":[3.4847913E3,2.0702173E2,3.886338E2,1.6074933E2,6.617493E1,0E0,1.4505615E1,0E0,2.352359E1,2.6521518E2,2.8259766E1,0E0,0E0,0E0,0E0,2.719331E1,6.4232376E1,2.5777771E1,0E0,0E0,0E0,0E0,0E0,2.4160706E1,0E0,0E0,0E0],"parents":[2147483647,0,0,1,1,2,2,3,3,4,4,6,6,8,8,9,9,10,10,15,15,16,16,17,17,23,23],"right_children":[2,4,6,8,10,-1,12,-1,14,16,18,-1,-1,-1,-1,20,22,24,-1,-1,-1,-1,-1,26,-1,-1,-1],"split_conditions":[1.9039948E1,-4.8861737E0,2.02109E1,3.3062828E0,-4.4857106E0,-5.823632E-2,1.188273E1,-5.768888E-2,-3.0661821E0,2.968052E0,5.8E0,2.99194E-1,-3.1997364E-2,2.9110384E-1,-4.0293958E-2,6.45E-1,1.6103458E1,3.1493246E1,2.1949856E-1,2.1075957E-1,-5.963383E-2,-5.191129E-2,2.85557E-1,4.876748E0,1.9482453E-1,-5.997144E-2,3.352722E-3],"split_indices":[940,2056,784,1594,1929,0,666,0,2141,2600,3034,0,0,0,0,2852,731,182,0,0,0,0,0,1402,0,0,0],"split_type":[0,0,0,0,0,0,0,0,0,0,0,0,0,0,0,0,0,0,0,0,0,0,0,0,0,0,0],"sum_hessian":[2.8399226E3,2.4349404E3,4.049823E2,5.972584E1,2.3752146E3,3.302028E1,3.7196204E2,2.4961733E1,3.476411E1,2.0539702E2,2.1698174E3,3.7081937E2,1.1426566E0,3.2719357E1,2.0447538E0,1.6571863E2,3.9678383E1,2.1670908E3,2.726613E0,2.8468926E0,1.6287173E2,6.4177666E0,3.3260616E1,2.1640034E3,3.087452E0,2.1020806E3,6.1922844E1],"tree_param":{"num_deleted":"0","num_feature":"4192","num_nodes":"27","size_leaf_vector":"1"}},{"base_weights":[4.0583827E-2,2.1480958E0,-3.4711605E-1,-5.932793E-2,2.824006E0,1.8108567E0,-5.5361E-1,-5.5947986E-2,2.9609922E-1,-5.907138E-2,2.8406E0,-5.997258E-2,2.8205976E-1,-4.8995435E-2,2.9466236E-1],"categories":[],"categories_nodes":[],"categories_segments":[],"categories_sizes":[],"default_left":[0,0,0,0,0,0,0,0,0,0,0,0,0,0,0],"id":5,"left_children":[1,3,5,-1,7,9,11,-1,-1,-1,13,-1,-1,-1,-1],"loss_changes":[2.3517625E3,8.303247E2,1.0843302E3,0E0,1.6801782E2,5.273121E2,3.4706573E2,0E0,0E0,0E0,5.403528E1,0E0,0E0,0E0,0E0],"parents":[2147483647,0,0,1,1,2,2,4,4,5,5,6,6,10,10],"right_children":[2,4,6,-1,8,10,12,-1,-1,-1,14,-1,-1,-1,-1],"split_conditions":[1.03350315E1,1.6289387E1,3.2517724E0,-5.932793E-2,3.8445983E0,1.55E-1,2.7229172E1,-5.5947986E-2,2.9609922E-1,-5.907138E-2,7.329E0,-5.997258E-2,2.8205976E-1,-4.8995435E-2,2.9466236E-1],"split_indices":[1107,322,1103,0,1412,3305,263,0,0,0,24,0,0,0,0],"split_type":[0,0,0,0,0,0,0,0,0,0,0,0,0,0,0],"sum_hessian":[2.876332E3,4.4621188E2,2.4301204E3,8.8281105E1,3.579308E2,2.1154913E2,2.218571E3,1.3807548E1,3.4412323E2,6.3614212E1,1.4793492E2,2.1894697E3,2.9101494E1,4.452296E0,1.4348262E2],"tree_param":{"num_deleted":"0","num_feature":"4192","num_nodes":"15","size_leaf_vector":"1"}},{"base_weights":[-8.8206865E-3,-4.2975095E-1,1.7792274E0,-5.2713627E-1,4.9921697E-1,-2.709391E-1,2.1340704E0,2.3740223E-2,-5.481569E-1,1.7766263E0,-4.6372777E-1,-5.2460855E-1,7.783147E-1,-1.3492566E-1,2.2232208E0,-3.0732062E-1,1.4702575E0,-5.5762655E-1,4.783707E-1,-5.36096E-2,2.0242815E0,1.0756855E0,-5.715571E-1,1.23706415E-1,-5.8397334E-2,-5.158409E-2,1.6920865E0,1.4337019E0,-5.565951E-2,-4.714114E-2,2.2471817E0,1.2125244E0,-5.4863846E-1,-4.7842927E-2,2.2669272E-1,2.9970992E-1,-5.681883E-1,1.7108419E0,-5.4267507E-2,-4.5429673E-2,2.1250215E0,-4.381391E-2,1.8702944E-1,7.0110135E-2,-5.8806628E-2,-3.3716284E-2,2.0383517E-1,1.751982E-1,4.7125567E-2,-3.7978426E-2,2.25834E0,-4.461746E-2,2.0977071E-1,-5.837828E-2,6.866964E-2,1.2735184E-1,-5.537783E-2,-5.701649E-2,1.07855916E-1,-3.4494143E-2,2.1238041E-1,2.2000757E-1,-4.1303087E-2,2.2628088E-1,4.7939554E-2],"categories":[],"categories_nodes":[],"categories_segments":[],"categories_sizes":[],"default_left":[0,0,0,0,0,0,0,0,0,0,0,0,0,0,0,0,0,0,0,0,0,0,0,0,0,0,0,0,0,0,0,0,0,0,0,0,0,0,0,0,0,0,0,0,0,0,0,0,0,0,0,0,0,0,0,0,0,0,0,0,0,0,0,0,0],"id":6,"left_children":[1,3,5,7,9,11,13,15,17,19,21,23,25,27,29,31,33,35,37,-1,39,41,43,-1,-1,-1,45,47,-1,-1,49,51,53,-1,-1,55,57,59,-1,-1,61,-1,-1,-1,-1,-1,-1,-1,-1,-1,63,-1,-1,-1,-1,-1,-1,-1,-1,-1,-1,-1,-1,-1,-1],"loss_changes":[2.1868418E3,2.1303146E2,4.0336304E2,2.4668762E1,2.759547E2,2.2387306E1,9.579468E1,3.838877E1,2.0203918E1,5.6267212E1,2.1916092E1,7.7395363E0,2.0361206E1,1.3226623E1,3.0391602E1,2.461224E1,2.4257954E1,1.8576294E1,2.51973E1,0E0,2.2747192E1,1.1341494E1,2.9457092E0,0E0,0E0,0E0,7.6387196E0,4.7950554E-1,0E0,0E0,1.4061768E1,1.4529023E1,2.8770294E0,0E0,0E0,2.1808794E1,7.1516113E0,8.355246E0,0E0,0E0,1.6910736E1,0E0,0E0,0E0,0E0,0E0,0E0,0E0,0E0,0E0,2.4824219E0,0E0,0E0,0E0,0E0,0E0,0E0,0E0,0E0,0E0,0E0,0E0,0E0,0E0,0E0],"parents":[2147483647,0,0,1,1,2,2,3,3,4,4,5,5,6,6,7,7,8,8,9,9,10,10,11,11,12,12,13,13,14,14,15,15,16,16,17,17,18,18,20,20,21,21,22,22,26,26,27,27,30,30,31,31,32,32,35,35,36,36,37,37,40,40,50,50],"right_children":[2,4,6,8,10,12,14,16,18,20,22,24,26,28,30,32,34,36,38,-1,40,42,44,-1,-1,-1,46,48,-1,-1,50,52,54,-1,-1,56,58,60,-1,-1,62,-1,-1,-1,-1,-1,-1,-1,-1,-1,64,-1,-1,-1,-1,-1,-1,-1,-1,-1,-1,-1,-1,-1,-1],"split_conditions":[1.6599194E1,2.0140125E1,7.1349454E-1,5.2119937E0,1.2488786E1,1.6624167E0,1.2436345E1,1.45E0,3.5615256E0,2.70111E0,4.922251E0,4.5489583E0,2.7413776E0,1.0128278E1,-5.1029176E-1,4.2916126E0,1.2171225E1,-5.479853E0,9.13E-1,-5.36096E-2,-1.162339E0,1.6191862E1,6.3399234E0,1.23706415E-1,-5.8397334E-2,-5.158409E-2,-2.1142857E-1,1.06808815E1,-5.565951E-2,-4.714114E-2,2.07E-4,7.9733076E0,3.0702E-2,-4.7842927E-2,2.2669272E-1,-6.4750415E-1,5.86E-1,3.2803488E0,-5.4267507E-2,-4.5429673E-2,2.9324782E0,-4.381391E-2,1.8702944E-1,7.0110135E-2,-5.8806628E-2,-3.3716284E-2,2.0383517E-1,1.751982E-1,4.7125567E-2,-3.7978426E-2,7.818E0,-4.461746E-2,2.0977071E-1,-5.837828E-2,6.866964E-2,1.2735184E-1,-5.537783E-2,-5.701649E-2,1.07855916E-1,-3.4494143E-2,2.1238041E-1,2.2000757E-1,-4.1303087E-2,2.2628088E-1,4.7939554E-2],"split_indices":[704,556,2124,352,738,2302,131,1,1654,2204,1111,553,1627,1066,1601,961,322,2608,2817,0,1464,1201,1004,0,0,0,2723,192,0,0,3697,321,3694,0,0,2558,3909,2074,0,0,2621,0,0,0,0,0,0,0,0,0,40,0,0,0,0,0,0,0,0,0,0,0,0,0,0],"split_type":[0,0,0,0,0,0,0,0,0,0,0,0,0,0,0,0,0,0,0,0,0,0,0,0,0,0,0,0,0,0,0,0,0,0,0,0,0,0,0,0,0,0,0,0,0,0,0,0,0,0,0,0,0,0,0,0,0,0,0,0,0,0,0,0,0],"sum_hessian":[2.9035322E3,2.3508667E3,5.526656E2,2.1281968E3,2.2267007E2,8.157701E1,4.710886E2,7.821925E1,2.0499773E3,9.534444E1,1.2732564E2,6.6097244E1,1.5479767E1,1.77902E1,4.5329837E2,6.4292366E1,1.392689E1,2.031692E3,1.828535E1,9.109634E0,8.62348E1,7.7472415E0,1.1957839E2,1.5080148E0,6.4589226E1,6.586677E0,8.89309E0,3.2605941E0,1.4529604E1,3.8306766E0,4.494677E2,8.258003E0,5.6034363E1,4.157337E0,9.769553E0,2.4391268E1,2.0073008E3,7.9788103E0,1.0306541E1,3.230981E0,8.300382E1,2.8211758E0,4.9260654E0,1.000294E0,1.185781E2,1.300127E0,7.5929627E0,1.8338115E0,1.4267827E0,1.7613283E0,4.477064E2,3.046073E0,5.21193E0,5.4997166E1,1.037198E0,1.1162736E1,1.3228532E1,2.0055474E3,1.7533967E0,1.3622168E0,6.6165934E0,8.07491E1,2.2547169E0,4.4631323E2,1.3931583E0],"tree_param":{"num_deleted":"0","num_feature":"4192","num_nodes":"65","size_leaf_vector":"1"}},{"base_weights":[-2.2059588E-2,2.0478919E0,-3.154766E-1,6.842117E-1,2.1482668E0,1.7364032E0,-4.1676772E-1,1.9601817E0,-4.016101E-1,2.1928825E0,1.1260941E0,2.081759E0,2.0405763E-1,1.2253817E0,-4.8325005E-1,3.2990463E-2,2.0764534E-1,6.704837E-2,-5.5144984E-2,2.202592E0,1.8337928E-2,2.0159762E-1,1.4135213E-1,2.2004938E0,7.106415E-1,1.8114053E-1,-4.2958742E-1,2.1269388E0,1.8055403E-1,-5.260688E-1,1.0841609E0,2.2309172E0,1.3780977E0,1.4902037E-1,-4.2383307E-1,2.4759289E-2,2.2239227E0,1.8491387E-1,-3.0988663E-1,7.9549976E-2,-5.5958886E-2,-8.668398E-3,2.1893187E0,1.5534613E0,-3.9590847E-1,-5.386737E-1,2.3444663E-1,2.1772487E0,-7.709185E-2,2.237532E-1,2.6119888E-2,1.0603921E-2,2.037073E-1,-4.997574E-2,-1.1021575E-3,6.409281E-2,2.2598083E-1,-4.716473E-2,2.228976E-2,1.5669117E-2,2.2466712E-1,2.156806E-2,2.0638669E-1,1.39917E-1,-5.0899453E-2,1.898649E-1,-5.4896038E-2,2.3620756E-1,8.7278625E-3,-4.071172E-2,2.0666955E-1],"categories":[],"categories_nodes":[],"categories_segments":[],"categories_sizes":[],"default_left":[0,0,0,0,0,0,0,0,0,0,0,0,0,0,0,0,0,0,0,0,0,0,0,0,0,0,0,0,0,0,0,0,0,0,0,0,0,0,0,0,0,0,0,0,0,0,0,0,0,0,0,0,0,0,0,0,0,0,0,0,0,0,0,0,0,0,0,0,0,0,0],"id":7,"left_children":[1,3,5,7,9,11,13,15,17,19,21,23,25,27,29,-1,-1,-1,-1,31,-1,-1,33,35,37,-1,39,41,43,45,47,49,51,-1,53,-1,55,-1,57,-1,-1,-1,59,61,63,65,-1,67,69,-1,-1,-1,-1,-1,-1,-1,-1,-1,-1,-1,-1,-1,-1,-1,-1,-1,-1,-1,-1,-1,-1],"loss_changes":[1.8073754E3,4.9100708E1,5.424053E2,3.7913605E1,1.3202881E1,6.4561554E1,2.7183243E2,1.6824608E0,2.8287017E0,6.000244E0,1.4111029E1,1.4733368E1,2.4910873E1,9.094307E1,1.6087518E2,0E0,0E0,0E0,0E0,4.552002E0,0E0,0E0,7.3965435E0,3.6427612E0,1.1558451E1,0E0,3.2805524E0,7.3636017E0,3.70216E1,8.54126E1,8.1205315E1,3.5075684E0,1.106872E1,0E0,2.1489406E-1,0E0,3.689148E0,0E0,6.0863596E-1,0E0,0E0,0E0,5.5427856E0,8.982021E0,7.450625E0,5.911725E1,0E0,1.2510345E1,2.3425926E1,0E0,0E0,0E0,0E0,0E0,0E0,0E0,0E0,0E0,0E0,0E0,0E0,0E0,0E0,0E0,0E0,0E0,0E0,0E0,0E0,0E0,0E0],"parents":[2147483647,0,0,1,1,2,2,3,3,4,4,5,5,6,6,7,7,8,8,9,9,10,10,11,11,12,12,13,13,14,14,19,19,22,22,23,23,24,24,26,26,27,27,28,28,29,29,30,30,31,31,32,32,34,34,36,36,38,38,42,42,43,43,44,44,45,45,47,47,48,48],"right_children":[2,4,6,8,10,12,14,16,18,20,22,24,26,28,30,-1,-1,-1,-1,32,-1,-1,34,36,38,-1,40,42,44,46,48,50,52,-1,54,-1,56,-1,58,-1,-1,-1,60,62,64,66,-1,68,70,-1,-1,-1,-1,-1,-1,-1,-1,-1,-1,-1,-1,-1,-1,-1,-1,-1,-1,-1,-1,-1,-1],"split_conditions":[1.0408088E1,-4.2055793E0,9.115148E0,3.6004992E0,4.116245E0,2.8197284E0,-6.334327E-1,-2.51E-1,1.4404257E1,1.52E0,6.902218E-1,2.622604E0,1.2623436E1,2.9412E1,1.4120439E0,3.2990463E-2,2.0764534E-1,6.704837E-2,-5.5144984E-2,5.155237E0,1.8337928E-2,2.0159762E-1,2.9412E1,2.6920443E0,1.6237675E0,1.8114053E-1,1.3144539E1,4.1990547E0,2.5758E1,5.167197E0,1.6207653E0,6.1450205E0,-2.1452868E0,1.4902037E-1,5.5530396E0,2.4759289E-2,2.1429E1,1.8491387E-1,-1.3274689E0,7.9549976E-2,-5.5958886E-2,-8.668398E-3,4.0644717E0,-1.6741703E0,-2.993633E0,-3.9651594E0,2.3444663E-1,4.810733E0,-8.4091735E-1,2.237532E-1,2.6119888E-2,1.0603921E-2,2.037073E-1,-4.997574E-2,-1.1021575E-3,6.409281E-2,2.2598083E-1,-4.716473E-2,2.228976E-2,1.5669117E-2,2.2466712E-1,2.156806E-2,2.0638669E-1,1.39917E-1,-5.0899453E-2,1.898649E-1,-5.4896038E-2,2.3620756E-1,8.7278625E-3,-4.071172E-2,2.0666955E-1],"split_indices":[679,2672,369,2254,2162,1519,1587,3208,969,81,2358,2579,428,3963,1937,0,0,0,0,2561,0,0,3900,297,2475,0,651,738,4005,2609,1984,2579,2148,0,183,0,3912,0,2548,0,0,0,726,2138,1902,1868,0,2337,2023,0,0,0,0,0,0,0,0,0,0,0,0,0,0,0,0,0,0,0,0,0,0],"split_type":[0,0,0,0,0,0,0,0,0,0,0,0,0,0,0,0,0,0,0,0,0,0,0,0,0,0,0,0,0,0,0,0,0,0,0,0,0,0,0,0,0,0,0,0,0,0,0,0,0,0,0,0,0,0,0,0,0,0,0,0,0,0,0,0,0,0,0,0,0,0,0],"sum_hessian":[2.9737307E3,3.6845236E2,2.6052783E3,2.5796835E1,3.4265552E2,1.2180011E2,2.4834783E3,1.1489753E1,1.4307081E1,3.2722745E2,1.5428079E1,9.910545E1,2.2694653E1,9.59531E1,2.3875251E3,1.0203605E0,1.0469393E1,1.3283252E0,1.2978757E1,3.2555832E2,1.6691155E0,7.5542846E0,7.8737936E0,9.065049E1,8.454967E0,5.891404E0,1.6803247E1,5.0952076E1,4.5001026E1,2.3246833E3,6.284164E1,3.1309616E2,1.246216E1,1.8417269E0,6.032067E0,1.2117707E0,8.943871E1,3.6127048E0,4.8422623E0,1.1209211E0,1.5682327E1,1.3857957E0,4.956628E1,1.2806398E1,3.219463E1,2.3153289E3,9.354566E0,3.1920214E1,3.0921427E1,3.1191278E2,1.1833953E0,4.6489453E0,7.813215E0,4.917095E0,1.1149716E0,2.4006627E0,8.7038055E1,3.8025157E0,1.0397465E0,1.4625951E0,4.8103687E1,3.9295516E0,8.876847E0,1.2340024E0,3.0960627E1,8.95923E0,2.3063696E3,2.9207085E1,2.7131293E0,2.7498297E1,3.4231312E0],"tree_param":{"num_deleted":"0","num_feature":"4192","num_nodes":"71","size_leaf_vector":"1"}},{"base_weights":[5.9268847E-2,-5.92044E-2,2.1937184E0,-5.599857E-2,2.263192E-1],"categories":[],"categories_nodes":[],"categories_segments":[],"categories_sizes":[],"default_left":[0,0,0,0,0],"id":8,"left_children":[1,-1,3,-1,-1],"loss_changes":[4.0600232E3,0E0,1.3189331E2,0E0,0E0],"parents":[2147483647,0,0,2,2],"right_children":[2,-1,4,-1,-1],"split_conditions":[2.217639E1,-5.92044E-2,5.190397E0,-5.599857E-2,2.263192E-1],"split_indices":[1334,0,2259,0,0],"split_type":[0,0,0,0,0],"sum_hessian":[2.918537E3,2.236735E3,6.8180194E2,1.660417E1,6.6519775E2],"tree_param":{"num_deleted":"0","num_feature":"4192","num_nodes":"5","size_leaf_vector":"1"}},{"base_weights":[-2.0318876E-3,1.7410063E0,-3.4610456E-1,-2.5066146E-1,2.000257E0,4.0467557E-1,-5.3196E-1,1.3838519E0,-4.7554883E-1,-2.4383727E-1,2.133142E0,-4.4675806E-1,1.0261072E0,-5.56863E-1,1.8267914E0,-3.5776276E-2,1.9392918E-1,6.576088E-1,-5.8102477E-2,-5.6643028E-2,1.394185E0,2.1810164E0,4.2233607E-3,-5.5376756E-1,5.541292E-1,1.5345803E0,1.8817897E-1,-5.698331E-1,9.62345E-1,-4.1679177E-2,2.148658E-1,-3.889874E-2,1.5268864E-1,2.3520213E-2,1.8131964E-1,2.207066E0,-4.6698503E-2,1.2611458E-1,-5.2224334E-2,8.140797E-1,-5.753173E-1,1.6809782E0,-3.2879E-1,-2.6808557E-1,1.7322403E0,1.049011E0,-3.966642E-1,5.29798E-2,-5.7872134E-1,2.1054497E-1,-3.6791295E-1,-1.7504431E-2,2.2298844E-1,1.4876662E-1,-3.030031E-2,-4.224764E-4,-5.8989186E-2,2.0127916E-1,-3.166488E-2,9.952888E-2,-5.424322E-2,-5.6001265E-2,1.4035618E-1,1.9618587E-1,4.0828824E-2,-4.1150864E-2,1.9722536E-1,-5.1797073E-2,1.2780552E-1,-4.942299E-2,1.1836258E-1,-5.8084078E-2,6.7614764E-2,-5.1299304E-2,3.4443166E-2],"categories":[],"categories_nodes":[],"categories_segments":[],"categories_sizes":[],"default_left":[0,0,0,0,0,0,0,0,0,0,0,0,0,0,0,0,0,0,0,0,0,0,0,0,0,0,0,0,0,0,0,0,0,0,0,0,0,0,0,0,0,0,0,0,0,0,0,0,0,0,0,0,0,0,0,0,0,0,0,0,0,0,0,0,0,0,0,0,0,0,0,0,0,0,0],"id":9,"left_children":[1,3,5,7,9,11,13,15,17,19,21,23,25,27,29,-1,-1,31,-1,-1,33,35,37,39,41,43,45,47,49,-1,-1,-1,-1,-1,-1,51,-1,-1,-1,53,55,57,59,61,63,65,67,69,71,-1,73,-1,-1,-1,-1,-1,-1,-1,-1,-1,-1,-1,-1,-1,-1,-1,-1,-1,-1,-1,-1,-1,-1,-1,-1],"loss_changes":[1.7017063E3,2.4203027E2,3.3087097E2,2.0788422E1,1.2397937E2,2.4955109E2,1.12617004E2,7.348563E0,6.224864E0,1.3494071E1,3.9838013E1,2.1655746E1,1.15792755E2,3.76084E1,1.5397865E1,0E0,0E0,4.807953E0,0E0,0E0,1.6349049E0,2.7406006E1,7.011495E0,5.79113E0,2.020478E1,6.0830963E1,5.2791115E1,1.0357544E1,2.5550518E1,0E0,0E0,0E0,0E0,0E0,0E0,2.0980713E1,0E0,0E0,0E0,2.8697686E0,1.4820709E0,6.49761E0,3.9093504E0,9.378189E0,4.565448E1,5.7930565E1,1.33940325E1,1.7391657E1,5.284729E0,0E0,1.0428876E0,0E0,0E0,0E0,0E0,0E0,0E0,0E0,0E0,0E0,0E0,0E0,0E0,0E0,0E0,0E0,0E0,0E0,0E0,0E0,0E0,0E0,0E0,0E0,0E0],"parents":[2147483647,0,0,1,1,2,2,3,3,4,4,5,5,6,6,7,7,8,8,9,9,10,10,11,11,12,12,13,13,14,14,17,17,20,20,21,21,22,22,23,23,24,24,25,25,26,26,27,27,28,28,35,35,39,39,40,40,41,41,42,42,43,43,44,44,45,45,46,46,47,47,48,48,50,50],"right_children":[2,4,6,8,10,12,14,16,18,20,22,24,26,28,30,-1,-1,32,-1,-1,34,36,38,40,42,44,46,48,50,-1,-1,-1,-1,-1,-1,52,-1,-1,-1,54,56,58,60,62,64,66,68,70,72,-1,74,-1,-1,-1,-1,-1,-1,-1,-1,-1,-1,-1,-1,-1,-1,-1,-1,-1,-1,-1,-1,-1,-1,-1,-1],"split_conditions":[-1.1149095E0,1.2559299E1,-3.2094033E0,-4.4234867E0,5.0232726E-1,1.1905349E1,7.260343E0,1.6616968E1,-3.9417002E0,4.067508E0,4.180962E0,1.8990005E1,1.5976672E0,4.1546173E0,1.4459617E0,-3.5776276E-2,1.9392918E-1,1.8034653E1,-5.8102477E-2,-5.6643028E-2,1.9071733E1,3.126301E-1,8.29E-1,5.1379642E0,-8.9980654E-2,1.1775973E0,2.344E0,-1.8285289E0,6.3587747E0,-4.1679177E-2,2.148658E-1,-3.889874E-2,1.5268864E-1,2.3520213E-2,1.8131964E-1,7.4486084E0,-4.6698503E-2,1.2611458E-1,-5.2224334E-2,3.9859948E0,-9E-2,-3.7619522E-1,-2.709939E0,5.533725E0,1.6529984E1,1.8172625E1,3.9427443E0,1.763196E0,4.39034E5,2.1054497E-1,3.4743977E0,-1.7504431E-2,2.2298844E-1,1.4876662E-1,-3.030031E-2,-4.224764E-4,-5.8989186E-2,2.0127916E-1,-3.166488E-2,9.952888E-2,-5.424322E-2,-5.6001265E-2,1.4035618E-1,1.9618587E-1,4.0828824E-2,-4.1150864E-2,1.9722536E-1,-5.1797073E-2,1.2780552E-1,-4.942299E-2,1.1836258E-1,-5.8084078E-2,6.7614764E-2,-5.1299304E-2,3.4443166E-2],"split_indices":[1803,679,2675,2616,1431,141,2426,546,2636,1428,1716,173,2586,2517,2065,0,0,367,0,0,546,2194,2876,549,2593,1970,3607,2388,1147,0,0,0,0,0,0,892,0,0,0,1016,3495,1945,2022,2029,194,546,1813,2579,4123,0,2500,0,0,0,0,0,0,0,0,0,0,0,0,0,0,0,0,0,0,0,0,0,0,0,0],"split_type":[0,0,0,0,0,0,0,0,0,0,0,0,0,0,0,0,0,0,0,0,0,0,0,0,0,0,0,0,0,0,0,0,0,0,0,0,0,0,0,0,0,0,0,0,0,0,0,0,0,0,0,0,0,0,0,0,0,0,0,0,0,0,0,0,0,0,0,0,0,0,0,0,0,0,0],"sum_hessian":[2.8354407E3,4.6677E2,2.3686707E3,5.376428E1,4.130057E2,4.6977875E2,1.8988918E3,5.8792825E0,4.7884995E1,2.3042418E1,3.899633E2,1.9832773E2,2.7145102E2,1.8798093E3,1.9082563E1,1.507698E0,4.3715844E0,3.6318915E0,4.42531E1,1.9797655E1,3.2447624E0,3.8136285E2,8.600429E0,1.7957523E2,1.8752502E1,1.6841917E2,1.0303184E2,1.8645161E3,1.529324E1,2.357137E0,1.6725426E1,1.8985655E0,1.733326E0,1.276181E0,1.9685816E0,3.7781262E2,3.550214E0,2.126939E0,6.4734893E0,2.2148256E0,1.773604E2,7.8411455E0,1.0911357E1,1.660695E1,1.5181223E2,4.136012E1,6.167172E1,2.6164478E1,1.8383516E3,7.911804E0,7.3814354E0,3.5214505E0,3.742912E2,1.1747342E0,1.0400914E0,4.4457655E0,1.7291463E2,6.717716E0,1.1234298E0,1.0076467E0,9.90371E0,1.47041025E1,1.9028481E0,1.2896371E2,2.284851E1,1.6233648E1,2.5126472E1,5.8150368E1,3.52135E0,1.8010595E1,8.153884E0,1.8357881E3,2.5634768E0,6.364964E0,1.0164716E0],"tree_param":{"num_deleted":"0","num_feature":"4192","num_nodes":"75","size_leaf_vector":"1"}},{"base_weights":[1.9535206E-2,-4.450199E-1,2.0678532E0,-4.9964166E-1,1.1738336E0,-5.750983E-2,2.2386644E0,-5.2005136E-1,1.0569774E0,-5.7357695E-2,2.3122585E-1,-3.4430023E-2,2.2463821E-1,-5.4470634E-1,4.05647E-1,-5.4923356E-2,2.2336328E-1,4.0840656E-1,-5.6202173E-1,-5.7740044E-2,2.103086E0,-5.7135504E-2,2.369614E-1,-5.7089444E-2,1.1405032E-1,2.3241866E-1,-3.7069995E-2],"categories":[],"categories_nodes":[],"categories_segments":[],"categories_sizes":[],"default_left":[0,0,0,0,0,0,0,0,0,0,0,0,0,0,0,0,0,0,0,0,0,0,0,0,0,0,0],"id":10,"left_children":[1,3,5,7,9,-1,11,13,15,-1,-1,-1,-1,17,19,-1,-1,21,23,-1,25,-1,-1,-1,-1,-1,-1],"loss_changes":[2.7443232E3,2.0846365E2,2.419851E2,7.282257E1,1.5456409E2,0E0,1.0760742E1,5.1483765E1,5.749231E1,0E0,0E0,0E0,0E0,3.6343506E1,9.940437E1,0E0,0E0,7.749266E1,3.312329E1,0E0,1.2782913E1,0E0,0E0,0E0,0E0,0E0,0E0],"parents":[2147483647,0,0,1,1,2,2,3,3,4,4,6,6,7,7,8,8,13,13,14,14,17,17,18,18,20,20],"right_children":[2,4,6,8,10,-1,12,14,16,-1,-1,-1,-1,18,20,-1,-1,22,24,-1,26,-1,-1,-1,-1,-1,-1],"split_conditions":[1.884288E1,4.151828E0,2.02109E1,4.1185713E-1,2.390447E1,-5.750983E-2,1.5713494E1,5.2207303E0,1.5798714E1,-5.7357695E-2,2.3122585E-1,-3.4430023E-2,2.2463821E-1,7.16E-1,1.715173E1,-5.4923356E-2,2.2336328E-1,1.792197E1,7.9118967E0,-5.7740044E-2,1.0419905E1,-5.7135504E-2,2.369614E-1,-5.7089444E-2,1.1405032E-1,2.3241866E-1,-3.7069995E-2],"split_indices":[940,2330,784,4079,930,0,535,2518,1076,0,0,0,0,2830,655,0,0,700,1874,0,1372,0,0,0,0,0,0],"split_type":[0,0,0,0,0,0,0,0,0,0,0,0,0,0,0,0,0,0,0,0,0,0,0,0,0,0,0],"sum_hessian":[2.8820688E3,2.3498984E3,5.3217035E2,2.2738674E3,7.6031204E1,3.2162033E1,5.000083E2,2.2450964E3,2.8770798E1,3.0189064E1,4.5842144E1,1.3596034E0,4.9864868E2,2.187253E3,5.784354E1,1.2390367E1,1.638043E1,3.862433E1,2.1486287E3,3.704772E1,2.0795816E1,2.622951E1,1.239482E1,2.1381504E3,1.0478229E1,1.9145147E1,1.6506691E0],"tree_param":{"num_deleted":"0","num_feature":"4192","num_nodes":"27","size_leaf_vector":"1"}},{"base_weights":[4.44819E-2,-4.135076E-1,1.7858982E0,-5.446611E-1,1.6975629E0,-5.8540054E-2,2.154518E0,-5.920362E-2,1.9572366E0,-5.703429E-2,2.2392654E-1,2.2319808E0,-5.5351395E-2,-4.3368094E-2,2.1452026E-1,-4.622374E-2,2.2522853E-1],"categories":[],"categories_nodes":[],"categories_segments":[],"categories_sizes":[],"default_left":[0,0,0,0,0,0,0,0,0,0,0,0,0,0,0,0,0],"id":11,"left_children":[1,3,5,7,9,-1,11,-1,13,-1,-1,15,-1,-1,-1,-1,-1],"loss_changes":[2.2702783E3,6.249697E2,5.193838E2,2.5277094E2,1.6354016E2,0E0,1.0889282E2,0E0,1.8763931E1,0E0,0E0,2.8346436E1,0E0,0E0,0E0,0E0,0E0],"parents":[2147483647,0,0,1,1,2,2,3,3,4,4,6,6,8,8,11,11],"right_children":[2,4,6,8,10,-1,12,-1,14,-1,-1,16,-1,-1,-1,-1,-1],"split_conditions":[4.2380624E0,2.1281769E1,6.4E-2,1.533E0,4.703473E0,-5.8540054E-2,7.1484113E0,-5.920362E-2,8.548E0,-5.703429E-2,2.2392654E-1,1.7771847E1,-5.5351395E-2,-4.3368094E-2,2.1452026E-1,-4.622374E-2,2.2522853E-1],"split_indices":[2600,1179,3209,2769,1814,0,410,0,13,0,0,785,0,0,0,0,0],"split_type":[0,0,0,0,0,0,0,0,0,0,0,0,0,0,0,0,0],"sum_hessian":[2.8446382E3,2.2528936E3,5.9174457E2,2.1218145E3,1.3107898E2,7.953228E1,5.1221234E2,2.0831323E3,3.868212E1,2.5262302E1,1.0581668E2,4.9813892E2,1.4073397E1,2.7241297E0,3.5957993E1,3.563253E0,4.9457568E2],"tree_param":{"num_deleted":"0","num_feature":"4192","num_nodes":"17","size_leaf_vector":"1"}},{"base_weights":[1.9759343E-3,-4.1107497E-1,1.4886752E0,-5.133554E-1,4.7143754E-1,-2.4594545E-1,1.7510126E0,3.120401E-1,-5.2630675E-1,1.5262755E0,-4.5415834E-1,1.0915453E0,-5.5013144E-1,-2.4478534E-1,1.8212981E0,-2.927655E-1,1.539793E0,-4.394281E-2,-5.4497445E-1,-1.8911646E-1,1.7084877E0,1.4074434E-1,-5.3164524E-1,-4.6720073E-2,1.6476104E0,-5.797258E-2,7.067125E-2,-5.525375E-2,1.4861913E-1,-4.1379217E-2,1.8322623E0,-5.626415E-2,1.4546563E-1,1.8928093E-1,-3.554885E-2,-4.18344E-1,7.292061E-1,4.3453695E-3,-5.5598503E-1,1.1687249E-1,-5.317543E-2,1.7835507E0,-4.5878645E-2,1.0159218E0,-5.814418E-2,5.364812E-2,1.7303276E-1,1.8365667E0,3.4442935E-2,-5.3245585E-2,1.0253661E-1,1.5068057E-1,-3.5632726E-2,-4.9822614E-2,1.3846609E-1,-5.5914164E-2,6.436088E-2,1.8064915E-1,3.4111153E-2,-3.0074302E-2,1.5663414E-1,1.839181E-1,4.760312E-2],"categories":[],"categories_nodes":[],"categories_segments":[],"categories_sizes":[],"default_left":[0,0,0,0,0,0,0,0,0,0,0,0,0,0,0,0,0,0,0,0,0,0,0,0,0,0,0,0,0,0,0,0,0,0,0,0,0,0,0,0,0,0,0,0,0,0,0,0,0,0,0,0,0,0,0,0,0,0,0,0,0,0,0],"id":12,"left_children":[1,3,5,7,9,11,13,15,17,19,21,23,25,27,29,31,33,35,37,39,41,-1,43,-1,45,-1,-1,-1,-1,-1,47,-1,-1,-1,-1,49,51,53,55,-1,-1,57,-1,59,-1,-1,-1,61,-1,-1,-1,-1,-1,-1,-1,-1,-1,-1,-1,-1,-1,-1,-1],"loss_changes":[1.742954E3,2.0073529E2,2.8125232E2,2.1447876E1,2.2643987E2,3.3940006E1,7.565723E1,2.375642E1,1.7630432E1,3.4171417E1,1.8624002E1,1.42210045E1,2.917696E0,1.1007324E1,1.3453491E1,1.1130983E1,7.7101917E0,2.1765265E1,1.1418457E1,5.878204E0,1.675998E1,0E0,9.814888E0,0E0,1.4331627E-1,0E0,0E0,0E0,0E0,0E0,2.6699219E0,0E0,0E0,0E0,0E0,8.879436E0,2.1261934E1,2.710701E1,7.366455E0,0E0,0E0,2.5246887E0,0E0,3.4390965E0,0E0,0E0,0E0,9.526367E-1,0E0,0E0,0E0,0E0,0E0,0E0,0E0,0E0,0E0,0E0,0E0,0E0,0E0,0E0,0E0],"parents":[2147483647,0,0,1,1,2,2,3,3,4,4,5,5,6,6,7,7,8,8,9,9,10,10,11,11,12,12,13,13,14,14,15,15,16,16,17,17,18,18,19,19,20,20,22,22,24,24,30,30,35,35,36,36,37,37,38,38,41,41,43,43,47,47],"right_children":[2,4,6,8,10,12,14,16,18,20,22,24,26,28,30,32,34,36,38,40,42,-1,44,-1,46,-1,-1,-1,-1,-1,48,-1,-1,-1,-1,50,52,54,56,-1,-1,58,-1,60,-1,-1,-1,62,-1,-1,-1,-1,-1,-1,-1,-1,-1,-1,-1,-1,-1,-1,-1],"split_conditions":[1.6599194E1,2.0313229E1,1.3189735E1,-5.479853E0,1.2488786E1,1.0853129E1,-1.2739252E-1,1.60276E1,5.2119937E0,1.3292538E1,2.082977E0,1.16551695E1,1.0022857E-1,1.47E0,1.728652E0,2.3828572E-1,9.07E-1,1.1044081E1,-5.6743712E0,5.7151766E0,1.0448511E1,1.4074434E-1,6.628316E0,-4.6720073E-2,1.4730505E1,-5.797258E-2,7.067125E-2,-5.525375E-2,1.4861913E-1,-4.1379217E-2,1.504372E1,-5.626415E-2,1.4546563E-1,1.8928093E-1,-3.554885E-2,1.8034367E1,8.671616E0,1.4967489E1,8.004296E0,1.1687249E-1,-5.317543E-2,2.1850019E0,-4.5878645E-2,1.45E0,-5.814418E-2,5.364812E-2,1.7303276E-1,1.262E0,3.4442935E-2,-5.3245585E-2,1.0253661E-1,1.5068057E-1,-3.5632726E-2,-4.9822614E-2,1.3846609E-1,-5.5914164E-2,6.436088E-2,1.8064915E-1,3.4111153E-2,-3.0074302E-2,1.5663414E-1,1.839181E-1,4.760312E-2],"split_indices":[704,556,751,2608,738,177,2124,322,352,1230,1111,322,4048,7,2254,4052,2817,321,1438,1019,985,0,1085,0,268,0,0,0,0,0,1097,0,0,0,0,751,526,374,2208,0,0,1810,0,111,0,0,0,2733,0,0,0,0,0,0,0,0,0,0,0,0,0,0,0],"split_type":[0,0,0,0,0,0,0,0,0,0,0,0,0,0,0,0,0,0,0,0,0,0,0,0,0,0,0,0,0,0,0,0,0,0,0,0,0,0,0,0,0,0,0,0,0,0,0,0,0,0,0,0,0,0,0,0,0,0,0,0,0,0,0],"sum_hessian":[2.8363093E3,2.2201943E3,6.161149E2,1.9899802E3,2.3021408E2,8.094628E1,5.3516864E2,3.0385855E1,1.9595944E3,1.0729191E2,1.2292217E2,1.4518914E1,6.642737E1,1.812131E1,5.1704736E2,2.0867716E1,9.51814E0,7.313674E1,1.8864576E3,1.0298772E1,9.699313E1,4.226161E0,1.1869601E2,3.8595996E0,1.0659314E1,6.542556E1,1.0018041E0,1.5963869E1,2.157439E0,2.3446276E0,5.147027E2,1.8663322E1,2.204392E0,8.02475E0,1.4933904E0,4.958424E1,2.3552505E1,3.70811E1,1.8493766E3,1.5893534E0,8.709419E0,9.391738E1,3.0757515E0,3.095427E0,1.1560058E2,1.2572033E0,9.402111E0,5.1298425E2,1.7184916E0,4.65371E1,3.047137E0,1.34964905E1,1.0056014E1,2.7652061E1,9.42904E0,1.8450554E3,4.3210993E0,9.2198654E1,1.718724E0,1.046262E0,2.0491648E0,5.116493E2,1.334944E0],"tree_param":{"num_deleted":"0","num_feature":"4192","num_nodes":"63","size_leaf_vector":"1"}},{"base_weights":[6.4649427E-4,1.5145544E0,-3.0183232E-1,1.7690548E0,5.572958E-1,-4.283708E-1,1.0999511E0,-2.274915E-1,1.7949828E0,-1.8857737E-1,1.5315052E0,-4.9761897E-1,9.389368E-1,-3.806329E-2,1.5812817E0,3.1700086E-2,-4.5577977E-2,9.40771E-2,1.8141043E0,1.5138267E-1,-3.9138472E-1,1.772567E0,2.3984662E-1,1.3295993E0,-5.2787524E-1,1.881652E0,-1.0401323E-1,1.52643E0,-3.5771057E-1,1.7368349E0,5.191527E-1,1.0440039E-1,-4.441578E-2,1.8242104E0,-3.5339113E-2,-4.8713824E-1,1.1484771E-1,4.7074115E-1,1.8873595E0,1.3004671E-1,-3.4990796E-1,4.2075805E-2,1.766518E0,-5.4383945E-1,1.6070406E0,1.9126154E0,1.9081524E-2,1.5901148E0,-4.9330926E-1,1.7253737E0,-1.0201691E-2,-4.8147544E-1,1.1147901E0,1.7728184E0,2.599813E-3,-8.38344E-2,1.5639161E0,3.1966858E-2,1.8305653E-1,9.545148E-2,-5.3613998E-2,1.1532483E-1,-3.0595187E-2,5.303839E-2,1.9135343E-1,-4.694021E-2,1.0963945E-2,-3.792944E-2,1.2517084E-1,3.1405017E-2,1.8156001E-1,1.22310355E-1,-5.56961E-2,-3.0192528E-2,1.7687774E-1,5.309057E-2,1.9291197E-1,1.7466572E-1,1.1981022E-2,7.1075134E-2,-5.471183E-2,5.0835457E-2,1.8203843E-1,4.699571E-2,-5.461147E-2,1.4257003E-1,1.002954E-2,-9.911752E-3,1.8025309E-1,-3.2999262E-2,3.2182377E-2,-3.8136695E-2,1.2392817E-1,4.084756E-2,1.695466E-1],"categories":[],"categories_nodes":[],"categories_segments":[],"categories_sizes":[],"default_left":[0,0,0,0,0,0,0,0,0,0,0,0,0,0,0,0,0,0,0,0,0,0,0,0,0,0,0,0,0,0,0,0,0,0,0,0,0,0,0,0,0,0,0,0,0,0,0,0,0,0,0,0,0,0,0,0,0,0,0,0,0,0,0,0,0,0,0,0,0,0,0,0,0,0,0,0,0,0,0,0,0,0,0,0,0,0,0,0,0,0,0,0,0,0,0],"id":13,"left_children":[1,3,5,7,9,11,13,15,17,19,21,23,25,27,29,-1,-1,31,33,-1,35,37,39,41,43,45,47,49,51,53,55,-1,-1,57,-1,59,-1,61,63,-1,65,67,69,71,73,75,-1,77,79,81,-1,83,85,87,89,91,93,-1,-1,-1,-1,-1,-1,-1,-1,-1,-1,-1,-1,-1,-1,-1,-1,-1,-1,-1,-1,-1,-1,-1,-1,-1,-1,-1,-1,-1,-1,-1,-1,-1,-1,-1,-1,-1,-1],"loss_changes":[1.2952865E3,1.1377026E2,4.1865436E2,1.9647217E1,7.323619E1,2.0527591E2,1.07134476E2,8.4703815E-1,1.1765625E1,2.053086E1,1.3163506E1,1.1455902E2,1.03055084E2,3.0090805E1,2.1798676E1,0E0,0E0,3.0889435E0,8.59314E0,0E0,8.2851305E0,4.5842133E0,5.4717884E0,1.8956894E1,6.994641E1,2.5145874E0,3.4166115E1,3.484642E0,9.624635E0,7.4476013E0,1.2086937E1,0E0,0E0,2.869751E0,0E0,4.04611E0,0E0,2.632168E0,1.6860199E-1,0E0,3.7777382E-1,5.3658867E0,1.2287903E0,4.7337463E1,5.256344E0,2.0497131E-1,0E0,2.0220566E0,3.1048937E0,1.3339233E-1,0E0,3.1286125E0,1.1716614E0,6.6856384E0,4.7025216E-1,5.583362E0,3.7080002E-1,0E0,0E0,0E0,0E0,0E0,0E0,0E0,0E0,0E0,0E0,0E0,0E0,0E0,0E0,0E0,0E0,0E0,0E0,0E0,0E0,0E0,0E0,0E0,0E0,0E0,0E0,0E0,0E0,0E0,0E0,0E0,0E0,0E0,0E0,0E0,0E0,0E0,0E0],"parents":[2147483647,0,0,1,1,2,2,3,3,4,4,5,5,6,6,7,7,8,8,9,9,10,10,11,11,12,12,13,13,14,14,17,17,18,18,20,20,21,21,22,22,23,23,24,24,25,25,26,26,27,27,28,28,29,29,30,30,33,33,35,35,37,37,38,38,40,40,41,41,42,42,43,43,44,44,45,45,47,47,48,48,49,49,51,51,52,52,53,53,54,54,55,55,56,56],"right_children":[2,4,6,8,10,12,14,16,18,20,22,24,26,28,30,-1,-1,32,34,-1,36,38,40,42,44,46,48,50,52,54,56,-1,-1,58,-1,60,-1,62,64,-1,66,68,70,72,74,76,-1,78,80,82,-1,84,86,88,90,92,94,-1,-1,-1,-1,-1,-1,-1,-1,-1,-1,-1,-1,-1,-1,-1,-1,-1,-1,-1,-1,-1,-1,-1,-1,-1,-1,-1,-1,-1,-1,-1,-1,-1,-1,-1,-1,-1,-1],"split_conditions":[8.521081E0,1.6813015E1,-1.5334578E0,-7.8454156E0,6.725556E0,1.5663874E0,3.5821E1,1.6179895E1,2.5248435E0,2.4202142E0,5.748611E0,-7.242618E-1,1.6917334E1,1.6329214E1,3.4328E1,3.1700086E-2,-4.5577977E-2,8.7548685E0,2.7862936E1,1.5138267E-1,5.1429E1,6.334441E0,1.2691795E1,-2.4786441E0,2.6364808E0,4.7727E1,1.6159928E0,5.69853E5,1.3010784E1,1.2782857E-1,1.9048E1,1.0440039E-1,-4.441578E-2,1.9462245E0,-3.5339113E-2,-1.3316401E0,1.1484771E-1,1.0667831E0,4.847044E0,1.3004671E-1,9.60699E0,1.7346281E0,3.5592492E0,8.260405E0,-2.73E-1,-4.0860996E0,1.9081524E-2,3.8778617E0,-1.0484132E0,4.678779E0,-1.0201691E-2,-7.3129666E-1,1.8208883E1,-6.462086E0,6.1899824E0,1.2522041E0,8.9225445E0,3.1966858E-2,1.8305653E-1,9.545148E-2,-5.3613998E-2,1.1532483E-1,-3.0595187E-2,5.303839E-2,1.9135343E-1,-4.694021E-2,1.0963945E-2,-3.792944E-2,1.2517084E-1,3.1405017E-2,1.8156001E-1,1.22310355E-1,-5.56961E-2,-3.0192528E-2,1.7687774E-1,5.309057E-2,1.9291197E-1,1.7466572E-1,1.1981022E-2,7.1075134E-2,-5.471183E-2,5.0835457E-2,1.8203843E-1,4.699571E-2,-5.461147E-2,1.4257003E-1,1.002954E-2,-9.911752E-3,1.8025309E-1,-3.2999262E-2,3.2182377E-2,-3.8136695E-2,1.2392817E-1,4.084756E-2,1.695466E-1],"split_indices":[844,173,2207,1893,1147,2590,3922,240,1246,1970,1428,1527,1190,380,3963,0,0,243,1230,0,3922,896,1190,2128,2194,3911,2426,4097,378,4066,3953,0,0,854,0,2115,0,1828,160,0,567,1596,1243,369,3306,2377,0,1925,2255,551,0,2413,628,1616,442,1953,407,0,0,0,0,0,0,0,0,0,0,0,0,0,0,0,0,0,0,0,0,0,0,0,0,0,0,0,0,0,0,0,0,0,0,0,0,0,0],"split_type":[0,0,0,0,0,0,0,0,0,0,0,0,0,0,0,0,0,0,0,0,0,0,0,0,0,0,0,0,0,0,0,0,0,0,0,0,0,0,0,0,0,0,0,0,0,0,0,0,0,0,0,0,0,0,0,0,0,0,0,0,0,0,0,0,0,0,0,0,0,0,0,0,0,0,0,0,0,0,0,0,0,0,0,0,0,0,0,0,0,0,0,0,0,0,0],"sum_hessian":[2.8266016E3,4.700403E2,2.3565613E3,3.7064987E2,9.939043E1,2.162085E3,1.9447621E2,4.6520405E0,3.6599783E2,5.674886E1,4.2641567E1,2.0584685E3,1.0361642E2,5.807941E1,1.363968E2,1.2594695E0,3.3925712E0,4.1346064E0,3.6186322E2,5.3527217E0,5.1396137E1,3.5621265E1,7.0203013E0,3.283069E1,2.0256378E3,5.4001072E1,4.961535E1,9.212764E0,4.8866646E1,1.1841867E2,1.797814E1,1.1555334E0,2.979073E0,3.603415E2,1.5217495E0,4.9030888E1,2.3652496E0,3.2998219E0,3.2321445E1,2.0780382E0,4.942263E0,8.59602E0,2.4234669E1,2.0113429E3,1.4294918E1,5.2901154E1,1.0999185E0,8.694455E0,4.092089E1,8.156751E0,1.0560137E0,4.5698658E1,3.1679876E0,1.1598975E2,2.428912E0,1.1982295E1,5.9958453E0,1.7313832E0,3.586101E2,1.0043132E0,4.8026573E1,1.4983505E0,1.8014714E0,1.014035E0,3.130741E1,3.905332E0,1.036931E0,6.884331E0,1.7116883E0,1.0340102E0,2.3200659E1,1.4146653E1,1.9971963E3,1.0488346E0,1.3246083E1,1.0159388E0,5.1885216E1,7.6879673E0,1.0064881E0,1.2282454E0,3.9692646E1,1.0505412E0,7.1062093E0,2.5082955E0,4.319036E1,2.1146E0,1.0533876E0,1.7757999E0,1.1421396E2,1.173027E0,1.255885E0,1.0363577E1,1.6187184E0,1.0324697E0,4.9633756E0],"tree_param":{"num_deleted":"0","num_feature":"4192","num_nodes":"95","size_leaf_vector":"1"}},{"base_weights":[1.0370333E-2,-5.8501836E-2,1.773063E0,-5.5441678E-2,1.8302022E0,1.815437E-1,2.2546946E-1],"categories":[],"categories_nodes":[],"categories_segments":[],"categories_sizes":[],"default_left":[0,0,0,0,0,0,0],"id":14,"left_children":[1,-1,3,-1,5,-1,-1],"loss_changes":[2.9082778E3,0E0,9.4065186E1,0E0,1.887207E-1,0E0,0E0],"parents":[2147483647,0,0,2,2,4,4],"right_children":[2,-1,4,-1,6,-1,-1],"split_conditions":[2.217639E1,-5.8501836E-2,6.5924587E0,-5.5441678E-2,5.446E0,1.815437E-1,2.2546946E-1],"split_indices":[1334,0,2259,0,15,0,0],"split_type":[0,0,0,0,0,0,0],"sum_hessian":[2.769153E3,2.070473E3,6.9868024E2,1.653296E1,6.821473E2,6.6431683E2,1.7830418E1],"tree_param":{"num_deleted":"0","num_feature":"4192","num_nodes":"7","size_leaf_vector":"1"}},{"base_weights":[-1.980881E-2,-3.4613383E-1,1.5495701E0,5.186096E-1,-4.9871197E-1,-9.00801E-2,1.7200406E0,-4.1787952E-1,1.0715783E0,-5.211742E-1,1.0429552E0,-4.6564183E-1,9.775326E-1,1.8617424E-1,1.7901038E0,-4.7930348E-1,5.602598E-1,1.4166099E0,1.2153811E-2,-5.402941E-1,5.385054E-1,-5.21958E-2,1.6179994E0,-5.7142027E-2,9.4743304E-2,1.5119091E0,-4.5167636E-2,-4.606812E-1,1.4864374E0,1.8126595E0,-2.5336662E-1,-5.3856117E-1,4.6744296E-1,1.422649E-1,-4.599267E-2,4.3895695E-2,1.5581986E0,-2.8562596E-1,1.4903778E0,-5.487779E-1,1.3518528E0,1.4364784E0,-4.8041236E-1,-3.342856E-2,1.754581E0,1.818831E-2,1.723064E-1,3.5345465E-2,-5.4724485E-2,2.5289247E-2,1.696757E-1,1.8248839E0,-4.0459927E-2,3.412282E-2,-4.6052605E-2,-5.599598E-2,5.182867E-2,1.4845958E-1,-4.6703763E-2,-5.5344623E-2,1.15006566E-1,5.4367254E-3,1.6552676E-1,-5.788247E-2,5.5770434E-2,1.7608716E-1,-3.0761546E-2,1.0580684E-1,-5.527218E-2,-3.9618194E-2,1.9178998E-1,1.740886E-1,-4.4333756E-2,3.5994694E-2,-5.534891E-2,3.1672645E-2,1.8159358E-1,1.832074E-1,-3.2798182E-2],"categories":[],"categories_nodes":[],"categories_segments":[],"categories_sizes":[],"default_left":[0,0,0,0,0,0,0,0,0,0,0,0,0,0,0,0,0,0,0,0,0,0,0,0,0,0,0,0,0,0,0,0,0,0,0,0,0,0,0,0,0,0,0,0,0,0,0,0,0,0,0,0,0,0,0,0,0,0,0,0,0,0,0,0,0,0,0,0,0,0,0,0,0,0,0,0,0,0,0],"id":15,"left_children":[1,3,5,7,9,11,13,15,17,19,21,23,25,27,29,31,33,35,37,39,41,-1,43,-1,-1,45,-1,47,49,51,53,55,57,-1,-1,59,61,63,65,67,69,71,73,-1,75,-1,-1,-1,-1,-1,-1,77,-1,-1,-1,-1,-1,-1,-1,-1,-1,-1,-1,-1,-1,-1,-1,-1,-1,-1,-1,-1,-1,-1,-1,-1,-1,-1,-1],"loss_changes":[1.4614075E3,3.1194724E2,1.374563E2,1.841774E2,7.009796E1,1.9384802E1,4.7490723E1,8.225586E0,8.162692E1,4.041504E1,2.7101269E1,5.863032E0,1.0312548E1,1.797322E1,2.006897E1,7.2730236E0,7.944632E0,3.2676575E1,2.5023314E1,3.1976196E1,3.3262177E1,0E0,6.341011E0,0E0,0E0,2.3285599E0,0E0,1.2145875E0,1.4038887E0,1.2147827E1,8.373479E-1,2.9643326E0,8.209327E0,0E0,0E0,1.1725113E1,2.2199493E1,1.2030733E1,5.17663E0,1.2865234E1,9.639275E0,1.1743408E1,1.269372E0,0E0,1.2183304E0,0E0,0E0,0E0,0E0,0E0,0E0,7.083496E0,0E0,0E0,0E0,0E0,0E0,0E0,0E0,0E0,0E0,0E0,0E0,0E0,0E0,0E0,0E0,0E0,0E0,0E0,0E0,0E0,0E0,0E0,0E0,0E0,0E0,0E0,0E0],"parents":[2147483647,0,0,1,1,2,2,3,3,4,4,5,5,6,6,7,7,8,8,9,9,10,10,11,11,12,12,13,13,14,14,15,15,16,16,17,17,18,18,19,19,20,20,22,22,25,25,27,27,28,28,29,29,30,30,31,31,32,32,35,35,36,36,37,37,38,38,39,39,40,40,41,41,42,42,44,44,51,51],"right_children":[2,4,6,8,10,12,14,16,18,20,22,24,26,28,30,32,34,36,38,40,42,-1,44,-1,-1,46,-1,48,50,52,54,56,58,-1,-1,60,62,64,66,68,70,72,74,-1,76,-1,-1,-1,-1,-1,-1,78,-1,-1,-1,-1,-1,-1,-1,-1,-1,-1,-1,-1,-1,-1,-1,-1,-1,-1,-1,-1,-1,-1,-1,-1,-1,-1,-1],"split_conditions":[1.8041729E1,5.930319E0,1.3946368E1,1.1378074E1,5.728791E0,3.4505882E0,-1.2933993E0,1.8932287E1,-9.421425E-1,1.9901201E1,3.181408E0,7.1670713E0,-1.0008473E-1,4.947769E0,2.1140563E0,1.3422857E-1,7.7415166E0,1.2909902E1,1.7151737E1,6.187052E0,-2.9807997E-1,-5.21958E-2,1.1284653E0,-5.7142027E-2,9.4743304E-2,-5.4946084E-2,-4.5167636E-2,7.07686E0,2.9268619E-2,3.7781825E0,-2.523866E0,1.9799538E1,-1.0778637E0,1.422649E-1,-4.599267E-2,1.0056547E0,7.6771717E0,3.3333E1,-1.7597151E-1,-6.064775E0,1.0480064E1,1.2483808E0,8.16E-1,-3.342856E-2,1.9647575E1,1.818831E-2,1.723064E-1,3.5345465E-2,-5.4724485E-2,2.5289247E-2,1.696757E-1,3.5162659E0,-4.0459927E-2,3.412282E-2,-4.6052605E-2,-5.599598E-2,5.182867E-2,1.4845958E-1,-4.6703763E-2,-5.5344623E-2,1.15006566E-1,5.4367254E-3,1.6552676E-1,-5.788247E-2,5.5770434E-2,1.7608716E-1,-3.0761546E-2,1.0580684E-1,-5.527218E-2,-3.9618194E-2,1.9178998E-1,1.740886E-1,-4.4333756E-2,3.5994694E-2,-5.534891E-2,3.1672645E-2,1.8159358E-1,1.832074E-1,-3.2798182E-2],"split_indices":[1190,1395,307,141,2426,2029,2488,679,1856,303,2191,1428,2173,1428,2609,4081,625,495,1244,2070,2599,0,2029,0,0,2579,0,616,1808,2389,1583,1354,2613,0,0,2579,730,3963,2077,2373,554,2461,2820,0,1117,0,0,0,0,0,0,2566,0,0,0,0,0,0,0,0,0,0,0,0,0,0,0,0,0,0,0,0,0,0,0,0,0,0,0],"split_type":[0,0,0,0,0,0,0,0,0,0,0,0,0,0,0,0,0,0,0,0,0,0,0,0,0,0,0,0,0,0,0,0,0,0,0,0,0,0,0,0,0,0,0,0,0,0,0,0,0,0,0,0,0,0,0,0,0,0,0,0,0,0,0,0,0,0,0,0,0,0,0,0,0,0,0,0,0,0,0],"sum_hessian":[2.8515527E3,2.361334E3,4.9021884E2,3.5379364E2,2.0075403E3,4.62114E1,4.4400745E2,1.3143835E2,2.2235527E2,1.9793627E3,2.8177578E1,3.460278E1,1.1608619E1,1.9554998E1,4.2445242E2,1.2415201E2,7.286356E0,1.6747511E2,5.488017E1,1.9447633E3,3.459943E1,7.596619E0,2.058096E1,3.2747055E1,1.8557243E0,8.407295E0,3.2013242E0,1.3489793E1,6.0652056E0,4.1993024E2,4.5222096E0,1.17244705E2,6.9073005E0,3.7347658E0,3.55159E0,1.5781562E1,1.5169354E2,4.6350002E1,8.530166E0,1.9367893E3,7.9739327E0,1.8173395E1,1.6426035E1,1.2510493E0,1.9329908E1,1.4068944E0,7.0004005E0,1.0001496E0,1.2489643E1,1.2042974E0,4.860908E0,4.1780368E2,2.126531E0,1.0012416E0,3.5209682E0,1.1537872E2,1.8659785E0,3.0254776E0,3.881823E0,1.0572167E1,5.209394E0,9.292374E0,1.4240117E2,3.4625484E1,1.1724519E1,7.4326315E0,1.0975344E0,4.0877285E0,1.9327017E3,2.023907E0,5.950026E0,1.5704238E1,2.4691567E0,1.00006E0,1.5425975E1,1.0432584E0,1.8286652E1,4.165615E2,1.24219E0],"tree_param":{"num_deleted":"0","num_feature":"4192","num_nodes":"79","size_leaf_vector":"1"}},{"base_weights":[-7.008578E-4,-5.0864667E-1,1.3581052E0,-5.3916967E-1,6.380666E-1,-3.870353E-1,1.7515757E0,-5.482665E-1,1.390932E0,-5.640462E-2,1.701641E0,-5.835951E-2,1.7578809E-1,-5.6009617E-2,1.8274294E0,-5.5764353E-1,1.0941509E0,-2.9598707E-2,1.6207074E-1,-3.677849E-2,1.839842E-1,1.8322317E-1,-3.2624647E-2,-5.671121E-1,7.1535665E-1,-4.7502656E-2,2.0320828E-1,-5.7189763E-2,1.3411066E-1,2.0887569E-1,-5.1951297E-2],"categories":[],"categories_nodes":[],"categories_segments":[],"categories_sizes":[],"default_left":[0,0,0,0,0,0,0,0,0,0,0,0,0,0,0,0,0,0,0,0,0,0,0,0,0,0,0,0,0,0,0],"id":16,"left_children":[1,3,5,7,9,11,13,15,17,-1,19,-1,-1,-1,21,23,25,-1,-1,-1,-1,-1,-1,27,29,-1,-1,-1,-1,-1,-1],"loss_changes":[1.9794165E3,7.340991E1,5.365187E2,3.647406E1,7.074591E1,6.190229E1,1.1271472E2,3.1799255E1,4.2875996E0,0E0,9.030388E0,0E0,0E0,0E0,6.97876E0,2.4684937E1,1.8382427E1,0E0,0E0,0E0,0E0,0E0,0E0,1.9030334E1,2.7056984E1,0E0,0E0,0E0,0E0,0E0,0E0],"parents":[2147483647,0,0,1,1,2,2,3,3,4,4,5,5,6,6,7,7,8,8,10,10,14,14,15,15,16,16,23,23,24,24],"right_children":[2,4,6,8,10,12,14,16,18,-1,20,-1,-1,-1,22,24,26,-1,-1,-1,-1,-1,-1,28,30,-1,-1,-1,-1,-1,-1],"split_conditions":[2.3395954E1,5.609957E0,1.38E-1,1.307E0,1.5482733E1,2.0454786E1,2.4277592E1,3.88E-1,4.922E0,-5.640462E-2,3.336263E0,-5.835951E-2,1.7578809E-1,-5.6009617E-2,-3.824414E0,4.4081E-2,4.3491178E0,-2.9598707E-2,1.6207074E-1,-3.677849E-2,1.839842E-1,1.8322317E-1,-3.2624647E-2,3.17E0,6.6137133E0,-4.7502656E-2,2.0320828E-1,-5.7189763E-2,1.3411066E-1,2.0887569E-1,-5.1951297E-2],"split_indices":[182,1404,4009,2815,864,171,218,3133,35,0,1652,0,0,0,2262,3725,1685,0,0,0,0,0,0,3804,220,0,0,0,0,0,0],"split_type":[0,0,0,0,0,0,0,0,0,0,0,0,0,0,0,0,0,0,0,0,0,0,0,0,0,0,0,0,0,0,0],"sum_hessian":[2.865888E3,2.0865312E3,7.7935675E2,2.0329485E3,5.3582806E1,1.4339227E2,6.359645E2,2.0241245E3,8.823967E0,2.5373682E1,2.8209122E1,1.3202174E2,1.1370535E1,2.0002325E1,6.1596216E2,2.0132904E3,1.0834049E1,1.0232818E0,7.800685E0,1.6619418E0,2.654718E1,6.1474066E2,1.221521E0,1.9989766E3,1.4313859E1,4.237751E0,6.596298E0,1.9946746E3,4.3020287E0,6.449434E0,7.864425E0],"tree_param":{"num_deleted":"0","num_feature":"4192","num_nodes":"31","size_leaf_vector":"1"}},{"base_weights":[6.561536E-2,-4.0638325E-1,1.6236999E0,1.0417964E0,-5.848789E-2,1.8531607E0,-5.773726E-2,-5.7828363E-2,1.8115304E0,1.9091843E0,-5.4588575E-2,1.9074652E0,-5.0612863E-2,1.8540651E0,2.9045743E-1,1.7825271E-1,2.2960417E-1,-4.54758E-2,1.8690659E0,2.1952927E-1,1.8430227E-1],"categories":[],"categories_nodes":[],"categories_segments":[],"categories_sizes":[],"default_left":[0,0,0,0,0,0,0,0,0,0,0,0,0,0,0,0,0,0,0,0,0],"id":17,"left_children":[1,3,5,7,-1,9,-1,-1,11,13,-1,15,-1,17,-1,-1,-1,-1,19,-1,-1],"loss_changes":[2.1202502E3,5.726205E2,3.3961768E2,3.0429755E2,0E0,8.266113E1,0E0,0E0,3.767334E1,2.7184326E1,0E0,3.6138306E0,0E0,2.042688E1,0E0,0E0,0E0,0E0,7.2717285E-1,0E0,0E0],"parents":[2147483647,0,0,1,1,2,2,3,3,5,5,8,8,9,9,11,11,13,13,18,18],"right_children":[2,4,6,8,-1,10,-1,-1,12,14,-1,16,-1,18,-1,-1,-1,-1,20,-1,-1],"split_conditions":[4.2380624E0,-4.282358E0,9.19E-1,1.47E-1,-5.848789E-2,2.4272716E0,-5.773726E-2,-5.7828363E-2,8.92E-1,6.67E0,-5.4588575E-2,2.99E0,-5.0612863E-2,2.2788582E1,2.9045743E-1,1.7825271E-1,2.2960417E-1,-4.54758E-2,-4.552E0,2.1952927E-1,1.8430227E-1],"split_indices":[2600,2018,2856,3305,0,1403,0,0,2906,0,0,0,0,218,0,0,0,0,30,0,0],"split_type":[0,0,0,0,0,0,0,0,0,0,0,0,0,0,0,0,0,0,0,0,0],"sum_hessian":[2.8811746E3,2.2118628E3,6.693118E2,2.4217772E2,1.9696849E3,6.0626685E2,6.304498E1,7.8083E1,1.6409473E2,5.926316E2,1.3635208E1,1.5774228E2,6.3524384E0,5.642492E2,2.838243E1,1.2359152E2,3.415076E1,3.4531288E0,5.607961E2,3.5301605E1,5.2549445E2],"tree_param":{"num_deleted":"0","num_feature":"4192","num_nodes":"21","size_leaf_vector":"1"}},{"base_weights":[-3.8771878E-3,-4.0406922E-1,1.2554712E0,-5.175269E-1,3.363429E-1,-1.0902348E-1,1.5107504E0,1.5616052E-1,-5.340862E-1,9.9199325E-1,-4.3133992E-1,9.818095E-1,-5.526411E-1,-3.3236012E-1,1.5399417E0,-2.762696E-1,1.223166E0,3.0523482E-1,-5.463971E-1,-2.4148105E-1,1.4247078E0,1.3474809E-1,-5.150504E-1,-5.0297916E-2,1.3522428E0,6.4610444E-2,-5.7650566E-2,6.54404E-2,-5.186609E-2,-3.875509E-2,1.5472738E0,-5.6266826E-2,8.1212795E-1,-4.552498E-2,1.8802698E0,-5.4638375E-2,1.3769871E0,-5.537363E-1,3.3111125E-1,-4.554347E-2,1.24009095E-1,-4.8611734E-2,1.5125858E0,1.2828347E-1,-5.4600036E-1,1.5106392E0,-3.888787E-2,1.5517045E0,-3.6838803E-2,-4.157857E-2,1.5094484E-1,2.070668E-1,4.465569E-2,-3.9732542E-2,1.7735362E-1,5.0279625E-2,-5.589931E-2,1.7057374E-1,-5.2918345E-2,1.5593097E-1,-4.1261695E-2,5.7802167E-2,-5.7618994E-2,3.317833E-2,1.5857153E-1,1.5552102E-1,2.749011E-2],"categories":[],"categories_nodes":[],"categories_segments":[],"categories_sizes":[],"default_left":[0,0,0,0,0,0,0,0,0,0,0,0,0,0,0,0,0,0,0,0,0,0,0,0,0,0,0,0,0,0,0,0,0,0,0,0,0,0,0,0,0,0,0,0,0,0,0,0,0,0,0,0,0,0,0,0,0,0,0,0,0,0,0,0,0,0,0],"id":18,"left_children":[1,3,5,7,9,11,13,15,17,19,21,23,25,27,29,31,33,35,37,39,41,-1,43,-1,45,-1,-1,-1,-1,-1,47,-1,49,-1,51,-1,53,55,57,-1,-1,-1,59,-1,61,63,-1,65,-1,-1,-1,-1,-1,-1,-1,-1,-1,-1,-1,-1,-1,-1,-1,-1,-1,-1,-1],"loss_changes":[1.4467119E3,1.8316605E2,2.4128638E2,2.115979E1,1.4641998E2,5.3787003E1,3.1889404E1,2.1607967E1,1.922229E1,8.4004944E1,2.0693214E1,1.8374195E1,2.6284409E0,2.1621742E0,8.715698E0,1.0936707E1,1.5721678E1,2.5670033E1,1.189093E1,1.3739421E1,2.0244522E1,0E0,7.8782654E0,0E0,7.7628326E0,0E0,0E0,0E0,0E0,0E0,5.4295654E0,0E0,6.9749255E0,0E0,1.772728E0,0E0,9.409601E0,1.0295837E1,1.9473955E1,0E0,0E0,0E0,1.0656662E1,0E0,4.6600456E0,1.6026688E0,0E0,2.1289062E0,0E0,0E0,0E0,0E0,0E0,0E0,0E0,0E0,0E0,0E0,0E0,0E0,0E0,0E0,0E0,0E0,0E0,0E0,0E0],"parents":[2147483647,0,0,1,1,2,2,3,3,4,4,5,5,6,6,7,7,8,8,9,9,10,10,11,11,12,12,13,13,14,14,15,15,16,16,17,17,18,18,19,19,20,20,22,22,24,24,30,30,32,32,34,34,36,36,37,37,38,38,42,42,44,44,45,45,47,47],"right_children":[2,4,6,8,10,12,14,16,18,20,22,24,26,28,30,32,34,36,38,40,42,-1,44,-1,46,-1,-1,-1,-1,-1,48,-1,50,-1,52,-1,54,56,58,-1,-1,-1,60,-1,62,64,-1,66,-1,-1,-1,-1,-1,-1,-1,-1,-1,-1,-1,-1,-1,-1,-1,-1,-1,-1,-1],"split_conditions":[1.6599194E1,1.937946E1,1.7713085E1,-4.037603E0,9.52418E0,9.69175E0,-1.7449038E0,3.8873837E0,5.1116366E0,9.620426E0,4.03464E0,-7.5909185E-1,2.5467153E0,8.32E-1,2.1292208E-1,1.45E0,2.3433137E0,3.0376186E0,2.199666E1,2.0597076E1,6.91E-1,1.3474809E-1,6.1927986E0,-5.0297916E-2,1.4298949E1,6.4610444E-2,-5.7650566E-2,6.54404E-2,-5.186609E-2,-3.875509E-2,2.98E0,-5.6266826E-2,2.763895E0,-4.552498E-2,1.5439423E0,-5.4638375E-2,5.71184E5,-6.687038E0,8.224387E0,-4.554347E-2,1.24009095E-1,-4.8611734E-2,2.0331886E0,1.2828347E-1,6.848707E0,8.833391E0,-3.888787E-2,2.2196715E0,-3.6838803E-2,-4.157857E-2,1.5094484E-1,2.070668E-1,4.465569E-2,-3.9732542E-2,1.7735362E-1,5.0279625E-2,-5.589931E-2,1.7057374E-1,-5.2918345E-2,1.5593097E-1,-4.1261695E-2,5.7802167E-2,-5.7618994E-2,3.317833E-2,1.5857153E-1,1.5552102E-1,2.749011E-2],"split_indices":[704,556,1230,1833,985,320,2162,2420,157,1000,167,2519,1164,2750,1601,1,2527,2162,592,1230,3611,0,216,0,1161,0,0,0,0,0,3594,0,1992,0,1439,0,4094,1640,972,0,0,0,1710,0,1391,1134,0,2013,0,0,0,0,0,0,0,0,0,0,0,0,0,0,0,0,0,0,0],"split_type":[0,0,0,0,0,0,0,0,0,0,0,0,0,0,0,0,0,0,0,0,0,0,0,0,0,0,0,0,0,0,0,0,0,0,0,0,0,0,0,0,0,0,0,0,0,0,0,0,0,0,0,0,0,0,0,0,0,0,0,0,0,0,0,0,0,0,0],"sum_hessian":[2.8685608E3,2.1773335E3,6.912275E2,1.8882819E3,2.8905154E2,1.0902896E2,5.821985E2,4.5098392E1,1.8431835E3,1.55744E2,1.3330754E2,3.11701E1,7.7858864E1,8.915199E0,5.732833E2,3.2619583E1,1.24788065E1,2.630033E1,1.816883E3,4.0561985E1,1.15182014E2,5.3129144E0,1.2799463E2,6.1523085E0,2.5017792E1,1.0108107E0,7.684805E1,1.0168283E0,7.898371E0,1.9759468E0,5.713074E2,2.6206652E1,6.4129324E0,3.5973687E0,8.881438E0,1.4928378E1,1.1371951E1,1.8021791E3,1.4704013E1,3.6048786E1,4.5132003E0,4.8650184E0,1.1031699E2,1.4815682E0,1.2651306E2,2.3052954E1,1.9648381E0,5.701785E2,1.1288003E0,2.4690006E0,3.943932E0,7.4480605E0,1.4333776E0,2.076945E0,9.295006E0,8.45372E0,1.7937253E3,5.2817717E0,9.422241E0,1.0788864E2,2.4283519E0,2.8344388E0,1.2367863E2,1.704707E0,2.1348246E1,5.6839984E2,1.7787263E0],"tree_param":{"num_deleted":"0","num_feature":"4192","num_nodes":"67","size_leaf_vector":"1"}},{"base_weights":[2.2578822E-2,1.2721585E0,-2.7697855E-1,1.4948425E0,4.2412603E-1,-4.090487E-1,1.1082766E0,1.5169632E0,3.9368403E-1,1.3068181E0,-2.560937E-1,-4.81267E-1,8.911273E-1,1.3645431E0,1.5743656E-1,-2.7468672E-2,1.5274556E0,1.3779883E-1,-4.4804595E-2,1.4911106E0,-8.179917E-2,1.0625143E0,-4.532962E-1,1.0912894E0,-5.144095E-1,1.5213108E0,-1.6011707E-1,1.468207E0,8.433225E-2,1.4572579E0,-3.1380302E-1,-2.4303628E-2,1.5332906E0,1.7700888E-1,1.5672257E0,7.4851E-2,-4.3204095E-2,1.4538628E-1,-2.9503355E-2,1.0870798E-1,-5.291245E-1,-2.9365653E-1,1.4660194E0,-5.3274846E-1,1.3005729E0,-2.6022939E-2,1.584547E0,1.2990367E0,-4.7706285E-1,4.6754283E-1,1.5241594E0,1.3449784E-1,-4.6222392E-1,2.718103E-2,1.5592729E-1,1.1760849E-1,-4.5787486E-1,1.5390661E-1,-1.6526902E-2,-3.2325312E-2,5.926308E-2,5.312836E-4,1.6097248E-1,3.211273E-2,-5.5572975E-2,6.311451E-2,-5.102262E-2,-3.4689568E-3,1.5466861E-1,1.1580396E-1,-5.4646034E-2,1.5203655E-1,-1.2310813E-2,1.61007E-1,2.5621464E-2,8.761351E-3,1.4880942E-1,-5.4939207E-2,7.1897216E-2,1.3170786E-1,-2.6273191E-2,1.559998E-1,-1.1882603E-4,-5.2096624E-2,8.330731E-4,5.1383346E-2,-5.195232E-2],"categories":[],"categories_nodes":[],"categories_segments":[],"categories_sizes":[],"default_left":[0,0,0,0,0,0,0,0,0,0,0,0,0,0,0,0,0,0,0,0,0,0,0,0,0,0,0,0,0,0,0,0,0,0,0,0,0,0,0,0,0,0,0,0,0,0,0,0,0,0,0,0,0,0,0,0,0,0,0,0,0,0,0,0,0,0,0,0,0,0,0,0,0,0,0,0,0,0,0,0,0,0,0,0,0,0,0],"id":19,"left_children":[1,3,5,7,9,11,13,15,17,19,21,23,25,27,29,-1,31,-1,-1,33,35,37,39,41,43,45,47,49,51,53,55,-1,57,59,61,-1,-1,-1,-1,-1,63,65,67,69,71,-1,73,75,77,79,81,-1,83,-1,-1,-1,85,-1,-1,-1,-1,-1,-1,-1,-1,-1,-1,-1,-1,-1,-1,-1,-1,-1,-1,-1,-1,-1,-1,-1,-1,-1,-1,-1,-1,-1,-1],"loss_changes":[1.00402295E3,9.731256E1,3.9629425E2,9.399414E0,6.5940926E1,1.8597299E2,4.5740143E1,7.976013E0,8.432339E0,1.2333923E1,1.6745905E1,9.8164246E1,6.936284E1,1.9574219E1,2.5674482E1,0E0,4.5027466E0,0E0,0E0,3.941597E0,2.2250211E0,4.9108877E0,7.0123625E0,2.0657356E1,6.1762238E1,7.771866E0,1.912252E1,6.9718018E0,9.013463E0,9.223232E-1,7.2007756E0,0E0,4.164612E0,9.0613234E-1,2.6296234E0,0E0,0E0,0E0,0E0,0E0,1.381855E0,2.151185E0,3.7872238E0,4.276013E1,6.021084E0,0E0,1.7310791E0,1.5662918E0,3.3016996E0,5.749892E0,7.083191E0,0E0,2.597525E-1,0E0,0E0,0E0,2.0054164E0,0E0,0E0,0E0,0E0,0E0,0E0,0E0,0E0,0E0,0E0,0E0,0E0,0E0,0E0,0E0,0E0,0E0,0E0,0E0,0E0,0E0,0E0,0E0,0E0,0E0,0E0,0E0,0E0,0E0,0E0],"parents":[2147483647,0,0,1,1,2,2,3,3,4,4,5,5,6,6,7,7,8,8,9,9,10,10,11,11,12,12,13,13,14,14,16,16,19,19,20,20,21,21,22,22,23,23,24,24,25,25,26,26,27,27,28,28,29,29,30,30,32,32,33,33,34,34,40,40,41,41,42,42,43,43,44,44,46,46,47,47,48,48,49,49,50,50,52,52,56,56],"right_children":[2,4,6,8,10,12,14,16,18,20,22,24,26,28,30,-1,32,-1,-1,34,36,38,40,42,44,46,48,50,52,54,56,-1,58,60,62,-1,-1,-1,-1,-1,64,66,68,70,72,-1,74,76,78,80,82,-1,84,-1,-1,-1,86,-1,-1,-1,-1,-1,-1,-1,-1,-1,-1,-1,-1,-1,-1,-1,-1,-1,-1,-1,-1,-1,-1,-1,-1,-1,-1,-1,-1,-1,-1],"split_conditions":[8.521081E0,1.6877192E1,-1.5334578E0,2.1257488E1,2.5231938E0,1.6878349E0,2.730563E0,-8.639632E0,-1.8474565E-1,4.633746E0,9.319541E-1,-7.242618E-1,4.1893897E0,5.902653E0,1.295394E0,-2.7468672E-2,3.279E0,1.3779883E-1,-4.4804595E-2,-4.8068824E0,1.6598932E-1,1.8218946E1,-7.9624695E-1,-3.1813853E0,2.6364808E0,-6.4738607E0,1.29381E1,6.503356E0,-4.5821556E-1,-6.926354E0,1.0054237E1,-2.4303628E-2,8.05546E5,6.5770354E0,-4.757844E0,7.4851E-2,-4.3204095E-2,1.4538628E-1,-2.9503355E-2,1.0870798E-1,4.548846E0,-2.6950592E-1,3.8511062E0,8.260405E0,4.989505E0,-2.6022939E-2,2.5265995E1,7.538845E0,-1.8357575E0,-9.128734E-2,9E1,1.3449784E-1,1.0132429E1,2.718103E-2,1.5592729E-1,1.1760849E-1,-1.9840431E-1,1.5390661E-1,-1.6526902E-2,-3.2325312E-2,5.926308E-2,5.312836E-4,1.6097248E-1,3.211273E-2,-5.5572975E-2,6.311451E-2,-5.102262E-2,-3.4689568E-3,1.5466861E-1,1.1580396E-1,-5.4646034E-2,1.5203655E-1,-1.2310813E-2,1.61007E-1,2.5621464E-2,8.761351E-3,1.4880942E-1,-5.4939207E-2,7.1897216E-2,1.3170786E-1,-2.6273191E-2,1.559998E-1,-1.1882603E-4,-5.2096624E-2,8.330731E-4,5.1383346E-2,-5.195232E-2],"split_indices":[844,173,2207,1230,2647,2590,1601,1893,1414,2414,1427,1527,2426,2426,2264,0,3963,0,0,1953,1758,495,1914,2128,2194,2302,1208,992,2382,1551,548,0,4096,686,2481,0,0,0,0,0,844,1707,576,369,1627,0,624,468,2650,1491,3965,0,264,0,0,0,2414,0,0,0,0,0,0,0,0,0,0,0,0,0,0,0,0,0,0,0,0,0,0,0,0,0,0,0,0,0,0],"split_type":[0,0,0,0,0,0,0,0,0,0,0,0,0,0,0,0,0,0,0,0,0,0,0,0,0,0,0,0,0,0,0,0,0,0,0,0,0,0,0,0,0,0,0,0,0,0,0,0,0,0,0,0,0,0,0,0,0,0,0,0,0,0,0,0,0,0,0,0,0,0,0,0,0,0,0,0,0,0,0,0,0,0,0,0,0,0,0],"sum_hessian":[2.6803115E3,5.1766534E2,2.1626462E3,4.093989E2,1.0826643E2,1.9750498E3,1.875964E2,4.0096646E2,8.432425E0,4.671944E1,6.1546993E1,1.8717152E3,1.033346E2,1.4742732E2,4.0169086E1,2.1878965E0,3.9877856E2,3.5933425E0,4.839082E0,4.1180325E1,5.539119E0,7.4362264E0,5.4110767E1,3.7974174E1,1.833741E3,6.4326195E1,3.900841E1,1.3624791E2,1.1179408E1,1.0131354E1,3.0037733E1,1.1764182E0,3.9760214E2,2.4367213E0,3.8743603E1,1.3059688E0,4.23315E0,5.717159E0,1.7190673E0,1.9130476E0,5.219772E1,8.132825E0,2.9841347E1,1.8160972E3,1.7643805E1,2.0982237E0,6.222797E1,6.4081206E0,3.2600292E1,7.7103515E0,1.2853757E2,2.9392128E0,8.240195E0,1.0931389E0,9.038216E0,2.0169277E0,2.8020805E1,3.963484E2,1.2537495E0,1.2066197E0,1.2301017E0,1.0560759E0,3.7687527E1,1.2478789E0,5.094984E1,1.1799386E0,6.9528866E0,1.5512974E0,2.829005E1,1.3938235E1,1.8021589E3,1.5225354E1,2.4184513E0,6.084675E1,1.3812199E0,1.0626156E0,5.345505E0,3.1251066E1,1.3492261E0,3.1927063E0,4.5176454E0,1.2556467E2,2.972898E0,7.230441E0,1.0097542E0,1.2340853E0,2.678672E1],"tree_param":{"num_deleted":"0","num_feature":"4192","num_nodes":"87","size_leaf_vector":"1"}},{"base_weights":[-1.5243986E-2,-5.7867523E-2,1.5160557E0,-5.4529447E-2,1.557787E0,1.5387504E-1,1.8235642E-1],"categories":[],"categories_nodes":[],"categories_segments":[],"categories_sizes":[],"default_left":[0,0,0,0,0,0,0],"id":20,"left_children":[1,-1,3,-1,5,-1,-1],"loss_changes":[2.3764185E3,0E0,6.45802E1,0E0,8.692627E-1,0E0,0E0],"parents":[2147483647,0,0,2,2,4,4],"right_children":[2,-1,4,-1,6,-1,-1],"split_conditions":[2.217639E1,-5.7867523E-2,5.9697843E0,-5.4529447E-2,5.875E0,1.5387504E-1,1.8235642E-1],"split_indices":[1334,0,1739,0,25,0,0],"split_type":[0,0,0,0,0,0,0],"sum_hessian":[2.75235E3,2.0124904E3,7.3985986E2,1.4441531E1,7.2541833E2,6.832679E2,4.21505E1],"tree_param":{"num_deleted":"0","num_feature":"4192","num_nodes":"7","size_leaf_vector":"1"}},{"base_weights":[-4.3048006E-3,-3.396792E-1,1.3547845E0,4.7268337E-1,-4.954926E-1,-1.9840711E-1,1.4613805E0,-4.3634716E-1,9.321536E-1,-5.174315E-1,6.988334E-1,-4.1667357E-1,1.2806306E0,1.5058657E0,-3.521661E-1,-4.9450776E-1,1.2399875E0,1.176753E0,3.214563E-2,-5.3760725E-1,5.021062E-1,-3.6069357E-1,1.3387806E0,7.926079E-1,-5.638623E-2,3.101042E-2,1.4496829E-1,1.5249071E0,-4.8677515E-2,-5.3811748E-2,9.864425E-2,-5.443787E-1,2.2581622E-1,2.9898256E-2,1.4421521E-1,-4.571123E-1,1.267275E0,-2.5693962E-1,1.1797115E0,3.0830964E-1,-5.4824716E-1,1.1784245E0,-5.5051517E-2,9.836356E-2,-5.3928148E-2,1.4848084E0,-3.6268957E-2,1.0349683E-1,1.8513393E-2,-4.5200393E-2,1.5389442E0,-5.663193E-2,4.492388E-2,1.3790382E-1,-4.8943818E-2,3.2248974E-2,-5.68179E-2,4.3223575E-3,1.3794495E-1,-4.1523073E-2,1.0631911E-1,-3.7840825E-2,1.529511E-1,-3.7980262E-2,1.4547412E-1,-5.543651E-2,3.598048E-2,1.4970595E-1,-4.628784E-2,2.4295561E-2,1.5500072E-1,-1.3464252E-2,1.5492323E-1],"categories":[],"categories_nodes":[],"categories_segments":[],"categories_sizes":[],"default_left":[0,0,0,0,0,0,0,0,0,0,0,0,0,0,0,0,0,0,0,0,0,0,0,0,0,0,0,0,0,0,0,0,0,0,0,0,0,0,0,0,0,0,0,0,0,0,0,0,0,0,0,0,0,0,0,0,0,0,0,0,0,0,0,0,0,0,0,0,0,0,0,0,0],"id":21,"left_children":[1,3,5,7,9,11,13,15,17,19,21,23,25,27,29,31,33,35,37,39,41,43,45,47,-1,-1,-1,49,-1,-1,-1,51,53,-1,-1,55,57,59,61,63,65,67,-1,-1,-1,69,-1,-1,-1,-1,71,-1,-1,-1,-1,-1,-1,-1,-1,-1,-1,-1,-1,-1,-1,-1,-1,-1,-1,-1,-1,-1,-1],"loss_changes":[1.3100754E3,2.9203522E2,9.44751E1,1.5558006E2,5.10578E1,1.2612118E1,4.3486816E1,1.2840982E1,5.435948E1,3.9362732E1,2.4434929E1,6.384433E0,3.8013458E-1,2.0468872E1,3.905787E0,4.502939E0,4.230981E-1,2.9311707E1,1.8161915E1,1.6946655E1,2.7271294E1,3.9131312E0,6.063217E0,4.025054E-1,0E0,0E0,0E0,1.4993286E1,0E0,0E0,0E0,2.7467766E0,7.7700524E0,0E0,0E0,1.1299009E0,2.5251068E1,9.598692E0,6.5802193E0,1.9323914E1,1.0428589E1,1.2766438E1,0E0,0E0,0E0,1.2973671E0,0E0,0E0,0E0,0E0,9.020996E0,0E0,0E0,0E0,0E0,0E0,0E0,0E0,0E0,0E0,0E0,0E0,0E0,0E0,0E0,0E0,0E0,0E0,0E0,0E0,0E0,0E0,0E0],"parents":[2147483647,0,0,1,1,2,2,3,3,4,4,5,5,6,6,7,7,8,8,9,9,10,10,11,11,12,12,13,13,14,14,15,15,16,16,17,17,18,18,19,19,20,20,21,21,22,22,23,23,27,27,31,31,32,32,35,35,36,36,37,37,38,38,39,39,40,40,41,41,45,45,50,50],"right_children":[2,4,6,8,10,12,14,16,18,20,22,24,26,28,30,32,34,36,38,40,42,44,46,48,-1,-1,-1,50,-1,-1,-1,52,54,-1,-1,56,58,60,62,64,66,68,-1,-1,-1,70,-1,-1,-1,-1,72,-1,-1,-1,-1,-1,-1,-1,-1,-1,-1,-1,-1,-1,-1,-1,-1,-1,-1,-1,-1,-1,-1],"split_conditions":[1.8041729E1,6.0428476E0,1.1968921E1,1.3912828E1,4.8506994E0,4.1538E1,7.483651E-1,1.8409632E1,-8.5662615E-1,1.9785656E1,3.5441267E0,5.52499E0,1.2472881E1,2.4621649E0,1.5385E1,3.5965261E0,2.4262081E1,4.7695746E0,1.7151737E1,-4.306953E0,1.3628745E1,-3.1201189E0,-7.935439E-2,6.8E-2,-5.638623E-2,3.101042E-2,1.4496829E-1,1.0741304E1,-4.8677515E-2,-5.3811748E-2,9.864425E-2,3.6869E-2,-3.2165527E0,2.9898256E-2,1.4421521E-1,2.029E1,7.793977E0,4.088904E0,-2.6232104E0,1.3707733E1,5.5381737E0,3.126301E-1,-5.5051517E-2,9.836356E-2,-5.3928148E-2,1.8301815E1,-3.6268957E-2,1.0349683E-1,1.8513393E-2,-4.5200393E-2,-3.7604672E-1,-5.663193E-2,4.492388E-2,1.3790382E-1,-4.8943818E-2,3.2248974E-2,-5.68179E-2,4.3223575E-3,1.3794495E-1,-4.1523073E-2,1.0631911E-1,-3.7840825E-2,1.529511E-1,-3.7980262E-2,1.4547412E-1,-5.543651E-2,3.598048E-2,1.4970595E-1,-4.628784E-2,2.4295561E-2,1.5500072E-1,-1.3464252E-2,1.5492323E-1],"split_indices":[1190,1395,792,173,2426,3963,1893,1137,1856,303,2191,1241,457,2543,3910,2368,962,540,1244,2340,609,1659,1574,40,0,0,0,679,0,0,0,3736,2160,0,0,3937,730,1993,1820,243,1672,2194,0,0,0,1117,0,0,0,0,1428,0,0,0,0,0,0,0,0,0,0,0,0,0,0,0,0,0,0,0,0,0,0],"split_type":[0,0,0,0,0,0,0,0,0,0,0,0,0,0,0,0,0,0,0,0,0,0,0,0,0,0,0,0,0,0,0,0,0,0,0,0,0,0,0,0,0,0,0,0,0,0,0,0,0,0,0,0,0,0,0,0,0,0,0,0,0,0,0,0,0,0,0,0,0,0,0,0,0],"sum_hessian":[2.8721995E3,2.304325E3,5.678746E2,3.705192E2,1.9338058E3,3.6415127E1,5.314594E2,1.24417656E2,2.4610155E2,1.8994805E3,3.4325325E1,3.23582E1,4.0569253E0,5.189008E2,1.2558643E1,1.20927086E2,3.4905708E0,1.9326852E2,5.283302E1,1.8630844E3,3.6396103E1,1.3089726E1,2.12356E1,3.0353353E0,2.9322866E1,1.0222976E0,3.0346277E0,5.142217E2,4.6791034E0,1.1551922E1,1.0067209E0,1.1332538E2,7.6017137E0,1.0556765E0,2.4348943E0,9.933052E0,1.8333548E2,4.2821808E1,1.0011213E1,2.2795193E1,1.8402892E3,2.2086088E1,1.4310017E1,1.0063707E0,1.2083356E1,1.9674395E1,1.5612055E0,1.6666696E0,1.3686658E0,3.4055572E0,5.1081613E2,1.1129779E2,2.0275865E0,2.5546887E0,5.047025E0,1.0012792E0,8.931773E0,1.5507096E1,1.6782837E2,3.884905E1,3.9727573E0,1.82047E0,8.190743E0,1.4662913E1,8.132279E0,1.8283602E3,1.1928907E1,1.856906E1,3.517028E0,1.2171673E0,1.8457228E1,3.0470767E0,5.0776904E2],"tree_param":{"num_deleted":"0","num_feature":"4192","num_nodes":"73","size_leaf_vector":"1"}},{"base_weights":[5.378808E-3,-4.271767E-1,1.4421567E0,1.0300218E0,-4.8785135E-1,-5.6109667E-2,1.5355455E0,1.4922091E0,-5.5329453E-2,-5.3521746E-1,1.05226934E-1,1.5397415E-1,-3.1946864E-2,-3.0374506E-2,1.5269165E-1,-5.452138E-1,1.6406741E0,-4.85791E-1,1.5147372E0,-5.6009537E-1,6.296674E-1,-3.2749448E-2,2.0192869E-1,-5.7474453E-2,1.7691584E-1,-4.949087E-2,1.8174592E0,-5.8027335E-2,3.2933965E-2,-5.370613E-2,1.8382244E-1,1.3801743E-1,1.9866018E-1],"categories":[],"categories_nodes":[],"categories_segments":[],"categories_sizes":[],"default_left":[0,0,0,0,0,0,0,0,0,0,0,0,0,0,0,0,0,0,0,0,0,0,0,0,0,0,0,0,0,0,0,0,0],"id":22,"left_children":[1,3,5,7,9,-1,11,13,-1,15,17,-1,-1,-1,-1,19,21,23,25,27,29,-1,-1,-1,-1,-1,31,-1,-1,-1,-1,-1,-1],"loss_changes":[1.722262E3,1.8882333E2,1.2082617E2,6.3366814E1,5.7518158E1,0E0,5.2628174E0,4.6041565E0,0E0,4.2099304E1,1.2745655E2,0E0,0E0,0E0,0E0,3.3335815E1,7.3028164E0,2.2666897E1,2.8387184E1,3.3633606E1,3.4922768E1,0E0,0E0,0E0,0E0,0E0,1.7835999E-1,0E0,0E0,0E0,0E0,0E0,0E0],"parents":[2147483647,0,0,1,1,2,2,3,3,4,4,6,6,7,7,9,9,10,10,15,15,16,16,17,17,18,18,19,19,20,20,26,26],"right_children":[2,4,6,8,10,-1,12,14,-1,16,18,-1,-1,-1,-1,20,22,24,26,28,30,-1,-1,-1,-1,-1,32,-1,-1,-1,-1,-1,-1],"split_conditions":[1.884288E1,-4.8861737E0,2.3123363E1,-2.7707562E0,5.1040115E0,-5.6109667E-2,-2.4944952E0,1.6794802E1,-5.5329453E-2,2.8371588E1,3.145762E0,1.5397415E-1,-3.1946864E-2,-3.0374506E-2,1.5269165E-1,3.43E-1,6.588E0,1.285E0,3.888222E0,2.8383398E0,3.0701435E0,-3.2749448E-2,2.0192869E-1,-5.7474453E-2,1.7691584E-1,-4.949087E-2,2.409261E1,-5.8027335E-2,3.2933965E-2,-5.370613E-2,1.8382244E-1,1.3801743E-1,1.9866018E-1],"split_indices":[940,2056,182,1636,2089,0,1772,182,0,166,1739,0,0,0,0,3133,19,2791,2561,2149,1844,0,0,0,0,0,546,0,0,0,0,0,0],"split_type":[0,0,0,0,0,0,0,0,0,0,0,0,0,0,0,0,0,0,0,0,0,0,0,0,0,0,0,0,0,0,0,0,0],"sum_hessian":[2.769208E3,2.1289656E3,6.402425E2,8.446346E1,2.0445021E3,2.8294653E1,6.119478E2,6.542325E1,1.9040216E1,1.8933848E3,1.5111732E2,6.107363E2,1.2114825E0,1.0933888E0,6.432986E1,1.885472E3,7.9126997E0,1.06934326E2,4.4182995E1,1.8624053E3,2.3066763E1,1.2983601E0,6.6143394E0,1.035929E2,3.3414276E0,5.7010713E0,3.8481922E1,1.8214314E3,4.0973892E1,1.2019182E1,1.104758E1,1.3288062E1,2.519386E1],"tree_param":{"num_deleted":"0","num_feature":"4192","num_nodes":"33","size_leaf_vector":"1"}},{"base_weights":[8.259246E-2,-3.9597633E-1,1.3738196E0,8.081379E-1,-5.285181E-1,1.5588905E0,-5.7171363E-2,1.6287813E0,-5.7202376E-2,-5.7834912E-2,1.4925031E-1,1.6003493E0,-5.4488886E-2,-4.808053E-2,1.7130582E0,-4.8223328E-2,1.6130761E0,1.4425294E-1,1.849788E-1,2.0102201E-1,1.5616624E-1],"categories":[],"categories_nodes":[],"categories_segments":[],"categories_sizes":[],"default_left":[0,0,0,0,0,0,0,0,0,0,0,0,0,0,0,0,0,0,0,0,0],"id":23,"left_children":[1,3,5,7,9,11,-1,13,-1,-1,-1,15,-1,-1,17,-1,19,-1,-1,-1,-1],"loss_changes":[1.7953107E3,3.3874103E2,2.8375854E2,2.3945625E2,1.9324152E2,6.3464355E1,0E0,2.4350128E1,0E0,0E0,0E0,1.9437744E1,0E0,0E0,2.0463867E0,0E0,1.1153198E1,0E0,0E0,0E0,0E0],"parents":[2147483647,0,0,1,1,2,2,3,3,4,4,5,5,7,7,11,11,14,14,16,16],"right_children":[2,4,6,8,10,12,-1,14,-1,-1,-1,16,-1,-1,18,-1,20,-1,-1,-1,-1],"split_conditions":[4.2380624E0,5.4409347E0,9.19E-1,2.1503E-2,2.7295101E1,-2.2588768E0,-5.7171363E-2,5.6548696E0,-5.7202376E-2,-5.7834912E-2,1.4925031E-1,3.5058334E0,-5.4488886E-2,-4.808053E-2,1.45E0,-4.8223328E-2,-1.705E0,1.4425294E-1,1.849788E-1,2.0102201E-1,1.5616624E-1],"split_indices":[2600,1297,2856,3746,1139,1690,0,2561,0,0,0,2380,0,0,0,0,31,0,0,0,0],"split_type":[0,0,0,0,0,0,0,0,0,0,0,0,0,0,0,0,0,0,0,0,0],"sum_hessian":[2.9034307E3,2.1188228E3,7.8460803E2,2.0959529E2,1.9092274E3,7.1663605E2,6.797201E1,1.3132774E2,7.8267555E1,1.8639822E3,4.524523E1,7.03021E2,1.3615033E1,4.8641853E0,1.2646356E2,4.0460176E0,6.98975E2,4.6335648E1,8.0127914E1,7.574957E1,6.232254E2],"tree_param":{"num_deleted":"0","num_feature":"4192","num_nodes":"21","size_leaf_vector":"1"}},{"base_weights":[5.6357714E-3,-3.858807E-1,1.1278282E0,-4.406942E-1,7.819096E-1,-2.98779E-1,1.2989072E0,-1.2153885E-2,-5.196679E-1,-4.0700495E-1,1.2297322E0,1.2258645E-1,-4.8591617E-1,1.3326759E0,-5.3204574E-2,-2.851453E-1,1.027983E0,4.376995E-1,-5.305491E-1,-5.5226117E-2,7.61754E-2,-4.5030806E-2,1.3311349E0,4.8343498E-1,-5.6911405E-2,-4.8277583E-2,1.3451434E0,6.4560765E-1,-4.3298438E-1,-5.1696658E-2,1.2616868E0,-5.1387843E-2,1.20915666E-1,-5.3981483E-1,2.2998957E-1,1.3749304E0,-3.380116E-2,1.182548E-1,-4.0691126E-2,-3.6068108E-2,1.3527511E0,-5.288325E-2,1.213892E-1,-5.038027E-2,7.720164E-2,1.3703854E-1,-4.3956578E-2,-5.454575E-2,6.378763E-2,1.3019428E-1,-5.304734E-2,3.8070336E-2,1.3937663E-1,-4.2739064E-2,6.1433595E-2,-3.0029466E-2,1.3561402E-1],"categories":[],"categories_nodes":[],"categories_segments":[],"categories_sizes":[],"default_left":[0,0,0,0,0,0,0,0,0,0,0,0,0,0,0,0,0,0,0,0,0,0,0,0,0,0,0,0,0,0,0,0,0,0,0,0,0,0,0,0,0,0,0,0,0,0,0,0,0,0,0,0,0,0,0,0,0],"id":24,"left_children":[1,3,5,7,9,11,13,15,17,19,21,-1,23,25,-1,27,29,31,33,-1,-1,-1,35,37,-1,-1,39,41,43,-1,45,-1,-1,47,49,51,-1,-1,-1,53,55,-1,-1,-1,-1,-1,-1,-1,-1,-1,-1,-1,-1,-1,-1,-1,-1],"loss_changes":[1.1868282E3,1.2853348E2,1.7090918E2,6.4752106E1,4.8495552E1,2.2173347E1,3.929358E1,8.5130455E1,1.7063416E1,4.7354674E0,1.1797081E1,0E0,5.7652607E0,1.4524902E1,0E0,3.295252E1,2.3157585E1,1.4352852E1,1.138504E1,0E0,0E0,0E0,5.014595E0,4.1671424E0,0E0,0E0,6.449341E0,2.2631563E1,1.79254E1,0E0,1.0668106E1,0E0,0E0,1.0841309E1,1.6941515E1,6.088486E-1,0E0,0E0,0E0,1.3596952E0,3.8012695E0,0E0,0E0,0E0,0E0,0E0,0E0,0E0,0E0,0E0,0E0,0E0,0E0,0E0,0E0,0E0,0E0],"parents":[2147483647,0,0,1,1,2,2,3,3,4,4,5,5,6,6,7,7,8,8,9,9,10,10,12,12,13,13,15,15,16,16,17,17,18,18,22,22,23,23,26,26,27,27,28,28,30,30,33,33,34,34,35,35,39,39,40,40],"right_children":[2,4,6,8,10,12,14,16,18,20,22,-1,24,26,-1,28,30,32,34,-1,-1,-1,36,38,-1,-1,40,42,44,-1,46,-1,-1,48,50,52,-1,-1,-1,54,56,-1,-1,-1,-1,-1,-1,-1,-1,-1,-1,-1,-1,-1,-1,-1,-1],"split_conditions":[1.6599194E1,4.5260844E0,1.2654238E1,-1.4671632E0,1.4722038E1,1.2857E1,1.5674963E1,1.2678434E0,-5.787773E0,1.7100603E1,1.0153927E1,1.2258645E-1,-2.9891067E0,1.0112944E1,-5.3204574E-2,1.0920408E1,7.18E-1,1.8857E1,1.933038E1,-5.5226117E-2,7.61754E-2,-4.5030806E-2,1.6951633E1,8.058328E0,-5.6911405E-2,-4.8277583E-2,6.71E-1,1.1634291E1,5.1545925E0,-5.1696658E-2,-1.707943E0,-5.1387843E-2,1.20915666E-1,5.8152685E0,7.9399223E0,-1.7942744E0,-3.380116E-2,1.182548E-1,-4.0691126E-2,1.9678318E1,-1.7056525E0,-5.288325E-2,1.213892E-1,-5.038027E-2,7.720164E-2,1.3703854E-1,-4.3956578E-2,-5.454575E-2,6.378763E-2,1.3019428E-1,-5.304734E-2,3.8070336E-2,1.3937663E-1,-4.2739064E-2,6.1433595E-2,-3.0029466E-2,1.3561402E-1],"split_indices":[704,1760,751,2672,635,3985,1097,1654,1761,841,322,0,1528,321,0,169,3611,1230,447,0,0,0,603,714,0,0,3611,1128,1627,0,2216,0,0,1902,685,1953,0,0,0,498,1633,0,0,0,0,0,0,0,0,0,0,0,0,0,0,0,0],"split_type":[0,0,0,0,0,0,0,0,0,0,0,0,0,0,0,0,0,0,0,0,0,0,0,0,0,0,0,0,0,0,0,0,0,0,0,0,0,0,0,0,0,0,0,0,0,0,0,0,0,0,0,0,0,0,0,0,0],"sum_hessian":[2.6992952E3,2.0016167E3,6.976785E2,1.912472E3,8.914462E1,7.462693E1,6.2305164E2,2.9777725E2,1.6146948E3,2.441552E1,6.47291E1,7.5516357E0,6.7075294E1,6.120358E2,1.1015817E1,2.3644612E2,6.1331135E1,1.7705168E1,1.5969896E3,2.2185707E1,2.229814E0,3.4886358E0,6.1240463E1,4.9216557E0,6.2153637E1,3.9171658E0,6.0811865E2,3.19474E1,2.0449872E2,7.899271E0,5.3431866E1,8.076653E0,9.628514E0,1.5780543E3,1.8935299E1,5.9846466E1,1.393999E0,2.5730612E0,2.3485947E0,3.3106375E0,6.04808E2,1.0440353E1,2.1507046E1,1.9369699E2,1.0801729E1,5.040576E1,3.0261045E0,1.5710637E3,6.990624E0,7.5627546E0,1.1372543E1,1.5071065E0,5.833936E1,2.2810836E0,1.0295538E0,1.0582365E0,6.0374976E2],"tree_param":{"num_deleted":"0","num_feature":"4192","num_nodes":"57","size_leaf_vector":"1"}},{"base_weights":[-9.880825E-3,1.129304E0,-3.2841194E-1,1.2883197E0,5.3588513E-2,1.0881033E0,-4.197144E-1,1.3182138E0,1.8188758E-1,1.3894974E-1,-3.6790466E-1,1.2792425E0,-3.657942E-1,6.89082E-1,-4.8301485E-1,1.3590152E0,1.0552661E0,1.1962773E-1,-4.0922588E-1,-5.109945E-1,8.904243E-1,1.4200196E0,1.5466617E-1,8.1511855E-2,-5.2241147E-2,-1.6085488E-1,1.1266958E0,-5.073789E-1,1.1830964E0,1.3620077E0,1.2403811E-2,1.051925E-1,1.1608399E0,-5.187547E-2,2.8332466E-2,6.53458E-2,-5.6493604E-1,-2.9729215E-2,1.1749025E-1,2.6328577E-2,1.451781E0,-3.9620525E-1,1.1711059E-1,1.1577556E-1,-3.679826E-1,-1.6225813E-1,1.2900475E0,1.1649251E0,-5.2167195E-1,1.3352574E0,-2.9517679E-2,1.3646099E-1,2.5212659E-2,9.7106725E-2,-3.5006538E-2,1.2215271E-1,-1.4480247E-2,-9.970895E-3,-5.721232E-2,3.8867574E-2,-3.19979E-2,1.7048273E-2,1.4639969E-1,2.6216656E-2,-5.1188093E-2,-4.988345E-2,1.0500169E-1,-4.43511E-2,6.76296E-2,1.381347E-1,3.344616E-2,1.6019231E-1,1.2946935E-2,1.3411844E-1,-5.3146016E-2,1.3737202E-1,2.5117064E-2],"categories":[],"categories_nodes":[],"categories_segments":[],"categories_sizes":[],"default_left":[0,0,0,0,0,0,0,0,0,0,0,0,0,0,0,0,0,0,0,0,0,0,0,0,0,0,0,0,0,0,0,0,0,0,0,0,0,0,0,0,0,0,0,0,0,0,0,0,0,0,0,0,0,0,0,0,0,0,0,0,0,0,0,0,0,0,0,0,0,0,0,0,0,0,0,0,0],"id":25,"left_children":[1,3,5,7,9,11,13,15,17,-1,19,21,23,25,27,29,31,-1,33,35,37,39,41,-1,-1,43,45,47,49,51,-1,53,55,-1,-1,-1,57,-1,-1,59,61,63,-1,-1,65,67,69,71,73,75,-1,-1,-1,-1,-1,-1,-1,-1,-1,-1,-1,-1,-1,-1,-1,-1,-1,-1,-1,-1,-1,-1,-1,-1,-1,-1,-1],"loss_changes":[1.0033244E3,1.03281555E2,2.7991388E2,1.7169312E1,4.491247E1,3.690573E1,1.4285992E2,4.0625E0,9.487933E0,0E0,1.1390226E1,1.816185E1,3.3873863E0,4.1125053E1,7.8603546E1,1.4572144E0,7.229431E0,0E0,9.2271733E-1,3.8343496E0,2.5676966E0,4.524109E0,8.325244E0,0E0,0E0,1.0883652E1,1.5535744E1,4.589279E1,6.6912155E0,9.234009E-1,0E0,3.662863E0,5.395653E0,0E0,0E0,0E0,1.2104225E-1,0E0,0E0,5.4034317E-1,1.3274078E0,8.845279E-1,0E0,0E0,6.804614E0,2.4404004E0,5.1840744E0,7.1976223E0,3.49787E1,7.2088623E-1,0E0,0E0,0E0,0E0,0E0,0E0,0E0,0E0,0E0,0E0,0E0,0E0,0E0,0E0,0E0,0E0,0E0,0E0,0E0,0E0,0E0,0E0,0E0,0E0,0E0,0E0,0E0],"parents":[2147483647,0,0,1,1,2,2,3,3,4,4,5,5,6,6,7,7,8,8,10,10,11,11,12,12,13,13,14,14,15,15,16,16,18,18,19,19,20,20,21,21,22,22,25,25,26,26,27,27,28,28,29,29,31,31,32,32,36,36,39,39,40,40,41,41,44,44,45,45,46,46,47,47,48,48,49,49],"right_children":[2,4,6,8,10,12,14,16,18,-1,20,22,24,26,28,30,32,-1,34,36,38,40,42,-1,-1,44,46,48,50,52,-1,54,56,-1,-1,-1,58,-1,-1,60,62,64,-1,-1,66,68,70,72,74,76,-1,-1,-1,-1,-1,-1,-1,-1,-1,-1,-1,-1,-1,-1,-1,-1,-1,-1,-1,-1,-1,-1,-1,-1,-1,-1,-1],"split_conditions":[1.1541799E1,2.5321686E0,-1.8577957E0,1.9546484E1,1.3953159E0,6.7118487E0,-3.2631895E-1,1.9428572E-1,1.5971552E1,1.3894974E-1,9.588176E0,4.7929945E0,9.358244E0,3.7313E1,2.4459786E0,4.35E0,-2.9898188E0,1.1962773E-1,1.0147246E1,9.237829E0,1.1487122E0,-5.4704924E0,-1.8342857E-1,8.1511855E-2,-5.2241147E-2,1.0301956E1,3.279E0,-1.2877378E0,5.2677827E0,2.6885637E1,1.2403811E-2,2.418252E0,8.812453E0,-5.187547E-2,2.8332466E-2,6.53458E-2,-1.6846493E0,-2.9729215E-2,1.1749025E-1,1.1883792E1,-8.17043E0,1.5219758E1,1.1711059E-1,1.1577556E-1,1.1137456E0,9.753515E0,3.5938E1,3.1230674E0,-4.8727956E0,7.71045E5,-2.9517679E-2,1.3646099E-1,2.5212659E-2,9.7106725E-2,-3.5006538E-2,1.2215271E-1,-1.4480247E-2,-9.970895E-3,-5.721232E-2,3.8867574E-2,-3.19979E-2,1.7048273E-2,1.4639969E-1,2.6216656E-2,-5.1188093E-2,-4.988345E-2,1.0500169E-1,-4.43511E-2,6.76296E-2,1.381347E-1,3.344616E-2,1.6019231E-1,1.2946935E-2,1.3411844E-1,-5.3146016E-2,1.3737202E-1,2.5117064E-2],"split_indices":[679,2124,2255,704,2254,2191,1587,2723,834,0,1310,1427,413,3922,2194,96,2173,0,261,441,152,2521,4043,0,0,369,3890,2191,1601,471,0,2204,1904,0,0,0,1808,0,0,157,2000,624,0,0,1856,1141,3963,1519,1437,4131,0,0,0,0,0,0,0,0,0,0,0,0,0,0,0,0,0,0,0,0,0,0,0,0,0,0,0],"split_type":[0,0,0,0,0,0,0,0,0,0,0,0,0,0,0,0,0,0,0,0,0,0,0,0,0,0,0,0,0,0,0,0,0,0,0,0,0,0,0,0,0,0,0,0,0,0,0,0,0,0,0,0,0,0,0,0,0,0,0,0,0,0,0,0,0,0,0,0,0,0,0,0,0,0,0,0,0],"sum_hessian":[2.7629788E3,6.0319293E2,2.159786E3,5.2533813E2,7.785477E1,1.301198E2,2.0296661E3,5.1133133E2,1.4006829E1,1.8121777E1,5.973299E1,1.1510715E2,1.5012643E1,1.0908062E2,1.9205854E3,4.390378E2,7.229352E1,4.780097E0,9.226732E0,5.416731E1,5.565681E0,1.0206739E2,1.3039755E1,1.2655696E0,1.3747073E1,3.7289352E1,7.179127E1,1.8935905E3,2.6995049E1,4.378739E2,1.1639037E0,7.429622E0,6.48639E1,8.183447E0,1.0432848E0,1.9060755E0,5.2261234E1,1.066775E0,4.498906E0,2.3149767E0,9.975242E1,8.852332E0,4.1874228E0,4.4391828E0,3.285017E1,8.075659E0,6.3715607E1,1.5364984E1,1.8782255E3,2.456344E1,2.4316077E0,4.366208E2,1.2531312E0,2.1697931E0,5.259829E0,6.2044453E1,2.8194432E0,1.0213614E0,5.1239872E1,1.0715033E0,1.2434734E0,1.083297E0,9.866912E1,1.1336626E0,7.7186694E0,3.0668331E1,2.181838E0,6.400139E0,1.6755203E0,5.7752235E1,5.9633713E0,1.0420221E1,4.9447627E0,9.106418E0,1.869119E3,2.3463789E1,1.0996505E0],"tree_param":{"num_deleted":"0","num_feature":"4192","num_nodes":"77","size_leaf_vector":"1"}},{"base_weights":[1.565464E-2,-5.7228714E-2,1.3271012E0,-5.3579684E-2,1.3570803E-1],"categories":[],"categories_nodes":[],"categories_segments":[],"categories_sizes":[],"default_left":[0,0,0,0,0],"id":26,"left_children":[1,-1,3,-1,-1],"loss_changes":[2.1521997E3,0E0,4.897986E1,0E0,0E0],"parents":[2147483647,0,0,2,2],"right_children":[2,-1,4,-1,-1],"split_conditions":[2.2189651E1,-5.7228714E-2,3.9926984E0,-5.3579684E-2,1.3570803E-1],"split_indices":[1334,0,2282,0,0],"split_type":[0,0,0,0,0],"sum_hessian":[2.7892578E3,1.9262527E3,8.630051E2,1.3400886E1,8.4960425E2],"tree_param":{"num_deleted":"0","num_feature":"4192","num_nodes":"5","size_leaf_vector":"1"}},{"base_weights":[-1.2535779E-2,-3.3508945E-1,1.1793193E0,3.9564413E-1,-5.041174E-1,-4.3346837E-1,1.2622939E0,-5.5476632E-2,9.709002E-1,5.827771E-1,-5.2553105E-1,9.6669346E-2,-5.5834886E-2,-3.555501E-1,1.2988819E0,-3.2319468E-1,5.9721434E-1,1.7341621E-1,1.1805974E0,-4.5171788E-1,1.1916178E0,-5.502369E-1,-2.0442274E-1,-5.3412717E-2,7.909665E-2,-3.4901187E-1,1.3198074E0,-5.546123E-1,2.826489E-1,9.41719E-1,-3.0127946E-1,-2.2628067E-1,1.0963593E0,-1.6284157E-1,1.2734793E0,3.1012466E-2,-5.366524E-2,-3.837737E-2,1.3654789E0,-5.5405605E-1,3.5339618E-1,-5.387659E-1,6.6767293E-1,3.0756313E-2,-4.9297586E-2,1.3361964E0,-4.8087794E-2,1.7639685E-2,-5.749936E-2,1.3235597E-1,-2.5597189E-2,1.1151023E-1,-3.2839295E-2,-5.501721E-2,7.532415E-2,1.0824124E-1,-4.736596E-2,-3.5911825E-2,1.3289452E-1,-5.1721554E-2,8.563274E-2,1.3227007E-1,-4.808695E-2,2.5692452E-2,1.4146325E-1,-2.1043539E-3,-5.602933E-2,-4.59837E-2,1.3558613E-1,-5.6683827E-2,7.17189E-2,1.1970849E-1,-3.4318727E-2,-1.7682062E-2,1.3464525E-1],"categories":[],"categories_nodes":[],"categories_segments":[],"categories_sizes":[],"default_left":[0,0,0,0,0,0,0,0,0,0,0,0,0,0,0,0,0,0,0,0,0,0,0,0,0,0,0,0,0,0,0,0,0,0,0,0,0,0,0,0,0,0,0,0,0,0,0,0,0,0,0,0,0,0,0,0,0,0,0,0,0,0,0,0,0,0,0,0,0,0,0,0,0,0,0],"id":27,"left_children":[1,3,5,7,9,11,13,15,17,19,21,-1,-1,23,25,27,29,31,33,35,37,39,41,-1,-1,43,45,47,49,51,53,55,57,59,61,-1,-1,-1,63,65,67,69,71,-1,-1,73,-1,-1,-1,-1,-1,-1,-1,-1,-1,-1,-1,-1,-1,-1,-1,-1,-1,-1,-1,-1,-1,-1,-1,-1,-1,-1,-1,-1,-1],"loss_changes":[1.0690208E3,2.705036E2,7.980524E1,1.068884E2,4.1682495E1,5.7371817E0,3.382025E1,4.067616E1,3.0063599E1,2.2470844E1,1.3722595E1,0E0,0E0,3.134899E0,1.947113E1,2.3281902E1,2.1251524E1,1.4582083E1,1.8068726E1,1.0481532E0,6.6034546E0,5.782379E0,3.7151974E1,0E0,0E0,8.7979513E-1,1.6714355E1,1.8846626E0,2.6270098E1,1.1202492E1,5.5408497E0,9.559049E0,4.51019E0,4.106257E0,1.220697E1,0E0,0E0,0E0,7.3773193E-1,5.3485107E0,6.67533E0,3.6420097E0,1.936404E1,0E0,0E0,8.616699E0,0E0,0E0,0E0,0E0,0E0,0E0,0E0,0E0,0E0,0E0,0E0,0E0,0E0,0E0,0E0,0E0,0E0,0E0,0E0,0E0,0E0,0E0,0E0,0E0,0E0,0E0,0E0,0E0,0E0],"parents":[2147483647,0,0,1,1,2,2,3,3,4,4,5,5,6,6,7,7,8,8,9,9,10,10,13,13,14,14,15,15,16,16,17,17,18,18,19,19,20,20,21,21,22,22,25,25,26,26,27,27,28,28,29,29,30,30,31,31,32,32,33,33,34,34,38,38,39,39,40,40,41,41,42,42,45,45],"right_children":[2,4,6,8,10,12,14,16,18,20,22,-1,-1,24,26,28,30,32,34,36,38,40,42,-1,-1,44,46,48,50,52,54,56,58,60,62,-1,-1,-1,64,66,68,70,72,-1,-1,74,-1,-1,-1,-1,-1,-1,-1,-1,-1,-1,-1,-1,-1,-1,-1,-1,-1,-1,-1,-1,-1,-1,-1,-1,-1,-1,-1,-1,-1],"split_conditions":[1.8041729E1,-4.043636E0,1.2473559E1,1.7117407E1,-2.8637786E0,-2.6E-1,-1.9702713E0,-5.6190245E-2,1.3813812E0,1.5152195E1,4.599155E0,9.6669346E-2,-5.5834886E-2,2.9030106E1,1.0882832E1,1.6333614E1,1.8966E1,5.3951397E0,1.0343588E1,3.7841582E0,3.0550241E0,4.2964544E0,1.0257526E1,-5.3412717E-2,7.909665E-2,6.1627226E0,8.865951E-1,4.6581135E0,-1.2715256E0,9.832611E-1,3.2734878E0,7.5322657E0,1.109699E1,2.9775405E0,4.224044E0,3.1012466E-2,-5.366524E-2,-3.837737E-2,1.3326446E1,-3.2257478E0,2.778066E0,1.254E0,-1.7853352E0,3.0756313E-2,-4.9297586E-2,-4.090936E0,-4.8087794E-2,1.7639685E-2,-5.749936E-2,1.3235597E-1,-2.5597189E-2,1.1151023E-1,-3.2839295E-2,-5.501721E-2,7.532415E-2,1.0824124E-1,-4.736596E-2,-3.5911825E-2,1.3289452E-1,-5.1721554E-2,8.563274E-2,1.3227007E-1,-4.808695E-2,2.5692452E-2,1.4146325E-1,-2.1043539E-3,-5.602933E-2,-4.59837E-2,1.3558613E-1,-5.6683827E-2,7.17189E-2,1.1970849E-1,-3.4318727E-2,-1.7682062E-2,1.3464525E-1],"split_indices":[1190,2675,307,495,1814,3178,2426,2172,2301,1190,1428,0,0,147,306,700,3921,1943,967,940,2191,2517,306,0,0,591,2194,1200,1927,2590,2380,1265,752,1811,1919,0,0,0,749,2586,2593,2854,2675,0,0,2605,0,0,0,0,0,0,0,0,0,0,0,0,0,0,0,0,0,0,0,0,0,0,0,0,0,0,0,0,0],"split_type":[0,0,0,0,0,0,0,0,0,0,0,0,0,0,0,0,0,0,0,0,0,0,0,0,0,0,0,0,0,0,0,0,0,0,0,0,0,0,0,0,0,0,0,0,0,0,0,0,0,0,0,0,0,0,0,0,0,0,0,0,0,0,0,0,0,0,0,0,0,0,0,0,0,0,0],"sum_hessian":[2.7787139E3,2.187442E3,5.9127203E2,4.1067804E2,1.7767638E3,2.872459E1,5.625475E2,2.3068019E2,1.7999785E2,3.3822296E1,1.7429415E3,1.8001649E0,2.6924425E1,1.2248027E1,5.5029944E2,1.6394057E2,6.673963E1,3.785632E1,1.4214153E2,1.2626461E1,2.1195835E1,1.6177589E3,1.2518269E2,1.1059562E1,1.1884649E0,6.703655E0,5.4359576E2,1.1868886E2,4.5251705E1,4.8207558E1,1.8532074E1,2.6943E1,1.0913319E1,9.143093E0,1.3299844E2,1.0005376E0,1.1625923E1,1.9866871E0,1.9209148E1,1.6113354E3,6.4234223E0,9.0766815E1,3.441588E1,1.0011829E0,5.7024717E0,5.389485E2,4.647322E0,3.0117776E0,1.1567708E2,1.4933904E1,3.0317802E1,4.2524563E1,5.6829934E0,1.5380236E1,3.1518376E0,3.7466755E0,2.3196325E1,1.42871E0,9.484609E0,7.14962E0,1.9934732E0,1.2960811E2,3.3903346E0,1.079957E0,1.812919E1,1.8688242E1,1.5926472E3,3.8452892E0,2.578133E0,8.9319084E1,1.4477276E0,2.2465778E1,1.1950098E1,3.5193224E0,5.3542914E2],"tree_param":{"num_deleted":"0","num_feature":"4192","num_nodes":"75","size_leaf_vector":"1"}},{"base_weights":[7.990239E-3,-4.207392E-1,1.2653774E0,-4.8146453E-1,8.453942E-1,-5.5489134E-2,1.3407786E0,-5.168526E-1,5.6127524E-1,-5.5239737E-2,1.3680236E-1,1.3442107E-1,-3.1682406E-2,-5.49777E-1,1.5277822E-1,1.2622597E0,-5.5654634E-2,6.772555E-1,-5.599592E-1,-5.6382317E-2,1.4981567E0,1.536821E-1,-4.8906766E-2,1.5379904E-1,-4.9522344E-2,-5.650425E-2,9.5340975E-2,-3.4952097E-2,1.602329E-1],"categories":[],"categories_nodes":[],"categories_segments":[],"categories_sizes":[],"default_left":[0,0,0,0,0,0,0,0,0,0,0,0,0,0,0,0,0,0,0,0,0,0,0,0,0,0,0,0,0],"id":28,"left_children":[1,3,5,7,9,-1,11,13,15,-1,-1,-1,-1,17,19,21,-1,23,25,-1,27,-1,-1,-1,-1,-1,-1,-1,-1],"loss_changes":[1.4814957E3,1.5798001E2,9.665234E1,7.247757E1,6.954021E1,0E0,4.244751E0,4.1809998E1,5.139305E1,0E0,0E0,0E0,0E0,2.2919434E1,8.710831E1,2.0016575E1,0E0,1.6202572E1,1.4307556E1,0E0,6.5978546E0,0E0,0E0,0E0,0E0,0E0,0E0,0E0,0E0],"parents":[2147483647,0,0,1,1,2,2,3,3,4,4,6,6,7,7,8,8,13,13,14,14,15,15,17,17,18,18,20,20],"right_children":[2,4,6,8,10,-1,12,14,16,-1,-1,-1,-1,18,20,22,-1,24,26,-1,28,-1,-1,-1,-1,-1,-1,-1,-1],"split_conditions":[1.9039948E1,4.151828E0,2.02109E1,5.2947807E0,2.390447E1,-5.5489134E-2,-1.7582445E0,5.189332E0,-4.2597995E0,-5.5239737E-2,1.3680236E-1,1.3442107E-1,-3.1682406E-2,4.2332153E0,2.1125881E1,-1.8E-2,-5.5654634E-2,1.8035029E0,3.64E-1,-5.6382317E-2,1.4340444E1,1.536821E-1,-4.8906766E-2,1.5379904E-1,-4.9522344E-2,-5.650425E-2,9.5340975E-2,-3.4952097E-2,1.602329E-1],"split_indices":[940,2330,784,2070,930,0,1450,1704,1911,0,0,0,0,761,784,3226,0,296,3141,0,154,0,0,0,0,0,0,0,0],"split_type":[0,0,0,0,0,0,0,0,0,0,0,0,0,0,0,0,0,0,0,0,0,0,0,0,0,0,0,0,0],"sum_hessian":[2.746211E3,2.048427E3,6.977838E2,1.9552697E3,9.31574E1,2.7501753E1,6.7028204E2,1.8915784E3,6.3691326E1,2.5336647E1,6.7820755E1,6.6908575E2,1.1962796E0,1.8031025E3,8.847579E1,3.9064693E1,2.4626633E1,1.4300259E1,1.7888024E3,5.8106766E1,3.0369026E1,3.387628E1,