{"learner":{"attributes":{},"feature_names":[],"feature_types":[],"gradient_booster":{"model":{"cats":{"enc":[],"feature_segments":[],"sorted_idx":[]},"gbtree_model_param":{"num_parallel_tree":"1","num_trees":"3000"},"iteration_indptr":[0,6,12,18,24,30,36,42,48,54,60,66,72,78,84,90,96,102,108,114,120,126,132,138,144,150,156,162,168,174,180,186,192,198,204,210,216,222,228,234,240,246,252,258,264,270,276,282,288,294,300,306,312,318,324,330,336,342,348,354,360,366,372,378,384,390,396,402,408,414,420,426,432,438,444,450,456,462,468,474,480,486,492,498,504,510,516,522,528,534,540,546,552,558,564,570,576,582,588,594,600,606,612,618,624,630,636,642,648,654,660,666,672,678,684,690,696,702,708,714,720,726,732,738,744,750,756,762,768,774,780,786,792,798,804,810,816,822,828,834,840,846,852,858,864,870,876,882,888,894,900,906,912,918,924,930,936,942,948,954,960,966,972,978,984,990,996,1002,1008,1014,1020,1026,1032,1038,1044,1050,1056,1062,1068,1074,1080,1086,1092,1098,1104,1110,1116,1122,1128,1134,1140,1146,1152,1158,1164,1170,1176,1182,1188,1194,1200,1206,1212,1218,1224,1230,1236,1242,1248,1254,1260,1266,1272,1278,1284,1290,1296,1302,1308,1314,1320,1326,1332,1338,1344,1350,1356,1362,1368,1374,1380,1386,1392,1398,1404,1410,1416,1422,1428,1434,1440,1446,1452,1458,1464,1470,1476,1482,1488,1494,1500,1506,1512,1518,1524,1530,1536,1542,1548,1554,1560,1566,1572,1578,1584,1590,1596,1602,1608,1614,1620,1626,1632,1638,1644,1650,1656,1662,1668,1674,1680,1686,1692,1698,1704,1710,1716,1722,1728,1734,1740,1746,1752,1758,1764,1770,1776,1782,1788,1794,1800,1806,1812,1818,1824,1830,1836,1842,1848,1854,1860,1866,1872,1878,1884,1890,1896,1902,1908,1914,1920,1926,1932,1938,1944,1950,1956,1962,1968,1974,1980,1986,1992,1998,2004,2010,2016,2022,2028,2034,2040,2046,2052,2058,2064,2070,2076,2082,2088,2094,2100,2106,2112,2118,2124,2130,2136,2142,2148,2154,2160,2166,2172,2178,2184,2190,2196,2202,2208,2214,2220,2226,2232,2238,2244,2250,2256,2262,2268,2274,2280,2286,2292,2298,2304,2310,2316,2322,2328,2334,2340,2346,2352,2358,2364,2370,2376,2382,2388,2394,2400,2406,2412,2418,2424,2430,2436,2442,2448,2454,2460,2466,2472,2478,2484,2490,2496,2502,2508,2514,2520,2526,2532,2538,2544,2550,2556,2562,2568,2574,2580,2586,2592,2598,2604,2610,2616,2622,2628,2634,2640,2646,2652,2658,2664,2670,2676,2682,2688,2694,2700,2706,2712,2718,2724,2730,2736,2742,2748,2754,2760,2766,2772,2778,2784,2790,2796,2802,2808,2814,2820,2826,2832,2838,2844,2850,2856,2862,2868,2874,2880,2886,2892,2898,2904,2910,2916,2922,2928,2934,2940,2946,2952,2958,2964,2970,2976,2982,2988,2994,3000],"tree_info":[0,1,2,3,4,5,0,1,2,3,4,5,0,1,2,3,4,5,0,1,2,3,4,5,0,1,2,3,4,5,0,1,2,3,4,5,0,1,2,3,4,5,0,1,2,3,4,5,0,1,2,3,4,5,0,1,2,3,4,5,0,1,2,3,4,5,0,1,2,3,4,5,0,1,2,3,4,5,0,1,2,3,4,5,0,1,2,3,4,5,0,1,2,3,4,5,0,1,2,3,4,5,0,1,2,3,4,5,0,1,2,3,4,5,0,1,2,3,4,5,0,1,2,3,4,5,0,1,2,3,4,5,0,1,2,3,4,5,0,1,2,3,4,5,0,1,2,3,4,5,0,1,2,3,4,5,0,1,2,3,4,5,0,1,2,3,4,5,0,1,2,3,4,5,0,1,2,3,4,5,0,1,2,3,4,5,0,1,2,3,4,5,0,1,2,3,4,5,0,1,2,3,4,5,0,1,2,3,4,5,0,1,2,3,4,5,0,1,2,3,4,5,0,1,2,3,4,5,0,1,2,3,4,5,0,1,2,3,4,5,0,1,2,3,4,5,0,1,2,3,4,5,0,1,2,3,4,5,0,1,2,3,4,5,0,1,2,3,4,5,0,1,2,3,4,5,0,1,2,3,4,5,0,1,2,3,4,5,0,1,2,3,4,5,0,1,2,3,4,5,0,1,2,3,4,5,0,1,2,3,4,5,0,1,2,3,4,5,0,1,2,3,4,5,0,1,2,3,4,5,0,1,2,3,4,5,0,1,2,3,4,5,0,1,2,3,4,5,0,1,2,3,4,5,0,1,2,3,4,5,0,1,2,3,4,5,0,1,2,3,4,5,0,1,2,3,4,5,0,1,2,3,4,5,0,1,2,3,4,5,0,1,2,3,4,5,0,1,2,3,4,5,0,1,2,3,4,5,0,1,2,3,4,5,0,1,2,3,4,5,0,1,2,3,4,5,0,1,2,3,4,5,0,1,2,3,4,5,0,1,2,3,4,5,0,1,2,3,4,5,0,1,2,3,4,5,0,1,2,3,4,5,0,1,2,3,4,5,0,1,2,3,4,5,0,1,2,3,4,5,0,1,2,3,4,5,0,1,2,3,4,5,0,1,2,3,4,5,0,1,2,3,4,5,0,1,2,3,4,5,0,1,2,3,4,5,0,1,2,3,4,5,0,1,2,3,4,5,0,1,2,3,4,5,0,1,2,3,4,5,0,1,2,3,4,5,0,1,2,3,4,5,0,1,2,3,4,5,0,1,2,3,4,5,0,1,2,3,4,5,0,1,2,3,4,5,0,1,2,3,4,5,0,1,2,3,4,5,0,1,2,3,4,5,0,1,2,3,4,5,0,1,2,3,4,5,0,1,2,3,4,5,0,1,2,3,4,5,0,1,2,3,4,5,0,1,2,3,4,5,0,1,2,3,4,5,0,1,2,3,4,5,0,1,2,3,4,5,0,1,2,3,4,5,0,1,2,3,4,5,0,1,2,3,4,5,0,1,2,3,4,5,0,1,2,3,4,5,0,1,2,3,4,5,0,1,2,3,4,5,0,1,2,3,4,5,0,1,2,3,4,5,0,1,2,3,4,5,0,1,2,3,4,5,0,1,2,3,4,5,0,1,2,3,4,5,0,1,2,3,4,5,0,1,2,3,4,5,0,1,2,3,4,5,0,1,2,3,4,5,0,1,2,3,4,5,0,1,2,3,4,5,0,1,2,3,4,5,0,1,2,3,4,5,0,1,2,3,4,5,0,1,2,3,4,5,0,1,2,3,4,5,0,1,2,3,4,5,0,1,2,3,4,5,0,1,2,3,4,5,0,1,2,3,4,5,0,1,2,3,4,5,0,1,2,3,4,5,0,1,2,3,4,5,0,1,2,3,4,5,0,1,2,3,4,5,0,1,2,3,4,5,0,1,2,3,4,5,0,1,2,3,4,5,0,1,2,3,4,5,0,1,2,3,4,5,0,1,2,3,4,5,0,1,2,3,4,5,0,1,2,3,4,5,0,1,2,3,4,5,0,1,2,3,4,5,0,1,2,3,4,5,0,1,2,3,4,5,0,1,2,3,4,5,0,1,2,3,4,5,0,1,2,3,4,5,0,1,2,3,4,5,0,1,2,3,4,5,0,1,2,3,4,5,0,1,2,3,4,5,0,1,2,3,4,5,0,1,2,3,4,5,0,1,2,3,4,5,0,1,2,3,4,5,0,1,2,3,4,5,0,1,2,3,4,5,0,1,2,3,4,5,0,1,2,3,4,5,0,1,2,3,4,5,0,1,2,3,4,5,0,1,2,3,4,5,0,1,2,3,4,5,0,1,2,3,4,5,0,1,2,3,4,5,0,1,2,3,4,5,0,1,2,3,4,5,0,1,2,3,4,5,0,1,2,3,4,5,0,1,2,3,4,5,0,1,2,3,4,5,0,1,2,3,4,5,0,1,2,3,4,5,0,1,2,3,4,5,0,1,2,3,4,5,0,1,2,3,4,5,0,1,2,3,4,5,0,1,2,3,4,5,0,1,2,3,4,5,0,1,2,3,4,5,0,1,2,3,4,5,0,1,2,3,4,5,0,1,2,3,4,5,0,1,2,3,4,5,0,1,2,3,4,5,0,1,2,3,4,5,0,1,2,3,4,5,0,1,2,3,4,5,0,1,2,3,4,5,0,1,2,3,4,5,0,1,2,3,4,5,0,1,2,3,4,5,0,1,2,3,4,5,0,1,2,3,4,5,0,1,2,3,4,5,0,1,2,3,4,5,0,1,2,3,4,5,0,1,2,3,4,5,0,1,2,3,4,5,0,1,2,3,4,5,0,1,2,3,4,5,0,1,2,3,4,5,0,1,2,3,4,5,0,1,2,3,4,5,0,1,2,3,4,5,0,1,2,3,4,5,0,1,2,3,4,5,0,1,2,3,4,5,0,1,2,3,4,5,0,1,2,3,4,5,0,1,2,3,4,5,0,1,2,3,4,5,0,1,2,3,4,5,0,1,2,3,4,5,0,1,2,3,4,5,0,1,2,3,4,5,0,1,2,3,4,5,0,1,2,3,4,5,0,1,2,3,4,5,0,1,2,3,4,5,0,1,2,3,4,5,0,1,2,3,4,5,0,1,2,3,4,5,0,1,2,3,4,5,0,1,2,3,4,5,0,1,2,3,4,5,0,1,2,3,4,5,0,1,2,3,4,5,0,1,2,3,4,5,0,1,2,3,4,5,0,1,2,3,4,5,0,1,2,3,4,5,0,1,2,3,4,5,0,1,2,3,4,5,0,1,2,3,4,5,0,1,2,3,4,5,0,1,2,3,4,5,0,1,2,3,4,5,0,1,2,3,4,5,0,1,2,3,4,5,0,1,2,3,4,5,0,1,2,3,4,5,0,1,2,3,4,5,0,1,2,3,4,5,0,1,2,3,4,5,0,1,2,3,4,5,0,1,2,3,4,5,0,1,2,3,4,5,0,1,2,3,4,5,0,1,2,3,4,5,0,1,2,3,4,5,0,1,2,3,4,5,0,1,2,3,4,5,0,1,2,3,4,5,0,1,2,3,4,5,0,1,2,3,4,5,0,1,2,3,4,5,0,1,2,3,4,5,0,1,2,3,4,5,0,1,2,3,4,5,0,1,2,3,4,5,0,1,2,3,4,5,0,1,2,3,4,5,0,1,2,3,4,5,0,1,2,3,4,5,0,1,2,3,4,5,0,1,2,3,4,5,0,1,2,3,4,5,0,1,2,3,4,5,0,1,2,3,4,5,0,1,2,3,4,5,0,1,2,3,4,5,0,1,2,3,4,5,0,1,2,3,4,5,0,1,2,3,4,5,0,1,2,3,4,5,0,1,2,3,4,5,0,1,2,3,4,5,0,1,2,3,4,5,0,1,2,3,4,5,0,1,2,3,4,5,0,1,2,3,4,5,0,1,2,3,4,5,0,1,2,3,4,5,0,1,2,3,4,5,0,1,2,3,4,5,0,1,2,3,4,5,0,1,2,3,4,5,0,1,2,3,4,5,0,1,2,3,4,5,0,1,2,3,4,5,0,1,2,3,4,5,0,1,2,3,4,5,0,1,2,3,4,5,0,1,2,3,4,5,0,1,2,3,4,5,0,1,2,3,4,5,0,1,2,3,4,5,0,1,2,3,4,5,0,1,2,3,4,5,0,1,2,3,4,5,0,1,2,3,4,5,0,1,2,3,4,5,0,1,2,3,4,5,0,1,2,3,4,5,0,1,2,3,4,5,0,1,2,3,4,5,0,1,2,3,4,5,0,1,2,3,4,5,0,1,2,3,4,5,0,1,2,3,4,5,0,1,2,3,4,5,0,1,2,3,4,5,0,1,2,3,4,5,0,1,2,3,4,5,0,1,2,3,4,5,0,1,2,3,4,5,0,1,2,3,4,5,0,1,2,3,4,5,0,1,2,3,4,5,0,1,2,3,4,5,0,1,2,3,4,5,0,1,2,3,4,5,0,1,2,3,4,5,0,1,2,3,4,5,0,1,2,3,4,5,0,1,2,3,4,5,0,1,2,3,4,5,0,1,2,3,4,5,0,1,2,3,4,5,0,1,2,3,4,5,0,1,2,3,4,5,0,1,2,3,4,5,0,1,2,3,4,5,0,1,2,3,4,5,0,1,2,3,4,5,0,1,2,3,4,5,0,1,2,3,4,5,0,1,2,3,4,5,0,1,2,3,4,5,0,1,2,3,4,5,0,1,2,3,4,5,0,1,2,3,4,5,0,1,2,3,4,5,0,1,2,3,4,5,0,1,2,3,4,5,0,1,2,3,4,5,0,1,2,3,4,5,0,1,2,3,4,5,0,1,2,3,4,5,0,1,2,3,4,5,0,1,2,3,4,5,0,1,2,3,4,5,0,1,2,3,4,5,0,1,2,3,4,5,0,1,2,3,4,5,0,1,2,3,4,5,0,1,2,3,4,5,0,1,2,3,4,5,0,1,2,3,4,5,0,1,2,3,4,5,0,1,2,3,4,5,0,1,2,3,4,5,0,1,2,3,4,5,0,1,2,3,4,5,0,1,2,3,4,5,0,1,2,3,4,5,0,1,2,3,4,5,0,1,2,3,4,5,0,1,2,3,4,5,0,1,2,3,4,5,0,1,2,3,4,5,0,1,2,3,4,5,0,1,2,3,4,5,0,1,2,3,4,5,0,1,2,3,4,5,0,1,2,3,4,5,0,1,2,3,4,5,0,1,2,3,4,5,0,1,2,3,4,5,0,1,2,3,4,5,0,1,2,3,4,5,0,1,2,3,4,5,0,1,2,3,4,5,0,1,2,3,4,5,0,1,2,3,4,5,0,1,2,3,4,5,0,1,2,3,4,5,0,1,2,3,4,5,0,1,2,3,4,5,0,1,2,3,4,5,0,1,2,3,4,5,0,1,2,3,4,5,0,1,2,3,4,5,0,1,2,3,4,5,0,1,2,3,4,5,0,1,2,3,4,5,0,1,2,3,4,5,0,1,2,3,4,5,0,1,2,3,4,5,0,1,2,3,4,5,0,1,2,3,4,5,0,1,2,3,4,5,0,1,2,3,4,5,0,1,2,3,4,5,0,1,2,3,4,5,0,1,2,3,4,5,0,1,2,3,4,5,0,1,2,3,4,5,0,1,2,3,4,5,0,1,2,3,4,5,0,1,2,3,4,5,0,1,2,3,4,5,0,1,2,3,4,5,0,1,2,3,4,5,0,1,2,3,4,5,0,1,2,3,4,5,0,1,2,3,4,5,0,1,2,3,4,5,0,1,2,3,4,5,0,1,2,3,4,5,0,1,2,3,4,5,0,1,2,3,4,5,0,1,2,3,4,5,0,1,2,3,4,5,0,1,2,3,4,5,0,1,2,3,4,5,0,1,2,3,4,5,0,1,2,3,4,5,0,1,2,3,4,5,0,1,2,3,4,5,0,1,2,3,4,5,0,1,2,3,4,5,0,1,2,3,4,5,0,1,2,3,4,5,0,1,2,3,4,5,0,1,2,3,4,5,0,1,2,3,4,5,0,1,2,3,4,5,0,1,2,3,4,5,0,1,2,3,4,5,0,1,2,3,4,5,0,1,2,3,4,5,0,1,2,3,4,5,0,1,2,3,4,5,0,1,2,3,4,5,0,1,2,3,4,5,0,1,2,3,4,5,0,1,2,3,4,5,0,1,2,3,4,5,0,1,2,3,4,5,0,1,2,3,4,5,0,1,2,3,4,5,0,1,2,3,4,5,0,1,2,3,4,5,0,1,2,3,4,5,0,1,2,3,4,5,0,1,2,3,4,5,0,1,2,3,4,5,0,1,2,3,4,5,0,1,2,3,4,5,0,1,2,3,4,5,0,1,2,3,4,5,0,1,2,3,4,5,0,1,2,3,4,5,0,1,2,3,4,5,0,1,2,3,4,5,0,1,2,3,4,5,0,1,2,3,4,5,0,1,2,3,4,5,0,1,2,3,4,5,0,1,2,3,4,5,0,1,2,3,4,5,0,1,2,3,4,5,0,1,2,3,4,5,0,1,2,3,4,5,0,1,2,3,4,5,0,1,2,3,4,5,0,1,2,3,4,5,0,1,2,3,4,5,0,1,2,3,4,5,0,1,2,3,4,5,0,1,2,3,4,5,0,1,2,3,4,5,0,1,2,3,4,5,0,1,2,3,4,5,0,1,2,3,4,5,0,1,2,3,4,5,0,1,2,3,4,5,0,1,2,3,4,5,0,1,2,3,4,5],"trees":[{"base_weights":[1.1566436E-3,-5.3424364E-1,2.0748646E0,-5.695208E-1,5.893497E-1,2.7146144E0,-1.89276E-1,-5.7478374E-1,1.154474E0,2.6940424E0,-5.449217E-1,8.884799E-2,2.8875935E0,-5.774289E-1,2.150301E0,-1.1366258E-1,-5.8338946E-1,2.3160587E-1,-4.4631395E-2,2.875725E-1,-3.4264814E-2,-5.871615E-2,6.8482794E-2,2.4377728E-1,-5.754909E-2,-5.170491E-2,2.937109E0,6.84716E-2,-5.9480753E-2,-4.669511E-2,2.7567586E-1,-4.726515E-1,1.6805465E0,-5.91421E-1,-9.532753E-2,-4.112128E-2,2.9547453E0,-5.8306586E-2,1.5301825E-1,2.4560411E-1,-3.9133366E-2,2.9440103E-2,-5.9325397E-2,1.5401861E-1,-5.1384557E-2,2.966104E-1,-3.4910332E-2],"categories":[],"categories_nodes":[],"categories_segments":[],"categories_sizes":[],"default_left":[0,0,0,0,0,0,0,0,0,0,0,0,0,0,0,0,0,0,0,0,0,0,0,0,0,0,0,0,0,0,0,0,0,0,0,0,0,0,0,0,0,0,0,0,0,0,0],"id":0,"left_children":[1,3,5,7,9,11,13,15,17,19,21,23,25,27,29,31,33,-1,-1,-1,-1,-1,-1,-1,-1,-1,35,-1,-1,-1,-1,37,39,41,43,-1,45,-1,-1,-1,-1,-1,-1,-1,-1,-1,-1],"loss_changes":[3.2931572E3,9.37782E1,8.8214355E2,2.1406982E1,1.7396051E2,2.1532178E2,1.2386127E2,8.980957E0,1.4589839E1,1.50383E1,2.8841658E0,4.878961E1,7.658276E1,2.9648361E0,3.2120987E1,2.8497997E1,8.715942E0,0E0,0E0,0E0,0E0,0E0,0E0,0E0,0E0,0E0,2.714038E1,0E0,0E0,0E0,0E0,8.990595E0,1.283572E1,3.7491455E0,2.6407001E1,0E0,1.74292E1,0E0,0E0,0E0,0E0,0E0,0E0,0E0,0E0,0E0,0E0],"parents":[2147483647,0,0,1,1,2,2,3,3,4,4,5,5,6,6,7,7,8,8,9,9,10,10,11,11,12,12,13,13,14,14,15,15,16,16,26,26,31,31,32,32,33,33,34,34,36,36],"right_children":[2,4,6,8,10,12,14,16,18,20,22,24,26,28,30,32,34,-1,-1,-1,-1,-1,-1,-1,-1,-1,36,-1,-1,-1,-1,38,40,42,44,-1,46,-1,-1,-1,-1,-1,-1,-1,-1,-1,-1],"split_conditions":[2.0072023E1,2.3010609E1,-1.707943E0,2.4613861E1,-8.080454E-1,1.3221483E1,3.1394157E0,6.0105114E0,5.9255857E0,-9.70483E-2,1.3949E1,-2.2266357E0,1.616082E0,5.3909674E0,3.7516575E0,1.9186884E1,5.938902E0,2.3160587E-1,-4.4631395E-2,2.875725E-1,-3.4264814E-2,-5.871615E-2,6.8482794E-2,2.4377728E-1,-5.754909E-2,-5.170491E-2,-1.6356727E0,6.84716E-2,-5.9480753E-2,-4.669511E-2,2.7567586E-1,3.70682E5,8.196142E0,1.7062224E0,-4.696024E0,-4.112128E-2,2.9349718E0,-5.8306586E-2,1.5301825E-1,2.4560411E-1,-3.9133366E-2,2.9440103E-2,-5.9325397E-2,1.5401861E-1,-5.1384557E-2,2.966104E-1,-3.4910332E-2],"split_indices":[556,1230,2216,321,1514,131,1627,1036,183,2616,19,2303,2254,261,2204,556,1665,0,0,0,0,0,0,0,0,0,1495,0,0,0,0,4126,833,738,2217,0,1788,0,0,0,0,0,0,0,0,0,0],"split_type":[0,0,0,0,0,0,0,0,0,0,0,0,0,0,0,0,0,0,0,0,0,0,0,0,0,0,0,0,0,0,0,0,0,0,0,0,0,0,0,0,0,0,0,0,0,0,0],"sum_hessian":[2.964105E3,2.3564478E3,6.076571E2,2.2851934E3,7.125443E1,4.7363034E2,1.3402675E2,2.278903E3,6.290405E0,2.4471432E1,4.6783E1,2.9366707E1,4.4426364E2,1.156009E2,1.8425842E1,4.2011383E1,2.2368916E3,3.3863404E0,2.9040644E0,2.3139992E1,1.3314387E0,4.5734627E1,1.0483711E0,5.8859806E0,2.3480726E1,6.2331967E0,4.3803043E2,1.0485495E0,1.1455235E2,3.509621E0,1.4916222E1,3.562086E1,6.3905244E0,2.200469E3,3.6422768E1,2.1781821E0,4.3585226E2,3.443156E1,1.1893001E0,4.5151205E0,1.875404E0,4.214226E0,2.1962546E3,6.8752193E0,2.954755E1,4.3446085E2,1.391423E0],"tree_param":{"num_deleted":"0","num_feature":"4192","num_nodes":"47","size_leaf_vector":"1"}},{"base_weights":[-9.92536E-3,2.2900724E0,-3.824365E-1,2.693221E0,1.15929335E-1,-4.5879033E-1,2.0452743E0,1.6564316E0,2.8337622E0,2.3147101E0,-4.1312402E-1,-5.1633E-1,1.3422745E0,-2.0554638E-1,2.72169E0,2.516442E0,3.6210206E-1,2.096811E0,2.931086E0,2.6284376E-1,-9.284096E-3,-5.1860356E-1,1.8610589E-1,2.5831718E0,-5.3337204E-1,-4.4424003E-1,2.4353452E0,-5.527786E-2,1.9569214E-1,2.836335E0,1.1118776E-1,2.7568824E0,7.350789E-1,-2.1534961E-1,2.1051311E-1,2.333402E0,-2.3026335E-1,2.9404862E0,3.129847E-2,9.386202E-2,-5.673781E-1,2.3281759E-2,2.7587977E-1,1.4897685E0,-5.507116E-1,1.6045682E-1,-5.7950772E-2,2.6600919E0,4.3013313E-1,2.878804E0,3.8863756E-2,-3.592034E-2,6.142041E-2,3.8863756E-2,2.863251E-1,1.7132361E-1,-2.0796647E-2,8.634107E-2,-4.6919543E-2,-3.1944502E-2,2.4914716E-1,2.3281759E-2,-4.3053742E-2,8.686923E-2,2.949861E-1,-5.881794E-2,2.3281759E-2,2.612241E-1,1.8770682E-2,1.7018403E-1,-5.6215614E-2,7.7550276E-3,2.770875E-1,1.7767426E-1,-3.762459E-2,3.8863756E-2,2.9230183E-1],"categories":[],"categories_nodes":[],"categories_segments":[],"categories_sizes":[],"default_left":[0,0,0,0,0,0,0,0,0,0,0,0,0,0,0,0,0,0,0,0,0,0,0,0,0,0,0,0,0,0,0,0,0,0,0,0,0,0,0,0,0,0,0,0,0,0,0,0,0,0,0,0,0,0,0,0,0,0,0,0,0,0,0,0,0,0,0,0,0,0,0,0,0,0,0,0,0],"id":1,"left_children":[1,3,5,7,9,11,13,15,17,19,21,23,25,27,29,31,33,35,37,-1,-1,39,-1,41,43,45,47,-1,-1,49,51,53,55,57,-1,59,61,63,-1,-1,65,-1,-1,67,69,-1,-1,71,73,75,-1,-1,-1,-1,-1,-1,-1,-1,-1,-1,-1,-1,-1,-1,-1,-1,-1,-1,-1,-1,-1,-1,-1,-1,-1,-1,-1],"loss_changes":[2.5748936E3,3.6685767E2,4.8036786E2,4.679077E1,7.83967E1,2.6064124E2,1.2090906E2,4.871807E1,1.6070068E1,1.0110458E1,1.4040638E1,1.298103E2,1.5326834E2,1.5495524E1,1.7896515E1,9.374542E0,1.95433E1,2.2365738E1,5.7512207E0,0E0,0E0,4.2906294E0,0E0,4.916565E0,8.567804E1,9.362754E0,2.0715027E1,0E0,0E0,4.9364624E0,1.0726254E0,4.703644E0,4.5342083E0,4.554807E0,0E0,1.5924759E1,5.2398753E-1,2.682129E0,0E0,0E0,9.989128E-1,0E0,0E0,2.99469E1,6.2805115E1,0E0,0E0,1.2208557E1,7.2721605E0,5.15094E0,0E0,0E0,0E0,0E0,0E0,0E0,0E0,0E0,0E0,0E0,0E0,0E0,0E0,0E0,0E0,0E0,0E0,0E0,0E0,0E0,0E0,0E0,0E0,0E0,0E0,0E0,0E0],"parents":[2147483647,0,0,1,1,2,2,3,3,4,4,5,5,6,6,7,7,8,8,9,9,10,10,11,11,12,12,13,13,14,14,15,15,16,16,17,17,18,18,21,21,23,23,24,24,25,25,26,26,29,29,30,30,31,31,32,32,33,33,35,35,36,36,37,37,40,40,43,43,44,44,47,47,48,48,49,49],"right_children":[2,4,6,8,10,12,14,16,18,20,22,24,26,28,30,32,34,36,38,-1,-1,40,-1,42,44,46,48,-1,-1,50,52,54,56,58,-1,60,62,64,-1,-1,66,-1,-1,68,70,-1,-1,72,74,76,-1,-1,-1,-1,-1,-1,-1,-1,-1,-1,-1,-1,-1,-1,-1,-1,-1,-1,-1,-1,-1,-1,-1,-1,-1,-1,-1],"split_conditions":[1.1541799E1,2.5240872E0,1.6873711E0,-1.0041301E0,2.6471E1,2.1011195E0,-5.363294E0,2.8571E1,1.5428571E-2,5.060478E0,-5.1383835E-1,6.7536306E0,-4.8804965E0,9.411041E0,1.9856985E1,2.6477923E0,-6.029407E-2,4.701578E0,5.288572E-1,2.6284376E-1,-9.284096E-3,9.780935E0,1.8610589E-1,6.508823E0,-1.6939641E0,3.6062174E0,3.895461E0,-5.527786E-2,1.9569214E-1,1.342E0,4.347826E-2,1.6520052E0,5.203E0,9.217133E0,2.1051311E-1,2.623E1,1.2533145E1,-6.7677865E0,3.129847E-2,9.386202E-2,1.0108188E1,2.3281759E-2,2.7587977E-1,2.1429E1,8.047289E0,1.6045682E-1,-5.7950772E-2,-7.6539264E0,1.3209071E0,-3.32E-1,3.8863756E-2,-3.592034E-2,6.142041E-2,3.8863756E-2,2.863251E-1,1.7132361E-1,-2.0796647E-2,8.634107E-2,-4.6919543E-2,-3.1944502E-2,2.4914716E-1,2.3281759E-2,-4.3053742E-2,8.686923E-2,2.949861E-1,-5.881794E-2,2.3281759E-2,2.612241E-1,1.8770682E-2,1.7018403E-1,-5.6215614E-2,7.7550276E-3,2.770875E-1,1.7767426E-1,-3.762459E-2,3.8863756E-2,2.9230183E-1],"split_indices":[679,2124,2194,2526,3899,2609,1537,3899,4034,1627,2575,369,1801,128,321,1789,1889,2488,4087,0,0,487,0,220,1587,2561,2424,0,0,2736,62,880,24,122,0,3996,123,1963,0,0,601,0,0,3899,1299,0,0,2023,2311,3155,0,0,0,0,0,0,0,0,0,0,0,0,0,0,0,0,0,0,0,0,0,0,0,0,0,0,0],"split_type":[0,0,0,0,0,0,0,0,0,0,0,0,0,0,0,0,0,0,0,0,0,0,0,0,0,0,0,0,0,0,0,0,0,0,0,0,0,0,0,0,0,0,0,0,0,0,0,0,0,0,0,0,0,0,0,0,0,0,0,0,0,0,0,0,0,0,0,0,0,0,0,0,0,0,0,0,0],"sum_hessian":[3.0033108E3,4.179029E2,2.585408E3,3.523317E2,6.55712E1,2.50736E3,7.804786E1,4.3585056E1,3.0874664E2,1.2062685E1,5.350851E1,2.430427E3,7.6932976E1,1.8195889E1,5.985197E1,2.5618664E1,1.7966393E1,3.864735E1,2.7009927E2,1.0590848E1,1.4718373E0,5.187447E1,1.634044E0,1.2466794E1,2.4179602E3,2.9428549E1,4.750443E1,1.6319763E1,1.8761246E0,5.7251167E1,2.6007998E0,2.2089499E1,3.5291653E0,1.4153802E1,3.8125908E0,3.5078266E1,3.5690823E0,2.6901028E2,1.0890057E0,1.0891842E0,5.0785286E1,1.0284855E0,1.1438309E1,1.9825623E1,2.3981348E3,1.1498828E0,2.8278666E1,4.242302E1,5.081412E0,5.6101643E1,1.1495259E0,1.4917264E0,1.1090734E0,1.1495259E0,2.0939972E1,1.3314433E0,2.197722E0,2.23871E0,1.1915092E1,1.915189E0,3.316308E1,1.0284855E0,2.5405967E0,1.633687E0,2.673766E2,4.9756798E1,1.0284855E0,1.0106687E1,9.718937E0,1.1376003E1,2.3867588E3,1.8148905E0,4.0608128E1,1.4524837E0,3.6289284E0,1.1495259E0,5.4952118E1],"tree_param":{"num_deleted":"0","num_feature":"4192","num_nodes":"77","size_leaf_vector":"1"}},{"base_weights":[2.7412364E-2,-5.9975363E-2,2.8874595E0,-5.637924E-2,2.9921237E-1],"categories":[],"categories_nodes":[],"categories_segments":[],"categories_sizes":[],"default_left":[0,0,0,0,0],"id":2,"left_children":[1,-1,3,-1,-1],"loss_changes":[5.330003E3,0E0,1.9472754E2,0E0,0E0],"parents":[2147483647,0,0,2,2],"right_children":[2,-1,4,-1,-1],"split_conditions":[2.2135912E1,-5.9975363E-2,5.8628707E0,-5.637924E-2,2.9921237E-1],"split_indices":[1334,0,1739,0,0],"split_type":[0,0,0,0,0],"sum_hessian":[2.9695068E3,2.4360972E3,5.334097E2,1.5571171E1,5.1783856E2],"tree_param":{"num_deleted":"0","num_feature":"4192","num_nodes":"5","size_leaf_vector":"1"}},{"base_weights":[4.6106535E-3,2.131693E0,-3.3535188E-1,5.628789E-2,2.6758769E0,4.6396872E-1,-5.2455807E-1,-2.4459489E-1,2.2445617E0,-2.6515636E-1,2.8364334E0,-3.0125996E-1,1.7589201E0,-5.37787E-1,2.361051E0,-4.5367008E-1,1.2296972E0,2.6226807E-1,-3.2855608E-2,1.0453386E0,-5.5962086E-2,-5.2101832E-2,2.9131556E0,-3.853073E-1,1.2384881E0,2.9781303E-1,2.2867053E0,-5.510713E-1,1.7824279E0,2.6367489E-1,2.6262289E-2,8.4599084E-1,-5.487294E-1,-2.1509E-1,2.2772267E-1,1.7191435E-1,-3.0426463E-2,-4.1816875E-2,2.9407144E0,-4.7739732E-1,2.0250554E-1,2.3053439E0,-3.3921087E-1,-1.6214834E-1,2.2050848E0,-5.192839E-2,2.4352355E0,-5.568098E-1,1.631969E0,-4.486944E-2,2.58497E-1,1.8296842E-1,-3.9981063E-2,-5.901701E-2,6.2003125E-2,-4.471211E-2,3.398255E-2,-3.1283088E-2,2.95392E-1,-5.4363977E-2,-4.338909E-4,-3.5068728E-2,1.481894E-1,2.544576E-1,2.8690813E-2,-5.044919E-2,3.398255E-2,1.1851257E-1,-4.6511423E-2,1.9714123E-2,2.524265E-1,2.718012E-1,1.0957058E-1,2.2441057E-2,-5.712394E-2,2.2563231E-1,-3.2855608E-2],"categories":[],"categories_nodes":[],"categories_segments":[],"categories_sizes":[],"default_left":[0,0,0,0,0,0,0,0,0,0,0,0,0,0,0,0,0,0,0,0,0,0,0,0,0,0,0,0,0,0,0,0,0,0,0,0,0,0,0,0,0,0,0,0,0,0,0,0,0,0,0,0,0,0,0,0,0,0,0,0,0,0,0,0,0,0,0,0,0,0,0,0,0,0,0,0,0],"id":3,"left_children":[1,3,5,7,9,11,13,15,17,19,21,23,25,27,29,31,33,-1,-1,35,-1,-1,37,39,41,43,45,47,49,-1,-1,51,53,55,-1,-1,-1,-1,57,59,61,63,65,67,69,-1,71,73,75,-1,-1,-1,-1,-1,-1,-1,-1,-1,-1,-1,-1,-1,-1,-1,-1,-1,-1,-1,-1,-1,-1,-1,-1,-1,-1,-1,-1],"loss_changes":[2.1095269E3,4.5386633E2,3.806388E2,5.6205406E1,1.5113257E2,4.7811304E2,7.892572E1,2.3741951E1,1.0898739E1,7.299632E0,7.932764E1,3.9791313E1,1.3747961E2,6.3422546E1,4.785671E0,8.69276E0,1.5035993E1,0E0,0E0,3.7432659E0,0E0,0E0,2.8355957E1,1.5731506E1,2.764795E1,4.3074707E1,5.605713E1,2.6151917E1,2.2232727E1,0E0,0E0,6.776741E0,3.401329E0,7.897226E-1,0E0,0E0,0E0,0E0,1.3520264E1,7.831978E0,2.8704283E1,3.9299736E0,9.919476E-1,1.6945063E1,5.6099434E0,0E0,4.4383606E1,2.2792114E1,7.5194416E0,0E0,0E0,0E0,0E0,0E0,0E0,0E0,0E0,0E0,0E0,0E0,0E0,0E0,0E0,0E0,0E0,0E0,0E0,0E0,0E0,0E0,0E0,0E0,0E0,0E0,0E0,0E0,0E0],"parents":[2147483647,0,0,1,1,2,2,3,3,4,4,5,5,6,6,7,7,8,8,9,9,10,10,11,11,12,12,13,13,14,14,15,15,16,16,19,19,22,22,23,23,24,24,25,25,26,26,27,27,28,28,31,31,32,32,33,33,38,38,39,39,40,40,41,41,42,42,43,43,44,44,46,46,47,47,48,48],"right_children":[2,4,6,8,10,12,14,16,18,20,22,24,26,28,30,32,34,-1,-1,36,-1,-1,38,40,42,44,46,48,50,-1,-1,52,54,56,-1,-1,-1,-1,58,60,62,64,66,68,70,-1,72,74,76,-1,-1,-1,-1,-1,-1,-1,-1,-1,-1,-1,-1,-1,-1,-1,-1,-1,-1,-1,-1,-1,-1,-1,-1,-1,-1,-1,-1],"split_conditions":[-7.680694E-1,3.3366764E-1,1.245182E1,2.0865036E1,5.231454E-1,1.2808844E1,6.941085E0,3.3117857E0,1.3626493E1,-1.2881804E0,1.0044876E1,1.9741917E1,-1.6287951E0,5.5394855E0,1.435102E1,-1.8785714E-1,3.9411726E0,2.6226807E-1,-3.2855608E-2,8.856812E0,-5.5962086E-2,-5.2101832E-2,8.312441E0,3.6781678E0,9.728365E0,1.7978413E1,8.9938545E0,3.0662289E1,1.0613931E1,2.6367489E-1,2.6262289E-2,-5.0289664E0,6.717752E0,1.45E0,2.2772267E-1,1.7191435E-1,-3.0426463E-2,-4.1816875E-2,8.784889E0,4.3148427E0,2.3667235E0,1.0928529E1,1.71E0,9.770199E0,-1.5703744E-1,-5.192839E-2,-4.0879515E-1,3.7124734E0,1.02648325E1,-4.486944E-2,2.58497E-1,1.8296842E-1,-3.9981063E-2,-5.901701E-2,6.2003125E-2,-4.471211E-2,3.398255E-2,-3.1283088E-2,2.95392E-1,-5.4363977E-2,-4.338909E-4,-3.5068728E-2,1.481894E-1,2.544576E-1,2.8690813E-2,-5.044919E-2,3.398255E-2,1.1851257E-1,-4.6511423E-2,1.9714123E-2,2.524265E-1,2.718012E-1,1.0957058E-1,2.2441057E-2,-5.712394E-2,2.2563231E-1,-3.2855608E-2],"split_indices":[1803,2488,706,679,1431,141,1980,2579,731,2599,679,173,2309,2488,272,4041,2191,0,0,530,0,0,938,1558,468,978,624,482,292,0,0,2643,2676,0,0,0,0,0,1018,1741,2647,216,20,966,1521,0,2173,1395,261,0,0,0,0,0,0,0,0,0,0,0,0,0,0,0,0,0,0,0,0,0,0,0,0,0,0,0,0],"split_type":[0,0,0,0,0,0,0,0,0,0,0,0,0,0,0,0,0,0,0,0,0,0,0,0,0,0,0,0,0,0,0,0,0,0,0,0,0,0,0,0,0,0,0,0,0,0,0,0,0,0,0,0,0,0,0,0,0,0,0,0,0,0,0,0,0,0,0,0,0,0,0,0,0,0,0,0,0],"sum_hessian":[2.9152349E3,4.0099756E2,2.5142373E3,8.353101E1,3.1746655E2,4.8095255E2,2.0332848E3,7.421486E1,9.316154E0,1.6400208E1,3.0106635E2,3.0279092E2,1.781616E2,2.0248158E3,8.469052E0,6.560363E1,8.611231E0,8.105754E0,1.2104001E0,2.5411263E0,1.3859082E1,6.596681E0,2.9446967E2,2.878295E2,1.496145E1,4.7693207E1,1.304684E2,2.014047E3,1.0768812E1,7.2588305E0,1.2102216E0,3.932908E0,6.1670723E1,3.9533327E0,4.6578984E0,1.5122862E0,1.0288402E0,2.2997603E0,2.921699E2,2.4900658E2,3.882291E1,8.650612E0,6.310837E0,3.9163456E1,8.529751E0,6.4334435E0,1.2403495E2,2.0095095E3,4.537394E0,2.9654803E0,7.8033323E0,1.9357476E0,1.9971603E0,6.003704E1,1.6336832E0,2.924671E0,1.0286616E0,1.0893601E0,2.9108054E2,2.1829018E2,3.0716402E1,2.761039E1,1.1212521E1,7.5009108E0,1.1497016E0,5.282175E0,1.0286616E0,6.6554155E0,3.250804E1,1.3917817E0,7.137969E0,1.0156529E2,2.246966E1,3.617992E1,1.9733297E3,3.3269937E0,1.2104001E0],"tree_param":{"num_deleted":"0","num_feature":"4192","num_nodes":"77","size_leaf_vector":"1"}},{"base_weights":[2.0513909E-2,2.507747E0,-4.6500272E-1,-5.9032906E-2,2.9606004E0,-5.129162E-1,1.8576343E0,2.989119E-1,-4.6138663E-2,1.0562161E0,-5.479745E-1,2.8838652E-1,-5.6178994E-2,-5.7706952E-2,2.5533183E0,-5.5888957E-1,1.7782778E0,-4.2857774E-2,2.864425E-1,-5.842114E-1,6.622462E-3,2.6370707E-1,-4.4942867E-2,-5.8807887E-2,2.1233201E-1,-5.919835E-2,1.620672E-1],"categories":[],"categories_nodes":[],"categories_segments":[],"categories_sizes":[],"default_left":[0,0,0,0,0,0,0,0,0,0,0,0,0,0,0,0,0,0,0,0,0,0,0,0,0,0,0],"id":4,"left_children":[1,3,5,-1,7,9,11,-1,-1,13,15,-1,-1,-1,17,19,21,-1,-1,23,25,-1,-1,-1,-1,-1,-1],"loss_changes":[3.548754E3,6.751113E2,2.7457965E2,0E0,4.2260254E1,1.3314838E2,1.2554883E2,0E0,0E0,1.3108678E2,6.0862427E1,0E0,0E0,0E0,2.7055374E1,3.3621155E1,2.270948E1,0E0,0E0,2.4777893E1,9.9125336E1,0E0,0E0,0E0,0E0,0E0,0E0],"parents":[2147483647,0,0,1,1,2,2,4,4,5,5,6,6,9,9,10,10,14,14,15,15,16,16,19,19,20,20],"right_children":[2,4,6,-1,8,10,12,-1,-1,14,16,-1,-1,-1,18,20,22,-1,-1,24,26,-1,-1,-1,-1,-1,-1],"split_conditions":[-5.055941E0,1.981464E1,2.02388E1,-5.9032906E-2,-2.4140205E0,3.6938398E0,-2.006828E0,2.989119E-1,-4.6138663E-2,1.844011E1,2.768248E1,2.8838652E-1,-5.6178994E-2,-5.7706952E-2,1.043E0,1.7977682E1,4.7452493E0,-4.2857774E-2,2.864425E-1,3.413148E1,1.45E0,2.6370707E-1,-4.4942867E-2,-5.8807887E-2,2.1233201E-1,-5.919835E-2,1.620672E-1],"split_indices":[1712,1061,940,0,2173,323,2141,0,0,679,182,0,0,0,2887,592,121,0,0,930,3772,0,0,0,0,0,0],"split_type":[0,0,0,0,0,0,0,0,0,0,0,0,0,0,0,0,0,0,0,0,0,0,0,0,0,0,0],"sum_hessian":[2.9367346E3,4.7895428E2,2.4577803E3,6.1042778E1,4.179115E2,2.4088672E3,4.8913143E1,4.1458292E2,3.3285913E0,5.2007343E1,2.3568599E3,3.4210392E1,1.4702752E1,2.516632E1,2.6841022E1,2.346609E3,1.0250781E1,2.5001316E0,2.434089E1,2.2460068E3,1.0060214E2,7.2659554E0,2.984826E0,2.243585E3,2.4219851E0,7.384743E1,2.6754719E1],"tree_param":{"num_deleted":"0","num_feature":"4192","num_nodes":"27","size_leaf_vector":"1"}},{"base_weights":[7.6164275E-2,-5.562505E-1,2.2757409E0,-5.9974927E-2,2.8595105E-1,-5.950601E-2,2.8766325E0,2.9793496E0,-5.6580104E-2,-4.2246554E-2,2.9946253E-1],"categories":[],"categories_nodes":[],"categories_segments":[],"categories_sizes":[],"default_left":[0,0,0,0,0,0,0,0,0,0,0],"id":5,"left_children":[1,3,5,-1,-1,-1,7,9,-1,-1,-1],"loss_changes":[4.3416846E3,3.6191687E2,1.2040374E3,0E0,0E0,0E0,2.0554102E2,3.0364258E1,0E0,0E0,0E0],"parents":[2147483647,0,0,1,1,2,2,6,6,7,7],"right_children":[2,4,6,-1,-1,-1,8,10,-1,-1,-1],"split_conditions":[4.250656E0,1.533E0,1.1834721E1,-5.9974927E-2,2.8595105E-1,-5.950601E-2,5.28782E5,1.8521772E1,-5.6580104E-2,-4.2246554E-2,2.9946253E-1],"split_indices":[2193,2769,252,0,0,0,4091,182,0,0,0],"split_type":[0,0,0,0,0,0,0,0,0,0,0],"sum_hessian":[3.1192578E3,2.4232737E3,6.9598425E2,2.393616E3,2.965761E1,1.20464836E2,5.755194E2,5.58975E2,1.6544472E1,2.379628E0,5.5659534E2],"tree_param":{"num_deleted":"0","num_feature":"4192","num_nodes":"11","size_leaf_vector":"1"}},{"base_weights":[2.4438195E-2,-5.202118E-1,1.66567E0,-5.608798E-1,5.3057873E-1,2.1036308E0,-4.1305807E-1,3.886504E-1,-5.7042944E-1,-5.336446E-1,1.7386853E0,-3.4617227E-1,2.1789215E0,1.3135713E0,-5.8813788E-2,1.9616383E0,-4.1765037E-1,-5.7430005E-1,1.2267866E0,-5.7927307E-2,6.966541E-2,-5.0454248E-2,2.1440923E0,1.3333626E-1,-5.605587E-2,-5.0325066E-2,2.2062652E0,-4.4738863E-2,1.9442506E-1,2.43403E-1,-3.1699475E-2,7.05417E-2,-5.507384E-2,5.9322536E-2,-5.7911134E-1,-2.981104E-2,1.7161863E-1,-3.1632636E-2,2.242893E-1,-4.613802E-2,2.223418E0,1.38341E-1,-5.4341495E-2,-5.810771E-2,7.4633926E-2,-3.873733E-2,2.2323623E-1],"categories":[],"categories_nodes":[],"categories_segments":[],"categories_sizes":[],"default_left":[0,0,0,0,0,0,0,0,0,0,0,0,0,0,0,0,0,0,0,0,0,0,0,0,0,0,0,0,0,0,0,0,0,0,0,0,0,0,0,0,0,0,0,0,0,0,0],"id":6,"left_children":[1,3,5,7,9,11,13,15,17,19,21,23,25,27,-1,29,31,33,35,-1,-1,-1,37,-1,-1,-1,39,-1,-1,-1,-1,-1,-1,41,43,-1,-1,-1,-1,-1,45,-1,-1,-1,-1,-1,-1],"loss_changes":[2.5607036E3,9.221344E1,6.5068933E2,1.9003235E1,1.04628395E2,1.0952734E2,3.8574493E1,2.7730677E1,1.4971985E1,2.8537664E0,3.5648705E1,7.3895197E0,4.3081787E1,1.3999134E1,0E0,8.70051E0,2.6084323E0,6.275635E0,4.0389915E0,0E0,0E0,0E0,8.581375E0,0E0,0E0,0E0,2.6956055E1,0E0,0E0,0E0,0E0,0E0,0E0,1.3788928E1,5.7280884E0,0E0,0E0,0E0,0E0,0E0,1.4017334E1,0E0,0E0,0E0,0E0,0E0,0E0],"parents":[2147483647,0,0,1,1,2,2,3,3,4,4,5,5,6,6,7,7,8,8,9,9,10,10,11,11,12,12,13,13,15,15,16,16,17,17,18,18,22,22,26,26,33,33,34,34,40,40],"right_children":[2,4,6,8,10,12,14,16,18,20,22,24,26,28,-1,30,32,34,36,-1,-1,-1,38,-1,-1,-1,40,-1,-1,-1,-1,-1,-1,42,44,-1,-1,-1,-1,-1,46,-1,-1,-1,-1,-1,-1],"split_conditions":[2.0072023E1,1.7579977E1,-4.0240396E-2,-5.296341E0,1.610825E0,4.0008616E-1,5.011124E0,-8.6229146E-1,8.840391E0,1.177E0,-1.4487652E0,1.1119838E0,-2.5158317E0,1.5106182E1,-5.8813788E-2,5.8837175E0,-5.8700867E0,5.2632E1,1.547386E1,-5.7927307E-2,6.966541E-2,-5.0454248E-2,2.6999554E-1,1.3333626E-1,-5.605587E-2,-5.0325066E-2,9.426357E0,-4.4738863E-2,1.9442506E-1,2.43403E-1,-3.1699475E-2,7.05417E-2,-5.507384E-2,6.7955933E0,2.8190674E1,-2.981104E-2,1.7161863E-1,-3.1632636E-2,2.242893E-1,-4.613802E-2,1.174185E1,1.38341E-1,-5.4341495E-2,-5.810771E-2,7.4633926E-2,-3.873733E-2,2.2323623E-1],"split_indices":[556,704,2172,1761,2124,2124,976,2098,1946,2752,1444,936,1814,314,0,786,2281,4018,131,0,0,0,1894,0,0,0,267,0,0,0,0,0,0,518,1109,0,0,0,0,0,834,0,0,0,0,0,0],"split_type":[0,0,0,0,0,0,0,0,0,0,0,0,0,0,0,0,0,0,0,0,0,0,0,0,0,0,0,0,0,0,0,0,0,0,0,0,0,0,0,0,0,0,0,0,0,0,0],"sum_hessian":[2.8626824E3,2.1499087E3,7.127736E2,2.0702515E3,7.965718E1,5.8872504E2,1.24048615E2,2.0218456E1,2.050033E3,4.2647343E1,3.7009842E1,1.7446701E1,5.712783E2,1.0821796E1,1.1322682E2,6.366112E0,1.38523445E1,2.0463065E3,3.7265897E0,4.1632465E1,1.0148741E0,5.6273966E0,3.1382446E1,1.3840908E0,1.606261E1,5.589581E0,5.656887E2,2.9303637E0,7.891433E0,5.21647E0,1.1496427E0,1.0120181E0,1.2840326E1,1.533572E1,2.0309708E3,1.0003893E0,2.7262003E0,1.1265459E0,3.0255901E1,3.4486187E0,5.622401E2,4.3920655E0,1.0943655E1,2.0285238E3,2.446904E0,1.7751615E0,5.6046497E2],"tree_param":{"num_deleted":"0","num_feature":"4192","num_nodes":"47","size_leaf_vector":"1"}},{"base_weights":[1.4921914E-2,1.775058E0,-3.773418E-1,2.0834136E0,6.407964E-2,-4.5183152E-1,1.6673608E0,2.1365464E0,9.858872E-1,1.7900845E0,-4.4795302E-1,1.2907205E0,-5.0596905E-1,2.179293E0,-3.0001394E-2,2.1496933E0,-5.7025984E-2,-1.4705074E-1,1.8867102E0,-1.4568649E-1,2.0532885E0,1.3346416E-1,-5.304131E-1,1.9594342E0,-3.114627E-1,1.3338417E0,-5.3086776E-1,2.2150505E0,2.2556365E-2,1.7916417E-1,-4.8809138E-1,1.2513326E0,2.1894295E0,-3.4469035E-2,2.9289082E-2,1.3128173E-1,-4.6830058E-1,-1.545655E-2,2.1324126E-1,9.093163E-3,-3.1226004E-2,-8.5524016E-4,2.1946275E-1,7.528945E-2,-5.649242E-1,2.281626E0,3.3128294E-1,-4.8740172E-1,1.3601446E-1,2.0162792E0,1.5423648E-1,-5.4846823E-1,1.2355744E0,5.1025122E-2,2.2476926E-1,-5.599897E-2,2.8419783E-2,1.9313078E-1,2.1192087E-2,2.1995854E-1,3.77837E-2,-5.2615326E-2,1.6461083E-3,2.2411956E-2,-5.8252778E-2,2.3593083E-1,5.7112407E-2,1.6996899E-1,-2.7676463E-2,-5.6056738E-2,2.4149224E-2,2.2597754E-1,2.1204222E-2,-2.829752E-2,1.6822182E-1,7.585078E-2,-5.6119215E-2,2.1555476E-1,-4.4447426E-3],"categories":[],"categories_nodes":[],"categories_segments":[],"categories_sizes":[],"default_left":[0,0,0,0,0,0,0,0,0,0,0,0,0,0,0,0,0,0,0,0,0,0,0,0,0,0,0,0,0,0,0,0,0,0,0,0,0,0,0,0,0,0,0,0,0,0,0,0,0,0,0,0,0,0,0,0,0,0,0,0,0,0,0,0,0,0,0,0,0,0,0,0,0,0,0,0,0,0,0],"id":7,"left_children":[1,3,5,7,9,11,13,15,17,19,21,23,25,27,29,31,33,35,37,39,41,-1,43,45,47,49,51,53,-1,-1,55,57,59,-1,-1,-1,61,-1,-1,-1,-1,-1,-1,-1,63,65,67,69,-1,71,73,75,77,-1,-1,-1,-1,-1,-1,-1,-1,-1,-1,-1,-1,-1,-1,-1,-1,-1,-1,-1,-1,-1,-1,-1,-1,-1,-1],"loss_changes":[1.9999124E3,2.7837402E2,3.6153305E2,2.3974487E1,7.295368E1,2.1633264E2,7.259898E1,1.2400391E1,2.3249388E1,9.917767E0,1.0080522E1,7.4719864E1,1.02316345E2,3.9815674E0,1.7838436E1,1.2368408E1,4.543231E-1,5.725584E0,6.6546936E0,1.5425947E-1,4.881111E0,0E0,3.1560974E0,2.4916443E1,6.9071736E0,2.376028E1,6.8739746E1,2.3522034E0,0E0,0E0,1.104753E0,1.3910736E1,6.601074E0,0E0,0E0,0E0,2.7983046E-1,0E0,0E0,0E0,0E0,0E0,0E0,0E0,9.7250175E-1,4.058548E0,8.170656E0,1.1990895E0,0E0,7.806526E0,8.520615E0,3.6483948E1,2.5890564E1,0E0,0E0,0E0,0E0,0E0,0E0,0E0,0E0,0E0,0E0,0E0,0E0,0E0,0E0,0E0,0E0,0E0,0E0,0E0,0E0,0E0,0E0,0E0,0E0,0E0,0E0],"parents":[2147483647,0,0,1,1,2,2,3,3,4,4,5,5,6,6,7,7,8,8,9,9,10,10,11,11,12,12,13,13,14,14,15,15,16,16,17,17,18,18,19,19,20,20,22,22,23,23,24,24,25,25,26,26,27,27,30,30,31,31,32,32,36,36,44,44,45,45,46,46,47,47,49,49,50,50,51,51,52,52],"right_children":[2,4,6,8,10,12,14,16,18,20,22,24,26,28,30,32,34,36,38,40,42,-1,44,46,48,50,52,54,-1,-1,56,58,60,-1,-1,-1,62,-1,-1,-1,-1,-1,-1,-1,64,66,68,70,-1,72,74,76,78,-1,-1,-1,-1,-1,-1,-1,-1,-1,-1,-1,-1,-1,-1,-1,-1,-1,-1,-1,-1,-1,-1,-1,-1,-1,-1],"split_conditions":[1.1915248E1,2.5240872E0,1.6873711E0,4.9513884E0,2.6471E1,-2.1024032E0,3.235499E0,9.73889E0,-1.9260904E0,-2.84E-1,1.1510781E0,2.0904055E1,8.247371E0,6.205034E0,8.89211E-1,5.0553675E0,8.175714E-1,1.3965771E1,3.4375E1,1.45E0,-7.7138186E0,1.3346416E-1,9.816349E0,1.4137342E0,8.9546555E-1,2.4288006E0,2.2876382E0,-2.9E-1,2.2556365E-2,1.7916417E-1,3.512988E-1,5.669912E-1,2.2229479E1,-3.4469035E-2,2.9289082E-2,1.3128173E-1,2.8798268E0,-1.545655E-2,2.1324126E-1,9.093163E-3,-3.1226004E-2,-8.5524016E-4,2.1946275E-1,7.528945E-2,7.669974E-1,3.1949327E0,3.0324144E0,-3.5557142E-1,1.3601446E-1,3.4051E-2,9.234716E0,-1.6939641E0,1.423765E1,5.1025122E-2,2.2476926E-1,-5.599897E-2,2.8419783E-2,1.9313078E-1,2.1192087E-2,2.1995854E-1,3.77837E-2,-5.2615326E-2,1.6461083E-3,2.2411956E-2,-5.8252778E-2,2.3593083E-1,5.7112407E-2,1.6996899E-1,-2.7676463E-2,-5.6056738E-2,2.4149224E-2,2.2597754E-1,2.1204222E-2,-2.829752E-2,1.6822182E-1,7.585078E-2,-5.6119215E-2,2.1555476E-1,-4.4447426E-3],"split_indices":[679,2124,2194,2561,3899,2255,1601,2488,2148,3238,2254,495,1096,2647,2380,1246,63,924,4017,4,1862,0,131,1940,2075,2414,2128,3231,0,0,2119,1935,1203,0,0,0,2386,0,0,0,0,0,0,0,2527,2170,1505,4054,0,3687,571,1587,1195,0,0,0,0,0,0,0,0,0,0,0,0,0,0,0,0,0,0,0,0,0,0,0,0,0,0],"split_type":[0,0,0,0,0,0,0,0,0,0,0,0,0,0,0,0,0,0,0,0,0,0,0,0,0,0,0,0,0,0,0,0,0,0,0,0,0,0,0,0,0,0,0,0,0,0,0,0,0,0,0,0,0,0,0,0,0,0,0,0,0,0,0,0,0,0,0,0,0,0,0,0,0,0,0,0,0,0,0],"sum_hessian":[2.894617E3,5.268865E2,2.3677305E3,4.4624564E2,8.064085E1,2.2852563E3,8.24742E1,4.2473685E2,2.1508795E1,1.7878473E1,6.276237E1,6.817066E1,2.2170857E3,6.3145348E1,1.9328856E1,4.222263E2,2.5105445E0,9.897618E0,1.16111765E1,2.1933863E0,1.5685088E1,2.103535E0,6.0658836E1,4.7939053E1,2.0231611E1,2.8901936E1,2.1881836E3,6.1879066E1,1.2662805E0,3.298984E0,1.6029871E1,1.9261106E1,4.0296518E2,1.3860323E0,1.1245121E0,1.2284648E0,8.669153E0,1.2873024E0,1.0323874E1,1.0937777E0,1.0996087E0,1.0665052E0,1.4618583E1,1.0434061E0,5.9615433E1,3.968458E1,8.25447E0,1.8945948E1,1.2856641E0,1.7860064E1,1.1041872E1,2.1672788E3,2.090478E1,1.4750131E0,6.0404053E1,1.4916112E1,1.1137583E0,1.1125085E1,8.136022E0,4.0050577E2,2.4594264E0,7.6685796E0,1.0005738E0,1.0449758E0,5.8570454E1,3.7597775E1,2.086808E0,1.9871281E0,6.267342E0,1.7427525E1,1.5184233E0,1.5513861E1,2.3462021E0,9.218831E0,1.8230414E0,2.0330812E1,2.146948E3,1.1765047E1,9.139732E0],"tree_param":{"num_deleted":"0","num_feature":"4192","num_nodes":"79","size_leaf_vector":"1"}},{"base_weights":[3.832915E-2,-5.9209574E-2,2.1839936E0,2.2435422E-1,-5.5495273E-2],"categories":[],"categories_nodes":[],"categories_segments":[],"categories_sizes":[],"default_left":[0,0,0,0,0],"id":8,"left_children":[1,-1,3,-1,-1],"loss_changes":[4.0026582E3,0E0,1.1084424E2,0E0,0E0],"parents":[2147483647,0,0,2,2],"right_children":[2,-1,4,-1,-1],"split_conditions":[2.2135912E1,-5.9209574E-2,-2.6823704E0,2.2435422E-1,-5.5495273E-2],"split_indices":[1334,0,2546,0,0],"split_type":[0,0,0,0,0],"sum_hessian":[2.957101E3,2.2861296E3,6.7097144E2,6.56871E2,1.41004715E1],"tree_param":{"num_deleted":"0","num_feature":"4192","num_nodes":"5","size_leaf_vector":"1"}},{"base_weights":[-1.4362466E-2,1.7317102E0,-3.3586514E-1,-1.5435489E-1,2.0222542E0,4.527578E-1,-4.971677E-1,1.0798025E0,-4.1170338E-1,-1.2769658E-2,2.1546028E0,-3.7358943E-1,1.5361421E0,8.8759923E-1,-5.2787405E-1,-4.5925014E-2,1.8230234E-1,8.772507E-1,-5.0463897E-1,-3.8719863E-1,1.6602302E-1,1.740604E-1,2.1975644E0,-5.0133884E-1,6.1365676E-1,2.8225547E-1,1.9189582E0,1.8204249E0,-3.742193E-1,9.73508E-1,-5.376513E-1,-3.2061305E-2,1.5042E-1,-5.5542684E-1,8.258618E-2,1.0991073E-1,-5.642835E-2,-5.0599653E-2,1.2257824E0,-4.1088324E-2,2.2143204E0,5.326691E-1,-5.3549963E-1,-1.6363382E-1,1.5537064E0,1.5963604E0,-1.3835955E-1,-1.7515911E-1,2.0717604E0,-4.5742124E-2,2.1686964E0,-5.6395162E-2,1.0958822E-1,2.0291975E0,-5.050688E-2,-2.5684761E-3,-5.542832E-1,3.4919664E-2,-5.8182657E-2,1.5122986E-1,2.8365377E-2,-3.4012925E-2,2.2242704E-1,1.4586274E-1,-4.5853067E-2,-5.535453E-2,7.416688E-2,1.07860856E-1,-5.502677E-2,1.9744119E-1,-4.0382065E-2,2.0631802E-1,-3.9570644E-2,-4.119479E-2,1.3562761E-1,1.2690821E-1,-5.3371668E-2,2.1619972E-2,2.2084463E-1,2.2779892E-1,2.1343388E-2,2.2187786E-1,3.4580525E-2,1.4567511E-1,-2.8906211E-2,-5.5812337E-2,9.2260055E-2],"categories":[],"categories_nodes":[],"categories_segments":[],"categories_sizes":[],"default_left":[0,0,0,0,0,0,0,0,0,0,0,0,0,0,0,0,0,0,0,0,0,0,0,0,0,0,0,0,0,0,0,0,0,0,0,0,0,0,0,0,0,0,0,0,0,0,0,0,0,0,0,0,0,0,0,0,0,0,0,0,0,0,0,0,0,0,0,0,0,0,0,0,0,0,0,0,0,0,0,0,0,0,0,0,0,0,0],"id":9,"left_children":[1,3,5,7,9,11,13,15,17,19,21,23,25,27,29,-1,-1,31,33,35,-1,37,39,41,43,45,47,49,51,53,55,-1,-1,57,-1,-1,-1,-1,59,-1,61,63,65,67,69,71,73,75,77,-1,79,-1,-1,81,-1,83,85,-1,-1,-1,-1,-1,-1,-1,-1,-1,-1,-1,-1,-1,-1,-1,-1,-1,-1,-1,-1,-1,-1,-1,-1,-1,-1,-1,-1,-1,-1],"loss_changes":[1.6725267E3,2.5418652E2,3.202851E2,2.038113E1,1.0816931E2,3.835302E2,8.930768E1,1.354168E1,6.7513227E0,1.662429E1,3.1695557E1,3.1014542E1,8.839929E1,5.4468838E1,3.0536926E1,0E0,0E0,3.4164085E0,3.8209639E0,6.3205423E0,0E0,7.1219115E0,1.703418E1,7.919445E0,2.0965933E1,2.482349E1,4.5730286E1,2.1970253E1,6.267024E0,2.2229073E1,1.8082397E1,0E0,0E0,1.3620491E0,0E0,0E0,0E0,0E0,6.134882E-1,0E0,1.0077148E1,7.4727874E0,5.243904E0,8.48021E0,1.1441387E1,1.0926916E1,1.4722979E1,6.1477222E0,3.3056274E1,0E0,4.452568E0,0E0,0E0,1.8257179E0,0E0,2.645168E1,1.1691895E1,0E0,0E0,0E0,0E0,0E0,0E0,0E0,0E0,0E0,0E0,0E0,0E0,0E0,0E0,0E0,0E0,0E0,0E0,0E0,0E0,0E0,0E0,0E0,0E0,0E0,0E0,0E0,0E0,0E0,0E0],"parents":[2147483647,0,0,1,1,2,2,3,3,4,4,5,5,6,6,7,7,8,8,9,9,10,10,11,11,12,12,13,13,14,14,17,17,18,18,19,19,21,21,22,22,23,23,24,24,25,25,26,26,27,27,28,28,29,29,30,30,33,33,38,38,40,40,41,41,42,42,43,43,44,44,45,45,46,46,47,47,48,48,50,50,53,53,55,55,56,56],"right_children":[2,4,6,8,10,12,14,16,18,20,22,24,26,28,30,-1,-1,32,34,36,-1,38,40,42,44,46,48,50,52,54,56,-1,-1,58,-1,-1,-1,-1,60,-1,62,64,66,68,70,72,74,76,78,-1,80,-1,-1,82,-1,84,86,-1,-1,-1,-1,-1,-1,-1,-1,-1,-1,-1,-1,-1,-1,-1,-1,-1,-1,-1,-1,-1,-1,-1,-1,-1,-1,-1,-1,-1,-1],"split_conditions":[-9.1530436E-1,1.2682741E1,7.07905E0,-2.6040828E0,5.231454E-1,1.2631794E1,-2.5451353E0,1.4369666E1,-3.8011332E0,3.1589217E0,9.221721E-1,4.2844105E0,-1.6656895E0,4.8137447E-1,-4.386912E0,-4.5925014E-2,1.8230234E-1,2.1837194E-1,1.383E0,1.6557E1,1.6602302E-1,6.55658E5,7.8120565E0,-4.611125E0,1.4712745E0,7.1018434E0,1.068241E0,-2.1571429E-1,5.5060425E0,7.1401186E0,-6.5056413E-1,-3.2061305E-2,1.5042E-1,-5.9323583E0,8.258618E-2,1.0991073E-1,-5.642835E-2,-5.0599653E-2,7.3672853E0,-4.1088324E-2,-5.0432587E0,-6.2099344E-1,3.4846E-2,8.56E-1,1.0926139E1,1.9861242E0,2.4709534E1,-5.204495E0,8.69414E0,-4.5742124E-2,-9.754748E-1,-5.6395162E-2,1.0958822E-1,-1.2408253E0,-5.050688E-2,1.9394E1,4.3881145E0,3.4919664E-2,-5.8182657E-2,1.5122986E-1,2.8365377E-2,-3.4012925E-2,2.2242704E-1,1.4586274E-1,-4.5853067E-2,-5.535453E-2,7.416688E-2,1.07860856E-1,-5.502677E-2,1.9744119E-1,-4.0382065E-2,2.0631802E-1,-3.9570644E-2,-4.119479E-2,1.3562761E-1,1.2690821E-1,-5.3371668E-2,2.1619972E-2,2.2084463E-1,2.2779892E-1,2.1343388E-2,2.2187786E-1,3.4580525E-2,1.4567511E-1,-2.8906211E-2,-5.5812337E-2,9.2260055E-2],"split_indices":[1803,679,1395,1979,1431,141,2208,1208,1937,2579,1428,1428,1820,2599,2599,0,0,2579,2783,4173,0,4091,748,2160,1587,1374,1970,2723,2414,2387,2388,0,0,2325,0,0,0,0,309,0,1555,1485,3740,2893,1306,2574,1117,1728,886,0,2427,0,0,1805,0,4144,2517,0,0,0,0,0,0,0,0,0,0,0,0,0,0,0,0,0,0,0,0,0,0,0,0,0,0,0,0,0,0],"split_type":[0,0,0,0,0,0,0,0,0,0,0,0,0,0,0,0,0,0,0,0,0,0,0,0,0,0,0,0,0,0,0,0,0,0,0,0,0,0,0,0,0,0,0,0,0,0,0,0,0,0,0,0,0,0,0,0,0,0,0,0,0,0,0,0,0,0,0,0,0,0,0,0,0,0,0,0,0,0,0,0,0,0,0,0,0,0,0],"sum_hessian":[2.977346E3,4.622876E2,2.5150583E3,6.177089E1,4.0051672E2,4.267639E2,2.0882944E3,1.0106692E1,5.1664196E1,2.4512373E1,3.7600433E2,2.4247339E2,1.842905E2,4.4696693E1,2.0435977E3,3.415662E0,6.6910305E0,2.906981E0,4.8757214E1,2.0657616E1,3.8547575E0,8.09031E0,3.6791403E2,2.1512807E2,2.7345325E1,4.3510918E1,1.4077957E2,2.5443993E1,1.9252703E1,1.2584437E1,2.0310132E3,1.1666214E0,1.7403595E0,4.752561E1,1.2316049E0,1.6449105E0,1.9012705E1,5.228429E0,2.8618815E0,2.1981618E0,3.6571585E2,6.4132614E0,2.087148E2,1.5420578E1,1.1924748E1,9.872255E0,3.363866E1,9.563792E0,1.3121579E2,3.3327777E0,2.2111216E1,1.7597893E1,1.6548107E0,7.124917E0,5.4595203E0,6.1261364E1,1.9697518E3,1.0009043E0,4.6524708E1,1.7304354E0,1.131446E0,1.290226E0,3.6442563E2,3.071941E0,3.3413208E0,2.0636557E2,2.3492386E0,3.2354472E0,1.2185131E1,9.80818E0,2.1165686E0,7.9690866E0,1.9031693E0,2.9046223E1,4.5924373E0,1.3970752E0,8.166717E0,9.179695E0,1.2203609E2,2.0784382E1,1.3268335E0,6.1178885E0,1.0070283E0,9.382868E0,5.1878494E1,1.9652639E3,4.487921E0],"tree_param":{"num_deleted":"0","num_feature":"4192","num_nodes":"87","size_leaf_vector":"1"}},{"base_weights":[8.077276E-3,1.9400584E0,-4.6718943E-1,-5.8245312E-2,2.226037E0,-5.0575143E-1,1.3784689E0,-4.425051E-2,2.2418289E-1,8.0988854E-1,-5.4941875E-1,2.1627624E-1,-5.5395782E-2,-5.767213E-2,2.0271606E0,-5.570864E-1,1.3022765E0,-4.543945E-2,2.2635846E-1,-5.685622E-1,5.9103894E-1,-4.500057E-2,2.2532313E-1,-5.7634998E-2,1.0499431E-1,2.2737698E-1,-5.546396E-2],"categories":[],"categories_nodes":[],"categories_segments":[],"categories_sizes":[],"default_left":[0,0,0,0,0,0,0,0,0,0,0,0,0,0,0,0,0,0,0,0,0,0,0,0,0,0,0],"id":10,"left_children":[1,3,5,-1,7,9,11,-1,-1,13,15,-1,-1,-1,17,19,21,-1,-1,23,25,-1,-1,-1,-1,-1,-1],"loss_changes":[2.6755366E3,4.1630127E2,1.6714038E2,0E0,2.2776123E1,1.3209082E2,7.414272E1,0E0,0E0,1.26100784E2,3.2223328E1,0E0,0E0,0E0,2.4283371E1,2.9454224E1,1.6757692E1,0E0,0E0,2.8191956E1,4.4370594E1,0E0,0E0,0E0,0E0,0E0,0E0],"parents":[2147483647,0,0,1,1,2,2,4,4,5,5,6,6,9,9,10,10,14,14,15,15,16,16,19,19,20,20],"right_children":[2,4,6,-1,8,10,12,-1,-1,14,16,-1,-1,-1,18,20,22,-1,-1,24,26,-1,-1,-1,-1,-1,-1],"split_conditions":[-5.055941E0,1.981464E1,2.02388E1,-5.8245312E-2,1.2591679E0,5.3864975E0,-1.653321E0,-4.425051E-2,2.2418289E-1,1.0201232E0,1.34E0,2.1627624E-1,-5.5395782E-2,-5.767213E-2,1.191418E1,5.557732E0,2.1557772E1,-4.543945E-2,2.2635846E-1,3.87E-1,-3.3534513E0,-4.500057E-2,2.2532313E-1,-5.7634998E-2,1.0499431E-1,2.2737698E-1,-5.546396E-2],"split_indices":[1712,1061,940,0,2187,557,2373,0,0,2636,2916,0,0,0,258,1442,203,0,0,3133,2141,0,0,0,0,0,0],"split_type":[0,0,0,0,0,0,0,0,0,0,0,0,0,0,0,0,0,0,0,0,0,0,0,0,0,0,0],"sum_hessian":[2.911886E3,5.7428973E2,2.3375962E3,5.8372326E1,5.159174E2,2.2904666E3,4.7129547E1,2.8761985E0,5.130412E2,7.301687E1,2.2174497E3,3.3438873E1,1.3690673E1,3.4380184E1,3.863668E1,2.2090017E3,8.448078E0,3.280623E0,3.5356056E1,2.1876406E3,2.136121E1,3.1572108E0,5.290867E0,2.1778054E3,9.835052E0,8.253751E0,1.3107458E1],"tree_param":{"num_deleted":"0","num_feature":"4192","num_nodes":"27","size_leaf_vector":"1"}},{"base_weights":[1.6245246E-2,1.7223136E0,-5.9199393E-2,-5.880307E-2,2.196778E0,-5.614605E-2,2.2626815E0,2.2258054E-1,2.9049492E-1],"categories":[],"categories_nodes":[],"categories_segments":[],"categories_sizes":[],"default_left":[0,0,0,0,0,0,0,0,0],"id":11,"left_children":[1,3,-1,-1,5,-1,7,-1,-1],"loss_changes":[3.0079644E3,8.363833E2,0E0,0E0,1.1619702E2,0E0,8.163818E0,0E0,0E0],"parents":[2147483647,0,0,1,1,4,4,6,6],"right_children":[2,4,-1,-1,6,-1,8,-1,-1],"split_conditions":[-4.997143E-1,1.67715E1,-5.9199393E-2,-5.880307E-2,1.654395E1,-5.614605E-2,3.982E0,2.2258054E-1,2.9049492E-1],"split_indices":[4181,1272,0,0,916,0,27,0,0],"split_type":[0,0,0,0,0,0,0,0,0],"sum_hessian":[2.896708E3,7.6082245E2,2.1358855E3,1.2958508E2,6.312374E2,1.4554922E1,6.166825E2,5.874209E2,2.9261568E1],"tree_param":{"num_deleted":"0","num_feature":"4192","num_nodes":"9","size_leaf_vector":"1"}},{"base_weights":[2.6930746E-2,-5.243961E-1,1.4003941E0,4.6452802E-1,-5.6062615E-1,1.6999296E0,-4.4441533E-1,-4.3146387E-1,1.7336411E0,4.5048946E-1,-5.685644E-1,-5.5786192E-2,1.7619119E0,1.0330439E0,-5.8087666E-2,1.4718823E-1,-5.7232704E-2,1.8650941E0,-3.6706373E-2,1.5546922E-1,-5.2207746E-2,7.791106E-1,-5.716044E-1,-5.409729E-2,1.7973863E0,1.5944074E-1,-4.3707218E-2,1.9288896E-1,4.3006063E-2,-3.6558256E-2,1.4768983E-1,-5.7471305E-1,4.5160913E-1,-1.2345992E-1,1.8105718E0,1.7176433E-2,-5.7676982E-2,-4.577362E-2,1.7741205E-1,-4.5896214E-2,6.910718E-2,-4.1580822E-2,1.8163987E-1],"categories":[],"categories_nodes":[],"categories_segments":[],"categories_sizes":[],"default_left":[0,0,0,0,0,0,0,0,0,0,0,0,0,0,0,0,0,0,0,0,0,0,0,0,0,0,0,0,0,0,0,0,0,0,0,0,0,0,0,0,0,0,0],"id":12,"left_children":[1,3,5,7,9,11,13,15,17,19,21,-1,23,25,-1,-1,-1,27,-1,-1,-1,29,31,-1,33,-1,-1,-1,-1,-1,-1,35,37,39,41,-1,-1,-1,-1,-1,-1,-1,-1],"loss_changes":[2.1384507E3,7.2461975E1,4.477433E2,8.2353714E1,1.5862976E1,9.839966E1,2.3540997E1,1.233561E1,8.940826E0,1.7676977E1,8.351074E0,0E0,5.6340576E1,8.933691E0,0E0,0E0,0E0,1.761467E0,0E0,0E0,0E0,4.3470116E0,6.38562E0,0E0,1.7134766E1,0E0,0E0,0E0,0E0,0E0,0E0,3.0477905E0,8.501047E0,1.81701E0,9.358887E0,0E0,0E0,0E0,0E0,0E0,0E0,0E0,0E0],"parents":[2147483647,0,0,1,1,2,2,3,3,4,4,5,5,6,6,7,7,8,8,9,9,10,10,12,12,13,13,17,17,21,21,22,22,24,24,31,31,32,32,33,33,34,34],"right_children":[2,4,6,8,10,12,14,16,18,20,22,-1,24,26,-1,-1,-1,28,-1,-1,-1,30,32,-1,34,-1,-1,-1,-1,-1,-1,36,38,40,42,-1,-1,-1,-1,-1,-1,-1,-1],"split_conditions":[1.9702732E1,4.450309E0,6.513097E-2,1.5011545E1,4.2950563E0,1.4927326E0,-2.3076513E0,3.4992082E0,5.925773E-1,-4.725076E0,2.120482E0,-5.5786192E-2,1.2669931E1,6.3029203E0,-5.8087666E-2,1.4718823E-1,-5.7232704E-2,1.2286756E1,-3.6706373E-2,1.5546922E-1,-5.2207746E-2,1.45E0,6.508963E0,-5.409729E-2,1.7004023E-1,1.5944074E-1,-4.3707218E-2,1.9288896E-1,4.3006063E-2,-3.6558256E-2,1.4768983E-1,-3.98E-1,1.8704449E1,1.514E-3,4.6177406E0,1.7176433E-2,-5.7676982E-2,-4.577362E-2,1.7741205E-1,-4.5896214E-2,6.910718E-2,-4.1580822E-2,1.8163987E-1],"split_indices":[556,553,2172,370,990,2254,2365,593,1804,2558,1246,0,834,1287,0,0,0,352,0,0,0,1,2622,0,2124,0,0,0,0,0,0,3193,179,3684,813,0,0,0,0,0,0,0,0],"split_type":[0,0,0,0,0,0,0,0,0,0,0,0,0,0,0,0,0,0,0,0,0,0,0,0,0,0,0,0,0,0,0,0,0,0,0,0,0,0,0,0,0,0,0],"sum_hessian":[2.822084E3,2.0141821E3,8.0790186E2,7.0765564E1,1.9434165E3,6.9511664E2,1.1278522E2,4.1867325E1,2.889824E1,1.470457E1,1.9287119E3,1.8359142E1,6.767575E2,8.980763E0,1.0380445E2,2.2338922E0,3.9633434E1,2.730196E1,1.5962794E0,6.605958E0,8.098612E0,3.766285E0,1.9249457E3,1.0050666E1,6.6670685E2,6.4379053E0,2.542858E0,2.5810396E1,1.4915646E0,1.6066775E0,2.1596074E0,1.9195521E3,5.3935175E0,4.4883256E0,6.622185E2,5.047722E0,1.9145044E3,3.5834575E0,1.8100603E0,3.488117E0,1.0002084E0,1.544956E0,6.606736E2],"tree_param":{"num_deleted":"0","num_feature":"4192","num_nodes":"43","size_leaf_vector":"1"}},{"base_weights":[1.995012E-4,1.4964454E0,-3.1969988E-1,1.7465872E0,3.660553E-1,1.2930943E0,-4.3199053E-1,4.0024814E-1,1.7676471E0,-2.7282104E-1,1.4225312E0,2.2098143E-2,1.6883194E0,-4.929109E-1,1.021839E0,1.3907462E-1,-4.7272258E-2,1.7975591E0,9.0892464E-1,1.375405E-1,-4.0944177E-1,1.7769693E0,3.5870415E-1,1.5559088E-1,-3.4856933E-1,1.8304672E0,8.5397583E-1,1.4582789E0,-5.163619E-1,1.6930739E0,-2.6506364E-1,1.8061367E0,5.5232894E-1,1.6947512E-1,2.3137216E-2,-4.8146436E-1,1.21256225E-1,-9.161417E-4,1.8508744E0,-1.6066813E-1,1.4270346E-1,1.1222146E-1,-5.0878227E-1,8.700352E-4,1.849623E0,1.7666972E-1,-6.725694E-2,-3.7184745E-2,1.6558809E0,-5.373123E-1,9.4728035E-1,1.876834E0,6.060526E-1,1.4244817E-1,-4.5894197E-1,7.9811834E-2,1.8150078E-1,1.223371E-1,-3.71091E-2,-3.9098687E-2,1.22603975E-1,6.812838E-2,-5.3408474E-2,5.333234E-2,1.883814E-1,7.503451E-2,-4.6518162E-2,4.1827556E-2,-5.5849712E-2,1.8654685E-1,2.0311346E-2,-3.5813835E-2,1.12994924E-1,-4.108652E-2,5.30939E-2,1.7669642E-1,5.409664E-3,-5.4855336E-2,1.5220796E-1,1.5947269E-1,-2.4976334E-2,1.9092983E-1,2.6599763E-2,1.3941482E-1,-1.5311497E-2,8.549478E-2,-5.5109587E-2],"categories":[],"categories_nodes":[],"categories_segments":[],"categories_sizes":[],"default_left":[0,0,0,0,0,0,0,0,0,0,0,0,0,0,0,0,0,0,0,0,0,0,0,0,0,0,0,0,0,0,0,0,0,0,0,0,0,0,0,0,0,0,0,0,0,0,0,0,0,0,0,0,0,0,0,0,0,0,0,0,0,0,0,0,0,0,0,0,0,0,0,0,0,0,0,0,0,0,0,0,0,0,0,0,0,0,0],"id":13,"left_children":[1,3,5,7,9,11,13,15,17,19,21,23,25,27,29,-1,-1,31,33,-1,35,37,39,-1,41,43,45,47,49,51,53,55,57,-1,59,61,-1,-1,63,65,-1,-1,67,-1,69,-1,71,73,75,77,79,81,83,-1,85,-1,-1,-1,-1,-1,-1,-1,-1,-1,-1,-1,-1,-1,-1,-1,-1,-1,-1,-1,-1,-1,-1,-1,-1,-1,-1,-1,-1,-1,-1,-1,-1],"loss_changes":[1.3997937E3,1.450155E2,4.3689624E2,1.1244263E1,6.423998E1,7.886957E1,2.0007083E2,7.3887444E0,9.019165E0,1.4026964E1,1.2865318E1,2.230174E1,1.264621E1,9.9740906E1,7.9010605E1,0E0,0E0,3.2720947E0,1.10862055E1,0E0,7.1240005E0,3.529358E0,5.8901405E0,0E0,8.026757E0,3.5256958E0,1.6359545E1,7.730938E0,6.6079834E1,1.082901E1,1.1149239E1,2.0977783E0,3.0412521E0,0E0,4.7273417E0,3.6874104E0,0E0,0E0,1.0443115E-1,2.5028226E0,0E0,0E0,1.580348E0,0E0,2.241394E0,0E0,4.0877433E0,1.0688407E0,3.9872513E0,4.9653625E1,2.4066269E1,2.1469727E0,6.2800007E0,0E0,4.0428834E0,0E0,0E0,0E0,0E0,0E0,0E0,0E0,0E0,0E0,0E0,0E0,0E0,0E0,0E0,0E0,0E0,0E0,0E0,0E0,0E0,0E0,0E0,0E0,0E0,0E0,0E0,0E0,0E0,0E0,0E0,0E0,0E0],"parents":[2147483647,0,0,1,1,2,2,3,3,4,4,5,5,6,6,7,7,8,8,9,9,10,10,11,11,12,12,13,13,14,14,17,17,18,18,20,20,21,21,22,22,24,24,25,25,26,26,27,27,28,28,29,29,30,30,31,31,32,32,34,34,35,35,38,38,39,39,42,42,44,44,46,46,47,47,48,48,49,49,50,50,51,51,52,52,54,54],"right_children":[2,4,6,8,10,12,14,16,18,20,22,24,26,28,30,-1,-1,32,34,-1,36,38,40,-1,42,44,46,48,50,52,54,56,58,-1,60,62,-1,-1,64,66,-1,-1,68,-1,70,-1,72,74,76,78,80,82,84,-1,86,-1,-1,-1,-1,-1,-1,-1,-1,-1,-1,-1,-1,-1,-1,-1,-1,-1,-1,-1,-1,-1,-1,-1,-1,-1,-1,-1,-1,-1,-1,-1,-1],"split_conditions":[8.350532E0,1.7176163E1,-2.0253055E0,3.8571E1,7.1099834E0,-2.9397178E0,1.856253E0,6.612999E-1,5.9453E0,2.0225936E-1,2.7274034E0,1.7343739E0,4.875585E0,8.99221E0,1.8846996E1,1.3907462E-1,-4.7272258E-2,2.4880478E1,1.0732391E1,1.375405E-1,1.6128718E0,4.510251E0,4.270046E-1,1.5559088E-1,-1.2891412E0,-4.04E-1,3.4899294E-1,-4.506124E0,-1.8095188E-1,4.1960483E0,1.0505205E0,-1.4178571E-1,1.584305E1,1.6947512E-1,-1.1803851E0,-4.7463155E0,1.21256225E-1,-9.161417E-4,-2.34E-1,2.391065E0,1.4270346E-1,1.1222146E-1,5.2078934E0,8.700352E-4,2.7143E1,1.7666972E-1,1.0709008E0,-3.2289224E0,4.5420713E0,3.0077868E0,3.8095E1,2.1358341E1,1.073601E0,1.4244817E-1,9.811688E-1,7.9811834E-2,1.8150078E-1,1.223371E-1,-3.71091E-2,-3.9098687E-2,1.22603975E-1,6.812838E-2,-5.3408474E-2,5.333234E-2,1.883814E-1,7.503451E-2,-4.6518162E-2,4.1827556E-2,-5.5849712E-2,1.8654685E-1,2.0311346E-2,-3.5813835E-2,1.12994924E-1,-4.108652E-2,5.30939E-2,1.7669642E-1,5.409664E-3,-5.4855336E-2,1.5220796E-1,1.5947269E-1,-2.4976334E-2,1.9092983E-1,2.6599763E-2,1.3941482E-1,-1.5311497E-2,8.549478E-2,-5.5109587E-2],"split_indices":[844,173,2376,3896,1147,2631,2590,1649,2191,2064,2255,2414,2060,1018,1190,0,0,624,955,0,1929,727,2263,0,1649,3157,1607,2667,2207,1428,2613,4067,329,0,2134,2401,0,0,3287,2191,0,0,664,0,3962,0,2604,2001,1481,2194,3911,1208,1688,0,1428,0,0,0,0,0,0,0,0,0,0,0,0,0,0,0,0,0,0,0,0,0,0,0,0,0,0,0,0,0,0,0,0],"split_type":[0,0,0,0,0,0,0,0,0,0,0,0,0,0,0,0,0,0,0,0,0,0,0,0,0,0,0,0,0,0,0,0,0,0,0,0,0,0,0,0,0,0,0,0,0,0,0,0,0,0,0,0,0,0,0,0,0,0,0,0,0,0,0,0,0,0,0,0,0,0,0,0,0,0,0,0,0,0,0,0,0,0,0,0,0,0,0],"sum_hessian":[2.9224736E3,5.141224E2,2.4083513E3,4.2052103E2,9.360135E1,1.560819E2,2.2522693E3,6.7847767E0,4.1373627E2,5.8790867E1,3.4810486E1,3.7272842E1,1.1880905E2,2.1623218E3,8.994763E1,2.9005775E0,3.8841994E0,3.9875317E2,1.49830675E1,3.8060784E0,5.4984787E1,2.5608183E1,9.202302E0,6.632047E0,3.0640795E1,1.0049391E2,1.8315136E1,2.4953274E1,2.1373684E3,5.8906826E1,3.1040802E1,3.9557785E2,3.1753492E0,7.455579E0,7.527488E0,5.3320347E1,1.6644417E0,1.0523027E0,2.455588E1,6.7637105E0,2.4385915E0,2.4200237E0,2.822077E1,1.0608208E0,9.94331E1,8.739062E0,9.576075E0,3.0071104E0,2.1946163E1,2.10783E3,2.953844E1,4.9767143E1,9.139681E0,2.541932E0,2.849887E1,4.2444634E0,3.9133337E2,1.6508576E0,1.5244915E0,6.101786E0,1.4257022E0,1.7912856E0,5.152906E1,1.0182385E0,2.3537642E1,1.3276627E0,5.4360476E0,1.0590286E0,2.7161741E1,9.8353584E1,1.0795108E0,8.268064E0,1.3080105E0,1.9809523E0,1.026158E0,2.0426472E1,1.519692E0,2.0971167E3,1.0713278E1,1.8954353E1,1.0584088E1,4.8602345E1,1.1648008E0,4.074012E0,5.0656686E0,1.3253416E0,2.7173529E1],"tree_param":{"num_deleted":"0","num_feature":"4192","num_nodes":"87","size_leaf_vector":"1"}},{"base_weights":[1.0510939E-2,-5.851084E-2,1.7699454E0,1.8169945E-1,-5.509032E-2],"categories":[],"categories_nodes":[],"categories_segments":[],"categories_sizes":[],"default_left":[0,0,0,0,0],"id":14,"left_children":[1,-1,3,-1,-1],"loss_changes":[3.0836887E3,0E0,8.2264404E1,0E0,0E0],"parents":[2147483647,0,0,2,2],"right_children":[2,-1,4,-1,-1],"split_conditions":[2.2135912E1,-5.851084E-2,-3.5741408E0,1.8169945E-1,-5.509032E-2],"split_indices":[1334,0,2546,0,0],"split_type":[0,0,0,0,0],"sum_hessian":[2.940594E3,2.1973835E3,7.432103E2,7.286558E2,1.4554499E1],"tree_param":{"num_deleted":"0","num_feature":"4192","num_nodes":"5","size_leaf_vector":"1"}},{"base_weights":[8.89184E-3,-3.0155537E-1,1.4541755E0,5.1760924E-1,-4.9926916E-1,-1.6856524E-1,1.7255344E0,-2.4124217E-1,1.3990515E0,-5.2237576E-1,4.467217E-1,1.2543156E0,-5.144686E-1,-3.2162255E-1,1.7781132E0,-4.1001397E-1,7.508205E-1,-6.9118487E-3,1.6300293E0,3.8014504E-1,-5.3599364E-1,1.2524664E0,-3.974268E-1,-4.222079E-2,1.6298779E0,-5.562333E-1,9.330379E-2,9.805145E-2,-5.3469796E-2,-1.2600663E-1,1.8046736E0,-5.439262E-1,1.8925704E-2,-3.463764E-1,1.303721E0,-5.682617E-2,1.0109606E0,-4.558001E-2,1.7195222E0,-4.2634848E-1,1.9054721E-1,-2.803764E-1,-5.678537E-1,-2.685409E-1,1.6453643E0,-5.6137543E-2,1.022341E-1,2.179605E-2,1.774784E-1,3.3976234E-2,-5.775545E-2,9.770227E-2,-4.91003E-2,-3.9952092E-2,1.8166183E0,-5.5936873E-2,8.892296E-2,8.524463E-2,-3.603966E-2,-5.4201793E-2,1.0031474E-1,-4.5075078E-2,1.5853368E-1,1.5789583E-1,-4.4928532E-2,1.07088916E-1,-5.2200045E-2,1.7749906E-1,6.516378E-3,-5.5705696E-2,9.505473E-2,-4.364356E-2,5.5363595E-2,-5.7173032E-2,6.647846E-2,-4.655542E-2,3.308447E-2,-3.431089E-2,1.8217464E-1,1.825153E-1,-3.516853E-2],"categories":[],"categories_nodes":[],"categories_segments":[],"categories_sizes":[],"default_left":[0,0,0,0,0,0,0,0,0,0,0,0,0,0,0,0,0,0,0,0,0,0,0,0,0,0,0,0,0,0,0,0,0,0,0,0,0,0,0,0,0,0,0,0,0,0,0,0,0,0,0,0,0,0,0,0,0,0,0,0,0,0,0,0,0,0,0,0,0,0,0,0,0,0,0,0,0,0,0,0,0],"id":15,"left_children":[1,3,5,7,9,11,13,15,17,19,21,23,25,27,29,31,33,35,37,39,41,43,45,-1,47,49,-1,-1,-1,51,53,55,57,59,61,-1,63,65,67,69,-1,71,73,75,77,-1,-1,-1,-1,-1,-1,-1,-1,-1,79,-1,-1,-1,-1,-1,-1,-1,-1,-1,-1,-1,-1,-1,-1,-1,-1,-1,-1,-1,-1,-1,-1,-1,-1,-1,-1],"loss_changes":[1.2917961E3,3.8410773E2,2.2445984E2,3.0889334E2,4.1977264E1,3.698974E1,4.752649E1,4.195508E1,6.936365E1,2.3121094E1,3.1835388E1,9.963848E0,4.153043E0,3.7900016E0,2.1744751E1,1.22579155E1,2.2604416E1,1.8361403E1,2.7584564E1,3.56286E1,1.4804077E1,1.4672966E1,5.9880266E0,0E0,2.1176949E0,1.3243618E0,0E0,0E0,0E0,3.2124994E0,1.17751465E1,4.0943985E0,1.6652084E1,3.9828773E0,1.2815399E1,0E0,1.0185614E1,6.023979E0,1.586554E1,4.008462E0,0E0,2.7001793E1,8.182068E0,8.328278E-1,7.3119125E0,0E0,0E0,0E0,0E0,0E0,0E0,0E0,0E0,0E0,8.369507E0,0E0,0E0,0E0,0E0,0E0,0E0,0E0,0E0,0E0,0E0,0E0,0E0,0E0,0E0,0E0,0E0,0E0,0E0,0E0,0E0,0E0,0E0,0E0,0E0,0E0,0E0],"parents":[2147483647,0,0,1,1,2,2,3,3,4,4,5,5,6,6,7,7,8,8,9,9,10,10,11,11,12,12,13,13,14,14,15,15,16,16,17,17,18,18,19,19,20,20,21,21,22,22,24,24,25,25,29,29,30,30,31,31,32,32,33,33,34,34,36,36,37,37,38,38,39,39,41,41,42,42,43,43,44,44,54,54],"right_children":[2,4,6,8,10,12,14,16,18,20,22,24,26,28,30,32,34,36,38,40,42,44,46,-1,48,50,-1,-1,-1,52,54,56,58,60,62,-1,64,66,68,70,-1,72,74,76,78,-1,-1,-1,-1,-1,-1,-1,-1,-1,80,-1,-1,-1,-1,-1,-1,-1,-1,-1,-1,-1,-1,-1,-1,-1,-1,-1,-1,-1,-1,-1,-1,-1,-1,-1,-1],"split_conditions":[1.7394836E1,7.07905E0,-3.0227357E-1,1.28415E1,3.018401E0,1.2752707E1,1.0940598E1,4.2844105E0,-5.3689414E-1,-4.0001554E0,1.8871428E-2,5.700594E-1,8.351498E0,3.4E1,-3.1516507E-1,1.5456338E0,2.2057114E0,1.2093309E0,-7.0203954E-1,1.4305413E1,1.3378951E1,1.01778965E1,3.3242218E0,-4.222079E-2,-5.33E-1,5.1429E1,9.330379E-2,9.805145E-2,-5.3469796E-2,7.79E-1,7.9974174E0,4E1,-6.784989E-1,1.202E0,6.9640117E0,-5.682617E-2,-1.319744E0,4.123767E0,2.0551441E1,1.178E0,1.9054721E-1,1.560765E1,5.174391E0,1.2846943E1,-1.2559476E0,-5.6137543E-2,1.022341E-1,2.179605E-2,1.774784E-1,3.3976234E-2,-5.775545E-2,9.770227E-2,-4.91003E-2,-3.9952092E-2,2.965135E0,-5.5936873E-2,8.892296E-2,8.524463E-2,-3.603966E-2,-5.4201793E-2,1.0031474E-1,-4.5075078E-2,1.5853368E-1,1.5789583E-1,-4.4928532E-2,1.07088916E-1,-5.2200045E-2,1.7749906E-1,6.516378E-3,-5.5705696E-2,9.505473E-2,-4.364356E-2,5.5363595E-2,-5.7173032E-2,6.647846E-2,-4.655542E-2,3.308447E-2,-3.431089E-2,1.8217464E-1,1.825153E-1,-3.516853E-2],"split_indices":[1190,1395,2488,141,2488,769,679,1428,2255,1794,4065,2579,1720,4017,1428,2520,2191,1984,1590,303,706,1088,2040,0,43,3893,0,0,0,2875,792,4020,2521,2733,748,0,1937,649,678,2788,0,303,1977,1399,2579,0,0,0,0,0,0,0,0,0,1405,0,0,0,0,0,0,0,0,0,0,0,0,0,0,0,0,0,0,0,0,0,0,0,0,0,0],"split_type":[0,0,0,0,0,0,0,0,0,0,0,0,0,0,0,0,0,0,0,0,0,0,0,0,0,0,0,0,0,0,0,0,0,0,0,0,0,0,0,0,0,0,0,0,0,0,0,0,0,0,0,0,0,0,0,0,0,0,0,0,0,0,0,0,0,0,0,0,0,0,0,0,0,0,0,0,0,0,0,0,0],"sum_hessian":[2.8770986E3,2.3690234E3,5.0807532E2,4.602996E2,1.9087238E3,7.284388E1,4.3523145E2,2.4774083E2,2.1255875E2,1.8636504E3,4.507335E1,1.3731767E1,5.9112114E1,1.0770348E1,4.244611E2,2.122236E2,3.5517227E1,3.0129606E1,1.8242914E2,2.730203E1,1.8363484E3,2.281377E1,2.225958E1,2.4903877E0,1.1241379E1,5.8052856E1,1.0592601E0,1.008081E0,9.762266E0,5.787797E0,4.1867328E2,1.6152765E2,5.0695965E1,1.2025967E1,2.349126E1,1.970445E1,1.0425157E1,9.274273E0,1.7315486E2,1.8330528E1,8.971501E0,2.0460178E2,1.6317466E3,4.7483215E0,1.8065449E1,2.0497248E1,1.7623328E0,1.2794058E0,9.961973E0,1.0021806E0,5.7050674E1,1.0221199E0,4.765677E0,2.081721E0,4.1659158E2,1.604089E2,1.1187433E0,1.5465305E1,3.523066E1,1.1025897E1,1.0000699E0,3.166059E0,2.0325203E1,7.4471226E0,2.9780333E0,2.4006586E0,6.8736143E0,1.6746701E2,5.687853E0,1.7285084E1,1.0454445E0,1.7275314E2,3.1848621E1,1.6271654E3,4.581226E0,3.7417266E0,1.006595E0,1.394872E0,1.6670576E1,4.151159E2,1.4756662E0],"tree_param":{"num_deleted":"0","num_feature":"4192","num_nodes":"81","size_leaf_vector":"1"}},{"base_weights":[-3.0642742E-2,1.6842524E0,-4.6820524E-1,-5.6884486E-2,1.8128818E0,-5.2317137E-1,4.90357E-1,1.817797E-1,-3.3468828E-2,-5.49457E-1,5.670334E-1,-3.4862012E-1,1.6148554E0,-5.6892854E-1,1.7252089E-1,-5.6694712E-2,2.0246248E-1,1.3658416E-1,-5.77527E-2,1.909307E-1,-5.0993104E-2,9.372363E-1,-5.7292885E-1,1.5893782E0,-5.7339486E-2,-3.508868E-2,1.4424725E-1,6.1813153E-2,-5.7698067E-2,-4.6365224E-2,2.0764346E-1],"categories":[],"categories_nodes":[],"categories_segments":[],"categories_sizes":[],"default_left":[0,0,0,0,0,0,0,0,0,0,0,0,0,0,0,0,0,0,0,0,0,0,0,0,0,0,0,0,0,0,0],"id":16,"left_children":[1,3,5,-1,7,9,11,-1,-1,13,15,17,19,21,23,-1,-1,-1,-1,-1,-1,25,27,29,-1,-1,-1,-1,-1,-1,-1],"loss_changes":[2.1759006E3,1.7187158E2,1.2197864E2,0E0,6.4971924E0,6.293866E1,1.19251236E2,0E0,0E0,3.0104553E1,8.700464E1,2.9387636E1,3.4716675E1,1.3061035E1,6.0963673E1,0E0,0E0,0E0,0E0,0E0,0E0,4.3364797E0,1.0364685E1,2.0823849E1,0E0,0E0,0E0,0E0,0E0,0E0,0E0],"parents":[2147483647,0,0,1,1,2,2,4,4,5,5,6,6,9,9,10,10,11,11,12,12,13,13,14,14,21,21,22,22,23,23],"right_children":[2,4,6,-1,8,10,12,-1,-1,14,16,18,20,22,24,-1,-1,-1,-1,-1,-1,26,28,30,-1,-1,-1,-1,-1,-1,-1],"split_conditions":[-5.055941E0,2.3205395E1,2.2884623E1,-5.6884486E-2,1.4577818E1,5.001983E0,5.848305E0,1.817797E-1,-3.3468828E-2,1.9259815E1,2.1159952E1,-5.4503345E0,-2.0692064E-1,-8.567467E0,7.540172E0,-5.6694712E-2,2.0246248E-1,1.3658416E-1,-5.77527E-2,1.909307E-1,-5.0993104E-2,1.45E0,6.06E-1,1.7427483E1,-5.7339486E-2,-3.508868E-2,1.4424725E-1,6.1813153E-2,-5.7698067E-2,-4.6365224E-2,2.0764346E-1],"split_indices":[1712,182,173,0,1361,1729,2561,0,0,592,784,2555,4048,2553,1205,0,0,0,0,0,0,1,2952,535,0,0,0,0,0,0,0],"split_type":[0,0,0,0,0,0,0,0,0,0,0,0,0,0,0,0,0,0,0,0,0,0,0,0,0,0,0,0,0,0,0],"sum_hessian":[2.8977048E3,5.8848096E2,2.3092239E3,3.1597155E1,5.568838E2,2.1844187E3,1.2480527E2,5.557654E2,1.1184134E0,2.1334749E3,5.094375E1,7.187215E1,5.293312E1,2.0776533E3,5.5821674E1,2.899623E1,2.194752E1,7.8806944E0,6.399145E1,4.657957E1,6.353552E0,4.8855224E0,2.0727678E3,1.8862267E1,3.6959408E1,1.4624465E0,3.4230762E0,6.5135674E0,2.0662542E3,3.6260142E0,1.5236252E1],"tree_param":{"num_deleted":"0","num_feature":"4192","num_nodes":"31","size_leaf_vector":"1"}},{"base_weights":[-2.2627229E-2,-5.849533E-2,1.4726397E0,1.7432815E0,-5.7867564E-2,1.8173062E0,-5.6575026E-2,-3.911318E-2,1.8243705E0,1.7990558E-1,2.2075517E-1],"categories":[],"categories_nodes":[],"categories_segments":[],"categories_sizes":[],"default_left":[0,0,0,0,0,0,0,0,0,0,0],"id":17,"left_children":[1,-1,3,5,-1,7,-1,-1,9,-1,-1],"loss_changes":[2.4208271E3,0E0,4.3784192E2,1.1988599E2,0E0,1.1229248E1,0E0,0E0,2.5473633E0,0E0,0E0],"parents":[2147483647,0,0,2,2,3,3,5,5,8,8],"right_children":[2,-1,4,6,-1,8,-1,-1,10,-1,-1],"split_conditions":[2.370959E1,-5.849533E-2,-3.8719804E0,1.1877539E1,-5.7867564E-2,2.5994207E1,-5.6575026E-2,-3.911318E-2,4.44E0,1.7990558E-1,2.2075517E-1],"split_indices":[957,0,2217,1355,0,218,0,0,5,0,0],"split_type":[0,0,0,0,0,0,0,0,0,0,0],"sum_hessian":[2.8770762E3,2.0912334E3,7.8584283E2,6.943795E2,9.146331E1,6.730164E2,2.1363104E1,1.9726493E0,6.7104376E2,6.3480096E2,3.624281E1],"tree_param":{"num_deleted":"0","num_feature":"4192","num_nodes":"11","size_leaf_vector":"1"}},{"base_weights":[1.088955E-2,-5.069614E-1,1.2345885E0,-5.509925E-1,4.6580055E-1,1.4458616E0,-4.0406385E-1,3.3852506E-1,-5.567562E-1,-5.253525E-1,1.4134638E0,-5.564309E-2,1.499039E0,9.211489E-1,-5.734659E-2,1.5360542E-1,-5.115084E-2,-5.6555176E-1,-5.600183E-2,-5.696075E-2,7.010044E-2,1.561058E0,-4.4241276E-2,-5.2707758E-2,1.5214982E0,1.4036068E-1,-4.4718307E-2,-5.696058E-1,2.9663485E-1,1.4955318E0,-4.263081E-1,1.6017722E-1,3.4384195E-2,-4.9625523E-2,1.5333099E0,-5.7165563E-2,6.168148E-2,-4.9586374E-2,1.607592E-1,1.819086E-1,3.407402E-2,8.5923485E-2,-5.6266487E-2,1.5393868E-1,-4.401956E-2],"categories":[],"categories_nodes":[],"categories_segments":[],"categories_sizes":[],"default_left":[0,0,0,0,0,0,0,0,0,0,0,0,0,0,0,0,0,0,0,0,0,0,0,0,0,0,0,0,0,0,0,0,0,0,0,0,0,0,0,0,0,0,0,0,0],"id":18,"left_children":[1,3,5,7,9,11,13,15,17,19,21,-1,23,25,-1,-1,-1,27,29,-1,-1,31,-1,-1,33,-1,-1,35,37,39,41,-1,-1,-1,43,-1,-1,-1,-1,-1,-1,-1,-1,-1,-1],"loss_changes":[1.8612961E3,8.865497E1,3.0295142E2,1.0313782E1,8.51975E1,8.323169E1,2.3095964E1,1.4361202E1,8.612427E0,2.8240776E0,1.3355644E1,0E0,3.511731E1,8.402797E0,0E0,0E0,0E0,6.910095E0,2.0739136E1,0E0,0E0,1.5827637E0,0E0,0E0,1.8542725E1,0E0,0E0,5.0217896E0,1.0857689E1,1.9818945E0,5.571124E0,0E0,0E0,0E0,9.576172E0,0E0,0E0,0E0,0E0,0E0,0E0,0E0,0E0,0E0,0E0],"parents":[2147483647,0,0,1,1,2,2,3,3,4,4,5,5,6,6,7,7,8,8,9,9,10,10,12,12,13,13,17,17,18,18,21,21,24,24,27,27,28,28,29,29,30,30,34,34],"right_children":[2,4,6,8,10,12,14,16,18,20,22,-1,24,26,-1,-1,-1,28,30,-1,-1,32,-1,-1,34,-1,-1,36,38,40,42,-1,-1,-1,44,-1,-1,-1,-1,-1,-1,-1,-1,-1,-1],"split_conditions":[2.0072023E1,1.7251518E1,6.513097E-2,8.6667E1,1.8857E1,1.616082E0,4.722283E0,-3.24E-1,5.938902E0,2.2726294E1,1.5093369E1,-5.564309E-2,9.503914E0,1.8E-2,-5.734659E-2,1.5360542E-1,-5.115084E-2,2.5168344E1,1.1923891E1,-5.696075E-2,7.010044E-2,-5.2970463E-1,-4.4241276E-2,-5.2707758E-2,2.01E-4,1.4036068E-1,-4.4718307E-2,2.5611328E1,1.9014936E1,7.528668E0,-2.64E-1,1.6017722E-1,3.4384195E-2,-4.9625523E-2,2.695E0,-5.7165563E-2,6.168148E-2,-4.9586374E-2,1.607592E-1,1.819086E-1,3.407402E-2,8.5923485E-2,-5.6266487E-2,1.5393868E-1,-4.401956E-2],"split_indices":[556,704,2172,3919,1230,2254,976,3181,1665,967,966,0,267,3365,0,0,0,427,937,0,0,2456,0,0,3697,0,0,321,655,577,3306,0,0,0,3611,0,0,0,0,0,0,0,0,0,0],"split_type":[0,0,0,0,0,0,0,0,0,0,0,0,0,0,0,0,0,0,0,0,0,0,0,0,0,0,0,0,0,0,0,0,0,0,0,0,0,0,0,0,0,0,0,0,0],"sum_hessian":[2.9352297E3,2.0628489E3,8.723809E2,1.9739343E3,8.891461E1,7.7285376E2,9.952714E1,1.2336249E1,1.9615981E3,4.36779E1,4.5236713E1,1.9749828E1,7.5310394E2,1.0777596E1,8.874954E1,4.7862782E0,7.549971E0,1.927611E3,3.3987095E1,4.2673485E1,1.0044117E0,4.205131E1,3.1854012E0,8.0102005E0,7.4509375E2,7.9490685E0,2.8285282E0,1.9189275E3,8.683546E0,5.9632483E0,2.8023846E1,4.0384575E1,1.6667346E0,4.0976152E0,7.409961E2,1.9161351E3,2.7923617E0,5.7994323E0,2.8841133E0,4.208769E0,1.7544796E0,2.179031E0,2.5844816E1,7.3894073E2,2.055359E0],"tree_param":{"num_deleted":"0","num_feature":"4192","num_nodes":"45","size_leaf_vector":"1"}},{"base_weights":[-1.2099411E-2,1.2951906E0,-3.1201845E-1,1.474449E0,3.9651096E-1,1.1377155E0,-4.2357352E-1,3.0685756E-1,1.4907224E0,-2.0506054E-1,1.2812339E0,2.5735859E-2,1.4570649E0,-4.7134477E-1,1.4904181E0,-2.9234138E-1,1.17840864E-1,1.4996172E0,1.689834E-2,-4.089771E-1,1.2698827E0,1.5113823E0,1.7363541E-1,1.2463965E0,-3.7575638E-1,1.5686375E0,7.623771E-1,1.1502842E0,-5.032444E-1,-1.3286605E-1,1.5911266E0,-4.534696E-2,8.35112E-3,1.5386732E0,1.1147008E0,5.146122E-2,-3.693355E-2,9.362467E-2,-4.9578413E-1,1.4478034E-1,1.1145541E-2,3.4719494E-1,1.5815727E-1,1.14647366E-1,-3.430681E-1,-1.6744813E-2,1.4933357E-1,9.413747E-2,-5.215534E-1,6.735075E-3,1.5907426E0,1.5508062E-1,-1.267476E-1,1.3776287E0,-9.884208E-2,-5.3537124E-1,4.3215302E-1,-3.915055E-2,2.9692024E-2,1.1274509E-2,1.6366721E0,1.221092E-3,1.5424539E-1,-1.5998013E-2,1.3153541E-1,-5.3872894E-2,6.466671E-2,-2.9623425E-2,8.137332E-2,-4.6760265E-2,1.2190516E-2,2.1842068E-2,-5.583913E-2,5.419311E-2,1.6053943E-1,9.9037565E-2,-4.1890323E-2,-2.924485E-2,1.4998674E-1,9.649368E-2,-4.4440072E-2,1.1603335E-1,-5.4504152E-2,-3.814703E-2,1.1963506E-1,1.809129E-2,1.6661963E-1],"categories":[],"categories_nodes":[],"categories_segments":[],"categories_sizes":[],"default_left":[0,0,0,0,0,0,0,0,0,0,0,0,0,0,0,0,0,0,0,0,0,0,0,0,0,0,0,0,0,0,0,0,0,0,0,0,0,0,0,0,0,0,0,0,0,0,0,0,0,0,0,0,0,0,0,0,0,0,0,0,0,0,0,0,0,0,0,0,0,0,0,0,0,0,0,0,0,0,0,0,0,0,0,0,0,0,0],"id":19,"left_children":[1,3,5,7,9,11,13,15,17,19,21,23,25,27,29,31,-1,33,35,37,39,41,43,45,47,49,51,53,55,57,59,-1,-1,61,63,-1,-1,-1,65,-1,-1,67,-1,-1,69,-1,-1,-1,71,-1,73,-1,75,77,79,81,83,-1,-1,-1,85,-1,-1,-1,-1,-1,-1,-1,-1,-1,-1,-1,-1,-1,-1,-1,-1,-1,-1,-1,-1,-1,-1,-1,-1,-1,-1],"loss_changes":[1.1470216E3,8.736084E1,3.8531012E2,8.183411E0,4.930876E1,6.043402E1,2.0279205E2,4.266656E0,5.851074E0,1.7276932E1,9.280586E0,1.958753E1,9.056702E0,1.1216785E2,9.049362E0,3.5592085E-1,0E0,4.982971E0,9.014229E-1,6.268528E0,1.2836609E0,1.9730988E0,4.1987443E0,3.7020512E0,6.2759175E0,3.6437683E0,1.4392413E1,1.2040722E1,6.3827515E1,5.6988925E-1,3.2482147E0,0E0,0E0,2.300537E0,1.16364975E1,0E0,0E0,0E0,2.6712952E0,0E0,0E0,1.1525377E0,0E0,0E0,3.8787538E-1,0E0,0E0,0E0,8.788371E-1,0E0,8.409424E-1,0E0,3.822846E0,7.692482E0,3.1445765E0,3.4189514E1,4.4492386E1,0E0,0E0,0E0,1.8210602E0,0E0,0E0,0E0,0E0,0E0,0E0,0E0,0E0,0E0,0E0,0E0,0E0,0E0,0E0,0E0,0E0,0E0,0E0,0E0,0E0,0E0,0E0,0E0,0E0,0E0,0E0],"parents":[2147483647,0,0,1,1,2,2,3,3,4,4,5,5,6,6,7,7,8,8,9,9,10,10,11,11,12,12,13,13,14,14,15,15,17,17,18,18,19,19,20,20,21,21,22,22,23,23,24,24,25,25,26,26,27,27,28,28,29,29,30,30,33,33,34,34,38,38,41,41,44,44,48,48,50,50,52,52,53,53,54,54,55,55,56,56,60,60],"right_children":[2,4,6,8,10,12,14,16,18,20,22,24,26,28,30,32,-1,34,36,38,40,42,44,46,48,50,52,54,56,58,60,-1,-1,62,64,-1,-1,-1,66,-1,-1,68,-1,-1,70,-1,-1,-1,72,-1,74,-1,76,78,80,82,84,-1,-1,-1,86,-1,-1,-1,-1,-1,-1,-1,-1,-1,-1,-1,-1,-1,-1,-1,-1,-1,-1,-1,-1,-1,-1,-1,-1,-1,-1],"split_conditions":[8.350532E0,1.7176163E1,-2.0253055E0,3.2983983E0,7.1099834E0,-2.9397178E0,4.126084E0,7.1033983E0,5.333275E0,6.3527995E-1,3.463563E0,1.9433933E0,4.853062E0,-1.6939641E0,-7.4829836E0,4.424E0,1.17840864E-1,4.227515E0,1.5981317E1,1.4897832E-1,2.1569014E0,5.1525674E0,-3.2442856E-1,-5.1086993E0,1.8176651E0,-3.4E-1,2.6585855E0,3.871E1,2.0870645E0,1.4737683E1,-6.051899E0,-4.534696E-2,8.35112E-3,-8.352081E0,-2.0961292E0,5.146122E-2,-3.693355E-2,9.362467E-2,3.13947E0,1.4478034E-1,1.1145541E-2,6.6465287E0,1.5815727E-1,1.14647366E-1,1.1454185E1,-1.6744813E-2,1.4933357E-1,9.413747E-2,5.6357017E0,6.735075E-3,6.54E-1,1.5508062E-1,8.700052E0,3.4137964E-1,-1.3783881E-1,9.130299E0,-4.2338433E0,-3.915055E-2,2.9692024E-2,1.1274509E-2,3.6438963E0,1.221092E-3,1.5424539E-1,-1.5998013E-2,1.3153541E-1,-5.3872894E-2,6.466671E-2,-2.9623425E-2,8.137332E-2,-4.6760265E-2,1.2190516E-2,2.1842068E-2,-5.583913E-2,5.419311E-2,1.6053943E-1,9.9037565E-2,-4.1890323E-2,-2.924485E-2,1.4998674E-1,9.649368E-2,-4.4440072E-2,1.1603335E-1,-5.4504152E-2,-3.814703E-2,1.1963506E-1,1.809129E-2,1.6661963E-1],"split_indices":[844,173,2376,1246,1147,2631,2599,743,2579,1937,2255,1914,2060,1587,1893,14,0,2647,512,2064,1661,683,4190,2066,1428,3091,2663,3963,1976,378,1636,0,0,1893,2652,0,0,0,1867,0,0,124,0,0,420,0,0,0,1001,0,2903,0,1208,601,1946,790,2194,0,0,0,352,0,0,0,0,0,0,0,0,0,0,0,0,0,0,0,0,0,0,0,0,0,0,0,0,0,0],"split_type":[0,0,0,0,0,0,0,0,0,0,0,0,0,0,0,0,0,0,0,0,0,0,0,0,0,0,0,0,0,0,0,0,0,0,0,0,0,0,0,0,0,0,0,0,0,0,0,0,0,0,0,0,0,0,0,0,0,0,0,0,0,0,0,0,0,0,0,0,0,0,0,0,0,0,0,0,0,0,0,0,0,0,0,0,0,0,0],"sum_hessian":[2.9234392E3,5.449197E2,2.3785195E3,4.537667E2,9.115298E1,1.6928947E2,2.20923E3,6.5103683E0,4.4725632E2,5.4716473E1,3.64365E1,3.8011925E1,1.3127754E2,2.156168E3,5.3061962E1,4.251796E0,2.2585728E0,4.4455582E2,2.700483E0,4.870547E1,6.011001E0,2.986606E1,6.5704417E0,8.887318E0,2.9124607E1,1.1202702E2,1.925052E1,4.092013E1,2.115248E3,3.0810058E0,4.9980957E1,2.8314445E0,1.4203511E0,4.0088245E2,4.367339E1,1.0347214E0,1.6657618E0,2.3592637E0,4.6346207E1,4.994157E0,1.0168443E0,2.0364082E0,2.782965E1,1.85641E0,4.7140317E0,1.3693037E0,7.518014E0,2.3587646E0,2.6765842E1,1.6842805E0,1.1034274E2,9.808587E0,9.441934E0,3.4532284E1,6.387848E0,2.0454242E3,6.982375E1,1.9790875E0,1.1019183E0,1.597652E0,4.8383305E1,1.0009142E0,3.9988153E2,5.9673824E0,3.770601E1,4.5176464E1,1.1697426E0,1.0093687E0,1.0270395E0,3.7137241E0,1.0003077E0,1.0355338E0,2.5730309E1,2.0435936E0,1.0829915E2,1.4619493E0,7.9799843E0,2.2601898E0,3.2272095E1,1.1267692E0,5.261079E0,1.0923773E1,2.0345004E3,3.4060818E1,3.576293E1,1.1034313E0,4.7279873E1],"tree_param":{"num_deleted":"0","num_feature":"4192","num_nodes":"87","size_leaf_vector":"1"}},{"base_weights":[-4.5039542E-2,-5.7876773E-2,1.4971515E0,-5.450126E-2,1.537256E-1],"categories":[],"categories_nodes":[],"categories_segments":[],"categories_sizes":[],"default_left":[0,0,0,0,0],"id":20,"left_children":[1,-1,3,-1,-1],"loss_changes":[2.3682737E3,0E0,6.142334E1,0E0,0E0],"parents":[2147483647,0,0,2,2],"right_children":[2,-1,4,-1,-1],"split_conditions":[2.2135912E1,-5.7876773E-2,5.8628707E0,-5.450126E-2,1.537256E-1],"split_indices":[1334,0,1739,0,0],"split_type":[0,0,0,0,0],"sum_hessian":[2.8751704E3,2.1364153E3,7.387551E2,1.3985877E1,7.247693E2],"tree_param":{"num_deleted":"0","num_feature":"4192","num_nodes":"5","size_leaf_vector":"1"}},{"base_weights":[9.329989E-3,1.2196424E0,-3.025426E-1,-1.414162E-1,1.4285414E0,3.919554E-1,-4.8356363E-1,7.631726E-1,-5.294251E-1,-3.5167396E-1,1.4930663E0,-2.9390243E-1,1.1719159E0,5.293339E-1,-5.216817E-1,1.2355864E0,-5.1000394E-2,-5.7494637E-2,9.13399E-2,9.5622264E-2,-5.484538E-2,-3.131658E-1,1.5151751E0,-4.3888482E-1,6.546735E-1,-4.1317797E-1,1.2967217E0,-2.3831128E-1,1.3059812E0,-5.3687006E-1,2.9567775E-1,-9.126362E-2,1.475494E0,-4.83285E-2,3.3634786E-2,-1.6700104E-1,1.527011E0,-5.338289E-1,-5.3587124E-2,-4.1630322E-1,1.113656E0,7.808865E-2,-5.5811573E-2,2.0828225E-1,1.4117818E0,7.419639E-1,-5.6132253E-2,-4.4819277E-2,1.5100937E0,-5.4469115E-1,3.671102E-1,-3.1554443E-1,1.381115E0,3.3700705E-2,-3.7783343E-2,2.6582232E-2,1.5522574E-1,3.242032E-2,-4.1347805E-2,1.5363468E-1,-1.0084635E-2,1.16350455E-2,-5.696794E-2,-3.9786022E-2,6.485562E-2,3.459825E-2,-5.292171E-2,1.4853202E-1,-1.1500552E-2,1.2130725E-1,-4.723004E-2,-5.0145842E-2,1.4650129E-1,-4.4823688E-2,1.4787239E-1,-3.2927554E-2,1.6048984E-1,-2.6390895E-2,-5.6516565E-2,-5.2103233E-2,1.310657E-1,1.4128283E-1,-4.9038958E-2,-3.837813E-2,1.7487212E-1],"categories":[],"categories_nodes":[],"categories_segments":[],"categories_sizes":[],"default_left":[0,0,0,0,0,0,0,0,0,0,0,0,0,0,0,0,0,0,0,0,0,0,0,0,0,0,0,0,0,0,0,0,0,0,0,0,0,0,0,0,0,0,0,0,0,0,0,0,0,0,0,0,0,0,0,0,0,0,0,0,0,0,0,0,0,0,0,0,0,0,0,0,0,0,0,0,0,0,0,0,0,0,0,0,0],"id":21,"left_children":[1,3,5,7,9,11,13,15,17,19,21,23,25,27,29,31,-1,-1,-1,-1,-1,33,35,37,39,41,43,45,47,49,51,53,55,-1,-1,57,59,61,63,65,67,-1,-1,69,71,73,-1,-1,75,77,79,81,83,-1,-1,-1,-1,-1,-1,-1,-1,-1,-1,-1,-1,-1,-1,-1,-1,-1,-1,-1,-1,-1,-1,-1,-1,-1,-1,-1,-1,-1,-1,-1,-1],"loss_changes":[1.0859763E3,1.6779962E2,2.8778387E2,2.8252762E1,5.9236084E1,2.5365726E2,7.035541E1,1.5201742E1,4.210864E0,5.3338876E0,2.0178955E1,3.5049442E1,4.4407745E1,3.985351E1,2.1880646E1,5.852474E0,0E0,0E0,0E0,0E0,0E0,9.134082E-1,9.963867E0,8.014015E0,1.7133736E1,3.3684409E0,2.54823E1,1.1246043E1,1.2536644E1,1.2347595E1,2.2041327E1,5.804761E-1,1.0053406E0,0E0,0E0,6.5567946E-1,7.515381E0,4.175152E0,1.1033528E1,1.1214283E0,1.1135477E1,0E0,0E0,1.4831469E1,1.9674713E1,8.473582E0,0E0,0E0,5.7424393E0,9.646057E0,1.35338745E1,7.2347913E0,8.403236E0,0E0,0E0,0E0,0E0,0E0,0E0,0E0,0E0,0E0,0E0,0E0,0E0,0E0,0E0,0E0,0E0,0E0,0E0,0E0,0E0,0E0,0E0,0E0,0E0,0E0,0E0,0E0,0E0,0E0,0E0,0E0,0E0],"parents":[2147483647,0,0,1,1,2,2,3,3,4,4,5,5,6,6,7,7,8,8,9,9,10,10,11,11,12,12,13,13,14,14,15,15,21,21,22,22,23,23,24,24,25,25,26,26,27,27,28,28,29,29,30,30,31,31,32,32,35,35,36,36,37,37,38,38,39,39,40,40,43,43,44,44,45,45,48,48,49,49,50,50,51,51,52,52],"right_children":[2,4,6,8,10,12,14,16,18,20,22,24,26,28,30,32,-1,-1,-1,-1,-1,34,36,38,40,42,44,46,48,50,52,54,56,-1,-1,58,60,62,64,66,68,-1,-1,70,72,74,-1,-1,76,78,80,82,84,-1,-1,-1,-1,-1,-1,-1,-1,-1,-1,-1,-1,-1,-1,-1,-1,-1,-1,-1,-1,-1,-1,-1,-1,-1,-1,-1,-1,-1,-1,-1,-1],"split_conditions":[-7.680694E-1,1.589004E-1,7.4584656E0,-1.6804518E0,1.0940598E1,1.2808844E1,-1.965427E0,2.4647975E-1,3.23E0,-3.9324725E0,-3.9944544E-1,4.3483276E0,-1.1310863E0,2.1169537E1,4.5371566E0,1.5112375E0,-5.1000394E-2,-5.7494637E-2,9.13399E-2,9.5622264E-2,-5.484538E-2,2.1198784E1,-1.5605518E-2,1.7322078E0,7.4230987E-1,-2.52E-1,-2.6660008E0,1.7571429E-2,-1.2086077E0,4.0560737E0,3.3353722E0,1.6E-1,9.887648E0,-4.83285E-2,3.3634786E-2,9.02E-1,5.503952E0,-2.9038985E0,1.1020284E1,-2.4371429E-1,7.8659576E-1,7.808865E-2,-5.5811573E-2,-1.0190158E-1,9.275543E0,3.4328E1,-5.6132253E-2,-4.4819277E-2,-1.5172803E0,1.2308814E1,1.34677105E1,6.85E-1,-2.5033748E0,3.3700705E-2,-3.7783343E-2,2.6582232E-2,1.5522574E-1,3.242032E-2,-4.1347805E-2,1.5363468E-1,-1.0084635E-2,1.16350455E-2,-5.696794E-2,-3.9786022E-2,6.485562E-2,3.459825E-2,-5.292171E-2,1.4853202E-1,-1.1500552E-2,1.2130725E-1,-4.723004E-2,-5.0145842E-2,1.4650129E-1,-4.4823688E-2,1.4787239E-1,-3.2927554E-2,1.6048984E-1,-2.6390895E-2,-5.6516565E-2,-5.2103233E-2,1.310657E-1,1.4128283E-1,-4.9038958E-2,-3.837813E-2,1.7487212E-1],"split_indices":[1803,2426,1395,1589,679,141,2208,2660,3801,1529,1431,1428,1984,380,1436,1751,0,0,0,0,0,1180,2191,2520,1516,3212,1820,4034,1685,1818,1904,3967,1134,0,0,2816,1716,1632,153,4078,1659,0,0,2601,679,3963,0,0,2064,706,592,2752,1823,0,0,0,0,0,0,0,0,0,0,0,0,0,0,0,0,0,0,0,0,0,0,0,0,0,0,0,0,0,0,0,0],"split_type":[0,0,0,0,0,0,0,0,0,0,0,0,0,0,0,0,0,0,0,0,0,0,0,0,0,0,0,0,0,0,0,0,0,0,0,0,0,0,0,0,0,0,0,0,0,0,0,0,0,0,0,0,0,0,0,0,0,0,0,0,0,0,0,0,0,0,0,0,0,0,0,0,0,0,0,0,0,0,0,0,0,0,0,0,0],"sum_hessian":[2.875061E3,5.8846E2,2.286601E3,7.834368E1,5.1011633E2,4.7253333E2,1.8140676E3,2.3226778E1,5.51169E1,1.7687054E1,4.924293E2,2.517661E2,2.2076721E2,6.532502E1,1.7487427E3,1.6962387E1,6.2643905E0,5.401426E1,1.1026407E0,1.8083705E0,1.5878683E1,5.7954035E0,4.8663388E2,2.188534E2,3.291271E1,1.5945176E1,2.0482204E2,3.3201508E1,3.2123512E1,1.7171769E3,3.1565742E1,2.6922154E0,1.4270171E1,4.795345E0,1.0000583E0,3.3084676E0,4.833254E2,1.7527666E2,4.357674E1,9.901594E0,2.3011112E1,1.2510128E0,1.4694163E1,1.9850603E1,1.8497144E2,7.9073234E0,2.5294184E1,3.223598E0,2.8899914E1,1.7028417E3,1.4335226E1,2.0647942E1,1.0917801E1,1.0087152E0,1.6835003E0,1.1178268E0,1.3152345E1,1.000073E0,2.3083947E0,4.806252E2,2.7001839E0,9.042243E0,1.6623442E2,2.9530691E1,1.4046049E1,1.0111504E0,8.890444E0,1.7506569E1,5.5045443E0,7.7000685E0,1.2150535E1,4.7791247E0,1.801923E2,3.1730392E0,4.734284E0,1.2953237E0,2.760459E1,1.1667543E2,1.5861663E3,7.6150856E0,6.720141E0,1.2464205E0,1.9401522E1,1.8744532E0,9.043348E0],"tree_param":{"num_deleted":"0","num_feature":"4192","num_nodes":"85","size_leaf_vector":"1"}},{"base_weights":[-1.8091626E-2,1.2560734E0,-5.1505846E-1,-4.9310115E-1,1.5019646E0,-5.3039575E-1,8.2619953E-1,-5.739392E-2,1.2813324E-1,-5.4702412E-2,1.5491441E-1,4.7725028E-1,-5.499768E-1,-5.226866E-2,1.6497664E-1,-5.5702027E-2,1.72156E-1,-5.622353E-1,5.18758E-1,-5.704906E-1,7.615225E-1,1.8105145E-1,-5.3754885E-2,9.717508E-2,-5.7480093E-2,-4.9301364E-2,1.6091536E-1],"categories":[],"categories_nodes":[],"categories_segments":[],"categories_sizes":[],"default_left":[0,0,0,0,0,0,0,0,0,0,0,0,0,0,0,0,0,0,0,0,0,0,0,0,0,0,0],"id":22,"left_children":[1,3,5,7,9,11,13,-1,-1,-1,-1,15,17,-1,-1,-1,-1,19,21,23,25,-1,-1,-1,-1,-1,-1],"loss_changes":[1.8366636E3,3.5079175E2,4.3362915E1,1.5231934E1,6.985132E1,4.097986E1,2.7503742E1,0E0,0E0,0E0,0E0,5.2273346E1,2.6818542E1,0E0,0E0,0E0,0E0,2.2315613E1,3.3013123E1,1.37901E1,1.4444801E1,0E0,0E0,0E0,0E0,0E0,0E0],"parents":[2147483647,0,0,1,1,2,2,3,3,4,4,5,5,6,6,11,11,12,12,17,17,18,18,19,19,20,20],"right_children":[2,4,6,8,10,12,14,-1,-1,-1,-1,16,18,-1,-1,-1,-1,20,22,24,26,-1,-1,-1,-1,-1,-1],"split_conditions":[-3.817702E0,3.947033E0,3.8080382E0,3.0180067E1,2.260772E1,4.4524145E0,1.8085827E1,-5.739392E-2,1.2813324E-1,-5.4702412E-2,1.5491441E-1,1.8888569E1,2.532113E1,-5.226866E-2,1.6497664E-1,-5.5702027E-2,1.72156E-1,3.87E-1,5.94E-1,-4.15E-1,1.9351025E1,1.8105145E-1,-5.3754885E-2,9.717508E-2,-5.7480093E-2,-4.9301364E-2,1.6091536E-1],"split_indices":[1712,2561,2149,930,930,1093,1211,0,0,0,0,512,1061,0,0,0,0,3133,14,3134,141,0,0,0,0,0,0],"split_type":[0,0,0,0,0,0,0,0,0,0,0,0,0,0,0,0,0,0,0,0,0,0,0,0,0,0,0],"sum_hessian":[2.8985027E3,8.1287036E2,2.0856323E3,1.00062126E2,7.128082E2,2.0626504E3,2.2981895E1,9.634928E1,3.7128425E0,1.5805056E1,6.970032E2,3.887279E1,2.0237776E3,8.850827E0,1.4131068E1,2.1529669E1,1.734312E1,2.0012964E3,2.2481195E1,1.9894586E3,1.1837758E1,9.792254E0,1.2688941E1,4.9191213E0,1.9845396E3,4.941886E0,6.8958726E0],"tree_param":{"num_deleted":"0","num_feature":"4192","num_nodes":"27","size_leaf_vector":"1"}},{"base_weights":[6.8075515E-2,1.275776E0,-5.251803E-1,-5.798418E-2,1.5688733E0,-5.7823684E-2,2.267771E-1,-5.5321574E-2,1.6102624E0,1.9305202E0,1.5280873E0,2.2836308E-1,1.8139975E-1,-4.142376E-2,1.5358625E-1],"categories":[],"categories_nodes":[],"categories_segments":[],"categories_sizes":[],"default_left":[0,0,0,0,0,0,0,0,0,0,0,0,0,0,0],"id":23,"left_children":[1,3,5,-1,7,-1,-1,-1,9,11,13,-1,-1,-1,-1],"loss_changes":[2.0843418E3,5.2210364E2,2.9040863E2,0E0,7.360156E1,0E0,0E0,0E0,1.8426758E1,2.5256958E0,1.0470703E1,0E0,0E0,0E0,0E0],"parents":[2147483647,0,0,1,1,2,2,4,4,8,8,9,9,10,10],"right_children":[2,4,6,-1,8,-1,-1,-1,10,12,14,-1,-1,-1,-1],"split_conditions":[-9.5842856E-1,1.9681343E1,1.533E0,-5.798418E-2,1.3987194E1,-5.7823684E-2,2.267771E-1,-5.5321574E-2,9.313071E0,2.94E0,1.3762838E1,2.2836308E-1,1.8139975E-1,-4.142376E-2,1.5358625E-1],"split_indices":[4070,352,2769,0,1135,0,0,0,519,5,131,0,0,0,0],"split_type":[0,0,0,0,0,0,0,0,0,0,0,0,0,0,0],"sum_hessian":[2.9072256E3,9.5729474E2,1.9499309E3,1.3044714E2,8.268476E2,1.9143577E3,3.557329E1,1.5581687E1,8.112659E2,1.6106421E2,6.502017E2,3.534786E1,1.2571634E2,2.3839817E0,6.4781775E2],"tree_param":{"num_deleted":"0","num_feature":"4192","num_nodes":"15","size_leaf_vector":"1"}},{"base_weights":[1.3048368E-2,-3.548872E-1,1.1345953E0,-4.6912467E-1,9.6692413E-1,-4.5720354E-1,1.3094107E0,1.0306635E0,-5.0920624E-1,-5.0093544E-1,1.3320152E0,-5.383469E-1,5.2204174E-1,-5.256259E-2,1.3445245E0,1.3085401E0,-5.0484087E-2,6.7811656E-1,-5.307327E-1,-5.5707432E-2,6.320196E-2,1.3611071E-1,-3.844916E-2,5.960327E-2,-5.6737553E-2,1.1265737E-1,-3.852859E-2,1.3483614E0,-3.143266E-2,3.754E-2,1.3342153E-1,-5.227075E-2,1.1956507E0,2.1258901E-1,-5.5368847E-1,1.3505863E0,3.2577164E-2,1.3817157E-1,-3.958333E-2,-4.4886105E-2,1.2737437E-1,-5.5987902E-2,1.0126066E-2,1.3522457E-1,3.9856914E-2],"categories":[],"categories_nodes":[],"categories_segments":[],"categories_sizes":[],"default_left":[0,0,0,0,0,0,0,0,0,0,0,0,0,0,0,0,0,0,0,0,0,0,0,0,0,0,0,0,0,0,0,0,0,0,0,0,0,0,0,0,0,0,0,0,0],"id":24,"left_children":[1,3,5,7,9,11,13,15,17,19,21,23,25,-1,27,29,-1,31,33,-1,-1,-1,-1,-1,-1,-1,-1,35,-1,-1,-1,-1,37,39,41,43,-1,-1,-1,-1,-1,-1,-1,-1,-1],"loss_changes":[1.1208251E3,3.0928003E2,1.8730157E2,1.1373013E2,8.8031265E1,5.6154594E0,3.967749E1,2.171661E1,4.7256073E1,2.4635563E0,7.0562286E0,2.3959084E0,3.5303495E0,0E0,4.202759E0,5.0694275E-1,0E0,2.1203388E1,3.087851E1,0E0,0E0,0E0,0E0,0E0,0E0,0E0,0E0,9.082031E-1,0E0,0E0,0E0,0E0,7.4891396E0,3.898507E1,7.147949E0,3.9453125E-1,0E0,0E0,0E0,0E0,0E0,0E0,0E0,0E0,0E0],"parents":[2147483647,0,0,1,1,2,2,3,3,4,4,5,5,6,6,7,7,8,8,9,9,10,10,11,11,12,12,14,14,15,15,17,17,18,18,27,27,32,32,33,33,34,34,35,35],"right_children":[2,4,6,8,10,12,14,16,18,20,22,24,26,-1,28,30,-1,32,34,-1,-1,-1,-1,-1,-1,-1,-1,36,-1,-1,-1,-1,38,40,42,44,-1,-1,-1,-1,-1,-1,-1,-1,-1],"split_conditions":[1.6586649E1,5.7546973E0,1.7799519E1,1.8713048E0,1.875575E1,5.442647E0,-2.9179594E-1,-5.397186E-1,-5.296341E0,2.2850773E1,-4.8820212E-1,-3.88E-1,5.9842855E-1,-5.256259E-2,3.0552452E0,1.1990952E1,-5.0484087E-2,3.1464577E-1,4.8113017E0,-5.5707432E-2,6.320196E-2,1.3611071E-1,-3.844916E-2,5.960327E-2,-5.6737553E-2,1.1265737E-1,-3.852859E-2,1.8167824E0,-3.143266E-2,3.754E-2,1.3342153E-1,-5.227075E-2,-2.6760013E0,1.6113056E1,5.391388E0,1.9419316E0,3.2577164E-2,1.3817157E-1,-3.958333E-2,-4.4886105E-2,1.2737437E-1,-5.5987902E-2,1.0126066E-2,1.3522457E-1,3.9856914E-2],"split_indices":[704,2389,1230,1063,1230,1803,2162,1899,1761,327,2009,3166,63,0,1813,216,0,1644,1392,0,0,0,0,0,0,0,0,1573,0,0,0,0,2244,131,1760,2044,0,0,0,0,0,0,0,0,0],"split_type":[0,0,0,0,0,0,0,0,0,0,0,0,0,0,0,0,0,0,0,0,0,0,0,0,0,0,0,0,0,0,0,0,0,0,0,0,0,0,0,0,0,0,0,0,0],"sum_hessian":[2.7141423E3,2.044203E3,6.6993933E2,1.8821808E3,1.6202228E2,6.613404E1,6.038053E2,4.8348373E1,1.8338324E3,3.219783E1,1.2982445E2,6.14891E1,4.644937E0,1.1074742E1,5.927305E2,4.1064785E1,7.283588E0,3.211261E1,1.8017198E3,3.1162025E1,1.0358042E0,1.2786442E2,1.9600286E0,1.0468738E0,6.044223E1,2.6425958E0,2.002341E0,5.915495E2,1.1810625E0,1.5179297E0,3.9546856E1,9.668648E0,2.2443962E1,5.372758E1,1.7479922E3,5.899451E2,1.6043253E0,2.021265E1,2.2313118E0,3.3452576E1,2.0275003E1,1.7317688E3,1.622336E1,5.8849896E2,1.4461651E0],"tree_param":{"num_deleted":"0","num_feature":"4192","num_nodes":"45","size_leaf_vector":"1"}},{"base_weights":[-5.489362E-3,1.1593689E0,-3.589674E-1,1.2786148E0,6.455074E-2,8.885503E-1,-4.4384995E-1,1.2952753E0,5.015823E-2,1.1862702E0,-3.7928548E-1,1.3099797E0,1.3314256E-1,-4.9864072E-1,7.6610065E-1,6.2652975E-1,1.3207821E0,9.449111E-2,-3.3990136E-1,-2.2794727E-2,1.3245898E0,-4.9337637E-1,1.1362439E-1,1.3794627E0,-8.629157E-2,-2.8021002E-1,1.0117273E0,-5.204216E-1,9.392867E-1,1.2395576E0,-1.962475E-1,1.3392574E-1,8.4036246E-2,1.3260696E0,-2.8828904E-2,3.0769289E-2,-5.023994E-2,-1.8735841E-3,1.4143966E-1,4.919832E-2,-5.499923E-1,1.4275846E0,-4.537136E-2,5.8146108E-2,-4.4778217E-2,1.0159116E-1,-4.348242E-1,1.3882051E-1,-4.9556423E-2,7.180177E-1,-5.366311E-1,1.2922366E0,-4.7335256E-2,1.3321927E0,1.0397888E-2,1.1790837E-1,-4.5378464E-1,1.166297E-1,-3.2481387E-2,-2.6489947E-2,1.3307878E-1,-8.95087E-3,-5.5939544E-2,2.4528414E-2,1.4512672E-1,-3.406395E-2,2.9565E-2,-5.091409E-2,7.549876E-2,-4.392625E-2,6.333133E-2,-4.2616427E-2,1.461769E-1,-5.454735E-2,9.3099944E-2,1.3991366E-1,-1.6294068E-2,-4.6462428E-2,8.779556E-2,1.366951E-1,-1.5164943E-2,-4.650308E-2,8.1950225E-2,7.901549E-2,-5.3788047E-2],"categories":[],"categories_nodes":[],"categories_segments":[],"categories_sizes":[],"default_left":[0,0,0,0,0,0,0,0,0,0,0,0,0,0,0,0,0,0,0,0,0,0,0,0,0,0,0,0,0,0,0,0,0,0,0,0,0,0,0,0,0,0,0,0,0,0,0,0,0,0,0,0,0,0,0,0,0,0,0,0,0,0,0,0,0,0,0,0,0,0,0,0,0,0,0,0,0,0,0,0,0,0,0,0,0],"id":25,"left_children":[1,3,5,7,9,11,13,15,17,19,21,23,25,27,29,31,33,-1,35,-1,37,39,-1,41,43,45,47,49,51,53,55,-1,57,59,-1,-1,-1,-1,-1,-1,61,63,65,-1,-1,-1,67,-1,69,71,73,75,77,79,81,-1,83,-1,-1,-1,-1,-1,-1,-1,-1,-1,-1,-1,-1,-1,-1,-1,-1,-1,-1,-1,-1,-1,-1,-1,-1,-1,-1,-1,-1],"loss_changes":[1.1605547E3,8.558392E1,2.2937457E2,1.2044739E1,3.306164E1,4.3786995E1,1.346471E2,9.129517E0,3.4473672E0,3.9819584E0,8.806782E0,8.707672E0,1.8646584E1,6.1190674E1,4.0399548E1,8.915077E0,5.158325E0,0E0,8.8841915E-1,0E0,2.1115627E0,2.7837677E0,0E0,5.851013E0,1.5005357E0,7.48962E0,6.6193066E0,3.872522E1,1.0256096E1,6.727783E0,1.1134573E1,0E0,6.717107E0,4.554077E0,0E0,0E0,0E0,0E0,0E0,0E0,1.3643742E-1,1.9305725E0,4.7591373E-1,0E0,0E0,0E0,3.2246556E0,0E0,1.6775723E0,2.1984842E1,2.4980286E1,3.5877495E0,3.758787E0,3.0465775E0,2.3649733E0,0E0,3.1372967E0,0E0,0E0,0E0,0E0,0E0,0E0,0E0,0E0,0E0,0E0,0E0,0E0,0E0,0E0,0E0,0E0,0E0,0E0,0E0,0E0,0E0,0E0,0E0,0E0,0E0,0E0,0E0,0E0],"parents":[2147483647,0,0,1,1,2,2,3,3,4,4,5,5,6,6,7,7,8,8,9,9,10,10,11,11,12,12,13,13,14,14,15,15,16,16,18,18,20,20,21,21,23,23,24,24,25,25,26,26,27,27,28,28,29,29,30,30,32,32,33,33,40,40,41,41,42,42,46,46,48,48,49,49,50,50,51,51,52,52,53,53,54,54,56,56],"right_children":[2,4,6,8,10,12,14,16,18,20,22,24,26,28,30,32,34,-1,36,-1,38,40,-1,42,44,46,48,50,52,54,56,-1,58,60,-1,-1,-1,-1,-1,-1,62,64,66,-1,-1,-1,68,-1,70,72,74,76,78,80,82,-1,84,-1,-1,-1,-1,-1,-1,-1,-1,-1,-1,-1,-1,-1,-1,-1,-1,-1,-1,-1,-1,-1,-1,-1,-1,-1,-1,-1,-1],"split_conditions":[1.1915248E1,2.6864624E0,7.260862E-1,2.4194E1,2.075938E0,1.4262098E1,1.9797155E0,4.7874966E0,-2.631257E0,6.59E-1,7.0678604E-1,5.197549E0,1.769422E-1,1.2652869E0,1.6125541E0,7.3100126E-1,3.0522375E1,9.449111E-2,1.0536532E1,-2.2794727E-2,7.27E-1,-5.9719986E-1,1.1362439E-1,7.240767E0,1.2762127E1,-1.8404585E0,3.950528E0,-2.8372307E0,3.7166958E0,4.0678E1,2.6319313E-1,1.3392574E-1,8.786151E0,-9.2931247E-1,-2.8828904E-2,3.0769289E-2,-5.023994E-2,-1.8735841E-3,1.4143966E-1,4.919832E-2,4.268115E0,-3.764528E0,9.194409E0,5.8146108E-2,-4.4778217E-2,1.0159116E-1,6.2272567E-1,1.3882051E-1,1.0483724E1,-3.555695E0,4.126084E0,5.7169023E0,-6.455712E-1,8.719942E0,-7.2902083E-1,1.1790837E-1,3.0886676E0,1.166297E-1,-3.2481387E-2,-2.6489947E-2,1.3307878E-1,-8.95087E-3,-5.5939544E-2,2.4528414E-2,1.4512672E-1,-3.406395E-2,2.9565E-2,-5.091409E-2,7.549876E-2,-4.392625E-2,6.333133E-2,-4.2616427E-2,1.461769E-1,-5.454735E-2,9.3099944E-2,1.3991366E-1,-1.6294068E-2,-4.6462428E-2,8.779556E-2,1.366951E-1,-1.5164943E-2,-4.650308E-2,8.1950225E-2,7.901549E-2,-5.3788047E-2],"split_indices":[679,2124,2637,4004,2254,1195,2609,1246,1654,2956,1617,1980,2534,2483,1987,2162,345,0,1390,0,2845,1661,0,2191,765,2605,1428,2376,2191,3963,1789,0,1157,448,0,0,0,0,0,0,758,1404,589,0,0,0,2665,0,831,1814,2599,1828,2023,2389,2385,0,1970,0,0,0,0,0,0,0,0,0,0,0,0,0,0,0,0,0,0,0,0,0,0,0,0,0,0,0,0],"split_type":[0,0,0,0,0,0,0,0,0,0,0,0,0,0,0,0,0,0,0,0,0,0,0,0,0,0,0,0,0,0,0,0,0,0,0,0,0,0,0,0,0,0,0,0,0,0,0,0,0,0,0,0,0,0,0,0,0,0,0,0,0,0,0,0,0,0,0,0,0,0,0,0,0,0,0,0,0,0,0,0,0,0,0,0,0],"sum_hessian":[2.8165676E3,6.5518353E2,2.161384E3,5.9067975E2,6.450381E1,1.3709102E2,2.0242931E3,5.8272235E2,7.9573884E0,1.7812649E1,4.669116E1,8.7527016E1,4.9563995E1,1.9371597E3,8.713347E1,2.2348305E1,5.60374E2,1.9839504E0,5.9734383E0,1.5292466E0,1.6283401E1,4.404951E1,2.6416478E0,8.338933E1,4.1376896E0,3.4169262E1,1.5394732E1,1.908883E3,2.8276585E1,5.8208122E1,2.8925344E1,9.023946E0,1.3324359E1,5.587139E2,1.6601169E0,1.0189915E0,4.9544463E0,1.0699857E0,1.5213416E1,1.9756114E0,4.20739E1,8.06631E1,2.7262235E0,1.2395179E0,2.898172E0,3.0479393E0,3.1121323E1,1.1136242E1,4.258491E0,2.4102495E1,1.8847805E3,2.0598139E1,7.6784472E0,5.4050785E1,4.157336E0,3.997753E0,2.4927591E1,3.145453E0,1.0178906E1,1.4889494E0,5.57225E2,1.052459E0,4.1021442E1,1.8070478E0,7.885606E1,1.4617282E0,1.2644954E0,2.9830187E1,1.2911372E0,2.9383488E0,1.3201423E0,9.663397E0,1.4439097E1,1.8741174E3,1.0663135E1,1.922439E1,1.3737473E0,5.6350193E0,2.0434277E0,5.2890625E1,1.1601624E0,2.8864906E0,1.2708457E0,1.0468445E0,2.3880747E1],"tree_param":{"num_deleted":"0","num_feature":"4192","num_nodes":"85","size_leaf_vector":"1"}},{"base_weights":[5.985231E-2,-5.7264216E-2,1.3219383E0,-5.325547E-2,1.345045E-1],"categories":[],"categories_nodes":[],"categories_segments":[],"categories_sizes":[],"default_left":[0,0,0,0,0],"id":26,"left_children":[1,-1,3,-1,-1],"loss_changes":[2.3063271E3,0E0,4.2047485E1,0E0,0E0],"parents":[2147483647,0,0,2,2],"right_children":[2,-1,4,-1,-1],"split_conditions":[2.2135912E1,-5.7264216E-2,5.8628707E0,-5.325547E-2,1.345045E-1],"split_indices":[1334,0,1739,0,0],"split_type":[0,0,0,0,0],"sum_hessian":[2.887236E3,1.9237133E3,9.635228E2,1.158628E1,9.519365E2],"tree_param":{"num_deleted":"0","num_feature":"4192","num_nodes":"5","size_leaf_vector":"1"}},{"base_weights":[-7.18017E-3,-2.9234156E-1,1.1023823E0,4.0818027E-1,-4.8615026E-1,-3.0243242E-1,1.2501391E0,-2.858759E-1,9.0248126E-1,-1.1454737E-1,-5.3827226E-1,-5.362026E-1,5.575525E-1,-2.3007557E-1,1.3035157E0,4.9954456E-1,-4.1274795E-1,-1.610548E-1,1.0735104E0,-3.4834173E-1,6.907913E-1,8.029809E-1,-5.5007434E-1,2.967822E-2,-5.6261104E-2,1.236174E0,-4.7691066E-2,6.7719734E-1,-5.4248977E-2,1.329148E0,-5.0525635E-2,-5.144161E-2,8.641534E-1,3.1454018E-1,-4.738827E-1,-3.4761044E-1,8.096171E-1,-1.7884089E-1,1.1756097E0,-4.2731234E-1,6.072132E-1,-1.4822985E-1,1.2564268E0,-4.621725E-2,1.3876784E0,-5.571781E-1,7.1451646E-1,2.2721805E-2,1.3875608E-1,-3.425287E-2,1.1417865E-1,1.3435059E0,-2.4586293E-1,-4.529532E-2,1.1316764E-1,-5.2870613E-2,1.0541709E-1,-5.102576E-2,4.0290892E-2,-5.205194E-2,7.391008E-2,1.3866298E-1,-3.911347E-2,7.6722816E-2,-5.4850437E-2,8.398172E-3,1.2768517E-1,-4.804345E-2,7.695646E-2,-4.8565198E-2,1.3024472E-1,9.746491E-2,-5.5369493E-2,1.4402889E-1,-4.3054383E-2,2.253489E-2,1.5258075E-1,6.586434E-2,-5.6041986E-2,1.16587184E-1,-4.051938E-2,1.351998E-1,-9.190657E-3,-4.4398475E-2,3.0270476E-2],"categories":[],"categories_nodes":[],"categories_segments":[],"categories_sizes":[],"default_left":[0,0,0,0,0,0,0,0,0,0,0,0,0,0,0,0,0,0,0,0,0,0,0,0,0,0,0,0,0,0,0,0,0,0,0,0,0,0,0,0,0,0,0,0,0,0,0,0,0,0,0,0,0,0,0,0,0,0,0,0,0,0,0,0,0,0,0,0,0,0,0,0,0,0,0,0,0,0,0,0,0,0,0,0,0],"id":27,"left_children":[1,3,5,7,9,11,13,15,17,19,21,23,25,27,29,31,33,35,37,39,41,43,45,-1,-1,47,-1,49,-1,51,-1,-1,53,55,57,59,61,63,65,67,69,71,73,-1,75,77,79,-1,-1,-1,-1,81,83,-1,-1,-1,-1,-1,-1,-1,-1,-1,-1,-1,-1,-1,-1,-1,-1,-1,-1,-1,-1,-1,-1,-1,-1,-1,-1,-1,-1,-1,-1,-1,-1],"loss_changes":[8.845129E2,3.0213538E2,1.1901819E2,1.6578624E2,3.3687195E1,1.1396397E1,4.117627E1,2.0280426E1,5.147397E1,4.083585E1,2.4626587E1,1.132946E0,9.216061E0,5.7122436E0,2.3830261E1,1.0969204E1,7.8848095E0,7.5141335E0,3.1293396E1,1.2918926E1,2.3366892E1,1.0800163E1,1.400885E1,0E0,0E0,8.6065865E-1,0E0,2.8900588E0,0E0,1.1474365E1,0E0,0E0,8.022013E0,9.346291E0,5.3369293E0,6.8113112E0,5.21164E0,7.1330004E0,2.4748596E1,1.0259254E1,1.0676439E1,9.901968E0,9.702206E0,0E0,1.2042332E0,6.3095703E0,4.9711666E0,0E0,0E0,0E0,0E0,6.0789795E0,7.101047E-1,0E0,0E0,0E0,0E0,0E0,0E0,0E0,0E0,0E0,0E0,0E0,0E0,0E0,0E0,0E0,0E0,0E0,0E0,0E0,0E0,0E0,0E0,0E0,0E0,0E0,0E0,0E0,0E0,0E0,0E0,0E0,0E0],"parents":[2147483647,0,0,1,1,2,2,3,3,4,4,5,5,6,6,7,7,8,8,9,9,10,10,11,11,12,12,13,13,14,14,15,15,16,16,17,17,18,18,19,19,20,20,21,21,22,22,25,25,27,27,29,29,32,32,33,33,34,34,35,35,36,36,37,37,38,38,39,39,40,40,41,41,42,42,44,44,45,45,46,46,51,51,52,52],"right_children":[2,4,6,8,10,12,14,16,18,20,22,24,26,28,30,32,34,36,38,40,42,44,46,-1,-1,48,-1,50,-1,52,-1,-1,54,56,58,60,62,64,66,68,70,72,74,-1,76,78,80,-1,-1,-1,-1,82,84,-1,-1,-1,-1,-1,-1,-1,-1,-1,-1,-1,-1,-1,-1,-1,-1,-1,-1,-1,-1,-1,-1,-1,-1,-1,-1,-1,-1,-1,-1,-1,-1],"split_conditions":[1.7394836E1,7.07905E0,1.1937227E1,1.1595509E1,1.3378951E1,1.2415049E1,7.635328E-1,-1.9391937E0,1.0259951E1,1.5095044E1,-3.8861735E0,7.6450787E0,1.1850086E1,-1.4310497E0,2.5165253E0,4.706137E-2,-4.0887375E0,2.2928572E-1,-1.4874097E0,4.8294187E0,-1.296679E0,9.380757E-1,4.66727E5,2.967822E-2,-5.6261104E-2,9.87134E0,-4.7691066E-2,1.9020393E1,-5.4248977E-2,2.6050556E0,-5.0525635E-2,-5.144161E-2,-7.2701067E-1,2.612472E0,1.45E0,4.1614914E0,-2.3036551E0,-3.0334058E0,-3.6343598E0,1.8198528E1,1.1744465E1,-3.8576245E0,1.1462615E0,-4.621725E-2,1.0564694E1,-5.473798E0,-8.57017E-1,2.2721805E-2,1.3875608E-1,-3.425287E-2,1.1417865E-1,4.3061006E-1,1.47E-1,-4.529532E-2,1.1316764E-1,-5.2870613E-2,1.0541709E-1,-5.102576E-2,4.0290892E-2,-5.205194E-2,7.391008E-2,1.3866298E-1,-3.911347E-2,7.6722816E-2,-5.4850437E-2,8.398172E-3,1.2768517E-1,-4.804345E-2,7.695646E-2,-4.8565198E-2,1.3024472E-1,9.746491E-2,-5.5369493E-2,1.4402889E-1,-4.3054383E-2,2.253489E-2,1.5258075E-1,6.586434E-2,-5.6041986E-2,1.16587184E-1,-4.051938E-2,1.351998E-1,-9.190657E-3,-4.4398475E-2,3.0270476E-2],"split_indices":[1190,1395,306,975,706,323,2191,2521,214,303,2481,1306,485,2599,1405,2520,2523,4078,2475,2191,2243,1914,4116,0,0,844,0,303,0,2543,0,0,1712,2113,2705,1678,2383,1889,2303,1348,225,2173,2566,0,809,2521,2543,0,0,0,0,2194,3255,0,0,0,0,0,0,0,0,0,0,0,0,0,0,0,0,0,0,0,0,0,0,0,0,0,0,0,0,0,0,0,0],"split_type":[0,0,0,0,0,0,0,0,0,0,0,0,0,0,0,0,0,0,0,0,0,0,0,0,0,0,0,0,0,0,0,0,0,0,0,0,0,0,0,0,0,0,0,0,0,0,0,0,0,0,0,0,0,0,0,0,0,0,0,0,0,0,0,0,0,0,0,0,0,0,0,0,0,0,0,0,0,0,0,0,0,0,0,0,0],"sum_hessian":[2.7934954E3,2.222931E3,5.705644E2,4.8148752E2,1.7414434E3,5.420046E1,5.1636395E2,2.0045166E2,2.8103586E2,2.1460672E2,1.5268367E3,4.291213E1,1.1288329E1,1.7856823E1,4.9850714E2,2.7468212E1,1.7298344E2,3.8941074E1,2.4209477E2,1.6676218E2,4.784454E1,1.2733105E1,1.5141035E3,1.004045E0,4.190808E1,6.6988225E0,4.5895066E0,4.2748194E0,1.3582005E1,4.918029E2,6.704249E0,7.15622E0,2.0311993E1,1.3091827E1,1.5989162E2,3.3201828E1,5.739248E0,1.8192596E1,2.2390218E2,1.5454298E2,1.2219193E1,1.9563482E1,2.828106E1,4.090892E0,8.642213E0,1.5062019E3,7.9016128E0,1.2002637E0,5.498559E0,1.4202473E0,2.854572E0,4.8750577E2,4.2971225E0,3.3121276E0,1.6999865E1,6.25067E0,6.841157E0,1.5392392E2,5.9676967E0,2.9093683E1,4.1081443E0,3.771891E0,1.9673566E0,4.809164E0,1.3383432E1,1.9158419E1,2.0474376E2,1.4854842E2,5.9945745E0,4.8681755E0,7.351018E0,4.817714E0,1.4745769E1,2.5633507E1,2.647553E0,1.1974386E0,7.4447746E0,3.4676735E0,1.5027343E3,5.602156E0,2.2994566E0,4.8469635E2,2.8093932E0,3.2970138E0,1.000109E0],"tree_param":{"num_deleted":"0","num_feature":"4192","num_nodes":"85","size_leaf_vector":"1"}},{"base_weights":[-1.9083485E-2,1.2582211E0,-4.4041222E-1,-5.5599876E-2,1.3370827E-1,-5.0108474E-1,7.0970947E-1,6.2235534E-1,-5.438414E-1,-5.5978816E-2,1.4698297E0,-5.5567604E-2,1.3873308E0,-5.3751647E-2,-5.642017E-1,1.541975E-1,-4.0211204E-2,-4.2480383E-2,1.5049972E-1,1.1799161E0,-5.717468E-2,-5.683456E-1,6.2007064E-1,1.5468572E-1,-4.6272613E-2,-2.6101077E-2,-5.7293385E-2,-3.801011E-2,1.0767033E-1],"categories":[],"categories_nodes":[],"categories_segments":[],"categories_sizes":[],"default_left":[0,0,0,0,0,0,0,0,0,0,0,0,0,0,0,0,0,0,0,0,0,0,0,0,0,0,0,0,0],"id":28,"left_children":[1,3,5,-1,-1,7,9,11,13,-1,15,-1,17,19,21,-1,-1,-1,-1,23,-1,25,27,-1,-1,-1,-1,-1,-1],"loss_changes":[1.5266718E3,1.0141553E2,1.4920743E2,0E0,0E0,9.769632E1,1.04368576E2,6.815702E1,1.9457886E1,0E0,9.721634E0,0E0,1.0367302E1,5.116246E1,9.55426E0,0E0,0E0,0E0,0E0,1.499493E1,0E0,2.485962E0,3.6137073E0,0E0,0E0,0E0,0E0,0E0,0E0],"parents":[2147483647,0,0,1,1,2,2,5,5,6,6,7,7,8,8,10,10,12,12,13,13,14,14,19,19,21,21,22,22],"right_children":[2,4,6,-1,-1,8,10,12,14,-1,16,-1,18,20,22,-1,-1,-1,-1,24,-1,26,28,-1,-1,-1,-1,-1,-1],"split_conditions":[-5.055941E0,2.260772E1,1.7635561E1,-5.5599876E-2,1.3370827E-1,5.1272917E0,2.4557116E1,1.5950704E0,-4.129268E0,-5.5978816E-2,1.01243925E1,-5.5567604E-2,9.5997E0,-3.902E0,3.73E-1,1.541975E-1,-4.0211204E-2,-4.2480383E-2,1.5049972E-1,-2.251427E0,-5.717468E-2,-8.60689E0,1.4962E1,1.5468572E-1,-4.6272613E-2,-2.6101077E-2,-5.7293385E-2,-3.801011E-2,1.0767033E-1],"split_indices":[1712,930,940,0,0,557,930,2636,1613,0,557,0,1164,39,3183,0,0,0,0,1539,0,2013,24,0,0,0,0,0,0],"split_type":[0,0,0,0,0,0,0,0,0,0,0,0,0,0,0,0,0,0,0,0,0,0,0,0,0,0,0,0,0],"sum_hessian":[2.8347793E3,7.026455E2,2.1321338E3,2.9018583E1,6.736269E2,2.0258292E3,1.0630457E2,7.377667E1,1.9520526E3,3.9911255E1,6.6393326E1,2.9154114E1,4.462256E1,7.8006516E1,1.874046E3,6.409919E1,2.2941313E0,2.5616293E0,4.206093E1,2.268991E1,5.5316605E1,1.8680297E3,6.016365E0,1.8594498E1,4.0954127E0,2.8329227E1,1.8397004E3,1.9383523E0,4.078013E0],"tree_param":{"num_deleted":"0","num_feature":"4192","num_nodes":"29","size_leaf_vector":"1"}},{"base_weights":[-1.2504156E-2,-5.7216194E-2,1.105418E0,-5.7380624E-2,1.3335224E0,-5.5338044E-2,1.3824118E0,-4.4016004E-2,1.3905795E0,1.3420859E-1,1.53782E-1],"categories":[],"categories_nodes":[],"categories_segments":[],"categories_sizes":[],"default_left":[0,0,0,0,0,0,0,0,0,0,0],"id":29,"left_children":[1,-1,3,-1,5,-1,7,-1,9,-1,-1],"loss_changes":[1.7034343E3,0E0,3.4868164E2,0E0,7.4562744E1,0E0,1.2224365E1,0E0,3.482544E0,0E0,0E0],"parents":[2147483647,0,0,2,2,4,4,6,6,8,8],"right_children":[2,-1,4,-1,6,-1,8,-1,10,-1,-1],"split_conditions":[4.1055646E0,-5.7216194E-2,2.501568E0,-5.7380624E-2,1.5964713E-2,-5.5338044E-2,1.7019005E1,-4.4016004E-2,1.6216202E1,1.3420859E-1,1.53782E-1],"split_indices":[2193,0,2430,0,2125,0,1192,0,248,0,0],"split_type":[0,0,0,0,0,0,0,0,0,0,0],"sum_hessian":[2.720636E3,1.8133293E3,9.073066E2,1.08326904E2,7.989797E2,1.9918055E1,7.7906165E2,3.2397199E0,7.758219E2,5.9121906E2,1.8460289E2],"tree_param":{"num_deleted":"0","num_feature":"4192","num_nodes":"11","size_leaf_vector":"1"}},{"base_weights":[1.1090091E-2,-4.8780242E-1,9.707603E-1,-5.3216285E-1,3.2056737E-1,1.1358262E0,-3.983123E-1,2.556241E-1,-5.445344E-1,-5.1539296E-1,1.1070143E0,-3.3702457E-1,1.1679633E0,8.386199E-1,-5.6148853E-2,1.2979888E0,-5.3475868E-2,4.030928E-1,-5.4901665E-1,-5.583793E-2,6.805225E-2,1.216337E0,-4.2639855E-2,9.289893E-2,-5.4005545E-2,1.182088E0,-5.0431877E-2,-3.85207E-2,1.12797834E-1,1.5108621E-1,-3.088643E-2,-4.4193003E-2,1.13959506E-1,3.005587E-1,-5.525128E-1,1.2492124E-1,2.6444254E-2,-4.676385E-2,1.1908166E0,-4.5072142E-2,1.23879746E-1,2.0617522E-2,-5.562064E-2,1.1947199E-1,-4.285043E-2],"categories":[],"categories_nodes":[],"categories_segments":[],"categories_sizes":[],"default_left":[0,0,0,0,0,0,0,0,0,0,0,0,0,0,0,0,0,0,0,0,0,0,0,0,0,0,0,0,0,0,0,0,0,0,0,0,0,0,0,0,0,0,0,0,0],"id":30,"left_children":[1,3,5,7,9,11,13,15,17,19,21,23,25,27,-1,29,-1,31,33,-1,-1,35,-1,-1,-1,37,-1,-1,-1,-1,-1,-1,-1,39,41,-1,-1,-1,43,-1,-1,-1,-1,-1,-1],"loss_changes":[1.2601772E3,6.22731E1,2.0390674E2,1.6143341E1,6.0210884E1,3.8434326E1,2.017172E1,2.217211E1,7.0897217E0,2.6756754E0,8.407639E0,5.1124053E0,1.9179688E1,4.604927E0,0E0,4.412098E0,0E0,5.6002526E0,4.9477234E0,0E0,0E0,1.0524673E0,0E0,0E0,0E0,1.1795166E1,0E0,0E0,0E0,0E0,0E0,0E0,0E0,5.6654696E0,4.608368E0,0E0,0E0,0E0,5.4207764E0,0E0,0E0,0E0,0E0,0E0,0E0],"parents":[2147483647,0,0,1,1,2,2,3,3,4,4,5,5,6,6,7,7,8,8,9,9,10,10,11,11,12,12,13,13,15,15,17,17,18,18,21,21,25,25,33,33,34,34,38,38],"right_children":[2,4,6,8,10,12,14,16,18,20,22,24,26,28,-1,30,-1,32,34,-1,-1,36,-1,-1,-1,38,-1,-1,-1,-1,-1,-1,-1,40,42,-1,-1,-1,44,-1,-1,-1,-1,-1,-1],"split_conditions":[2.0072023E1,1.7251518E1,2.9434055E-2,-5.1842675E0,1.8857E1,4.0008616E-1,4.722283E0,-8.6229146E-1,1.9719195E-1,2.256018E1,9.275425E0,1.1119838E0,2.9349718E0,2.4152694E0,-5.6148853E-2,5.8837175E0,-5.3475868E-2,1.7192482E1,-4.934018E0,-5.583793E-2,6.805225E-2,1.9277501E0,-4.2639855E-2,9.289893E-2,-5.4005545E-2,2.01E-4,-5.0431877E-2,-3.85207E-2,1.12797834E-1,1.5108621E-1,-3.088643E-2,-4.4193003E-2,1.13959506E-1,1.9040735E1,2.19949E0,1.2492124E-1,2.6444254E-2,-4.676385E-2,7.85711E5,-4.5072142E-2,1.23879746E-1,2.0617522E-2,-5.562064E-2,1.1947199E-1,-4.285043E-2],"split_indices":[556,704,2172,1761,1230,2124,976,2098,493,388,361,936,1788,2299,0,786,0,131,2456,0,0,2488,0,0,0,3697,0,0,0,0,0,0,0,1230,577,0,0,0,4133,0,0,0,0,0,0],"split_type":[0,0,0,0,0,0,0,0,0,0,0,0,0,0,0,0,0,0,0,0,0,0,0,0,0,0,0,0,0,0,0,0,0,0,0,0,0,0,0,0,0,0,0,0,0],"sum_hessian":[2.6301125E3,1.7308221E3,8.992905E2,1.6411058E3,8.971623E1,8.026832E2,9.660728E1,2.506974E1,1.6160361E3,4.3656185E1,4.6060047E1,1.6937677E1,7.857456E2,1.07767105E1,8.583057E1,1.0534504E1,1.4535236E1,7.1891866E0,1.6088469E3,4.2656036E1,1.0001457E0,4.318781E1,2.872241E0,1.8467193E0,1.5090959E1,7.794551E2,6.2904725E0,1.9974309E0,8.77928E0,9.354918E0,1.1795863E0,3.5341988E0,3.6549876E0,6.2453704E0,1.6026016E3,4.1444115E1,1.7436918E0,3.825611E0,7.756295E2,3.756789E0,2.4885814E0,7.498674E0,1.5951029E3,7.7402594E2,1.6035571E0],"tree_param":{"num_deleted":"0",